0.09525
0.10819
-1.42348
-0.01205
0.01622
0.06070
-0.37653
0.08594
-1.56667
-1.05285
0.04873
-0.89871
0.04120
-0.46739
0.09915
-1.73403
-0.01627
0.09455
0.09977
-0.57957
-1.22035
-0.31318
0.19579
0.09315
0.09763
0.06464
-2.87546
-0.72543
-1.53023
-0.27840
-0.10016
-0.91897
-1.01083
-0.42090
0.15949
-1.11779
-1.30523
-1.10394
0.12515
-0.30751
0.10764
0.09201
-0.68260
0.08940
-1.76233
0.17908
-0.87551
0.06442
-1.64874
-1.29330
-0.43591
0.14943
0.12752
0.06424
-0.57961
-1.40980
-0.46853
-1.24754
0.06286
0.14522
0.12553
0.13381
-0.23141
0.09779
-0.25235
-0.33889
0.13804
-1.60038
-3.37036
-3.23181
0.10373
-0.22149
0.07880
0.12233
-2.00705
0.10740
-2.83721
0.09530
-0.09723
0.03295
-3.30800
-2.36865
-0.26820
0.11535
0.13404
0.13116
-1.11560
-4.62903
-0.20270
-3.70050
0.02749
0.13018
0.02080
0.06659
-0.13780
0.11541
-0.16791
-0.16356
0.21162
-0.39862
-0.81873
-0.37122
0.33719
-0.03985
0.33266
0.32734
-0.26505
0.31182
-0.49090
0.42076
-0.17862
0.25582
-0.76268
-0.64284
-0.05666
0.43187
0.34473
0.48340
-0.25770
-0.67480
-0.14237
-0.54427
0.20640
0.34519
0.39426
0.28337
-0.41903
0.38732
0.06555
0.09112
-1.11002
0.04439
0.08073
0.06887
-0.13220
0.03835
-1.43485
-0.66370
0.12006
-0.98225
0.05954
-0.26513
0.10409
-2.95611
0.04364
0.02798
0.13224
-0.23948
-0.79771
-0.13726
0.06549
0.00962
0.04651
0.03473
-3.10628
-0.90033
-0.78693
-0.45882
-0.15174
-1.15156
-0.24270
-0.23140
0.28068
-0.60191
-1.11034
-0.88833
0.22243
-0.38307
0.20102
0.23274
-0.39663
0.22015
-0.71987
0.33288
-0.30357
0.11118
-0.79076
-0.74169
-0.17955
0.26526
0.19608
0.19841
-0.36785
-0.99536
-0.31294
-0.76632
0.14883
0.23389
0.38977
0.22385
-0.29519
0.21548
0.20382
0.10078
-1.27650
0.14324
0.14769
0.13289
-0.74822
0.14819
-1.35287
-0.15069
0.10509
-0.23243
0.24644
-0.37557
0.16018
-1.29484
0.08100
0.08217
0.10401
-0.63263
-0.63063
-0.48423
0.15693
0.09974
0.15684
0.15251
-1.25479
-0.52754
-1.10225
-0.54115
-0.13955
-0.88793
0.13398
0.08726
-1.99265
0.09045
0.07714
0.07386
-0.19820
0.06038
-2.15927
-0.35531
0.12262
-0.44877
0.07513
-0.09645
0.08616
-1.60735
0.06529
0.06731
0.08116
-0.14307
-1.50987
-0.24153
0.09076
0.06975
0.05381
0.07990
-1.66612
-0.36588
-0.92798
-0.18417
-0.07612
-1.37287
-0.52572
-0.44835
0.18269
-1.11803
-1.19112
-1.00713
0.12804
-0.45078
0.14002
0.15290
-0.99333
0.16441
-1.23156
0.16483
-0.51390
0.12247
-1.94433
-1.03046
-0.56291
0.16363
0.14171
0.18519
-0.65695
-1.27668
-0.66275
-2.13699
0.12945
0.15884
0.13992
0.15502
-0.29771
0.13361
-0.20885
-0.22258
0.07118
-1.72349
-4.31075
-2.94031
0.08175
-0.17289
0.09376
0.06143
-2.13009
0.06514
-2.71638
0.06901
-0.22830
0.09469
-4.04564
-3.16684
-0.23426
0.08814
0.11143
0.08856
-0.98416
-4.53107
-0.23065
-4.49454
0.07389
0.09705
0.07245
0.10072
-0.16332
0.07383
-0.14913
-0.20640
0.21250
-0.63241
-1.09601
-0.50625
0.28772
-0.05937
0.26744
0.26826
-0.35523
0.29561
-0.63985
0.27768
-0.05517
0.17616
-0.95108
-0.71703
-0.25773
0.25318
0.27433
0.31538
-0.37222
-0.70314
-0.13567
-0.91314
0.16364
0.24874
0.30899
0.29313
-0.24433
0.28885
-0.64950
-0.94403
0.07792
-1.07970
-1.97580
-1.97773
0.07438
-0.45801
0.12930
0.15249
-1.60091
0.16394
-1.89231
0.10983
-0.66360
0.09855
-2.16467
-1.76816
-0.77504
0.11257
0.19546
0.11707
-0.63525
-2.20842
-0.52974
-2.05096
0.07603
0.13242
0.16462
0.14881
-0.22791
0.16371
0.08378
0.11505
-1.33425
0.15570
0.07454
0.07080
-0.37021
0.09602
-1.62552
-0.85622
0.03316
-1.05536
0.11139
-0.40548
-0.00178
-2.70891
0.09295
0.07393
0.08686
-0.43614
-0.92074
-0.33799
0.10612
0.04693
0.06171
0.08763
-3.30025
-0.64315
-0.49449
-0.69802
-0.05202
-1.03620
0.06986
0.10789
-1.30548
0.07133
0.06996
0.08368
-0.61453
0.13830
-1.46575
-0.95552
0.09255
-0.56442
0.06445
-0.49864
0.08985
-1.87592
0.10593
0.07722
0.16328
-0.52009
-0.95669
-0.40537
0.14056
0.04414
0.03136
0.12448
-2.40553
-0.67357
-1.44308
-0.60548
0.01304
-1.45753
0.30529
0.17700
-0.27575
0.21343
0.20258
0.29963
-0.53156
0.33546
0.21103
-0.03204
0.28563
0.25175
0.28771
0.55814
0.24723
-0.24606
0.31441
0.12383
0.22523
0.09950
-0.78756
-0.34235
0.33386
0.12025
0.37674
0.28053
-0.23825
0.17049
-0.19309
-0.13813
-0.03261
-0.20041
0.04942
0.06722
-0.21422
0.05561
0.02720
0.00904
-0.11279
0.02358
-0.42639
-0.10480
-0.00117
-0.22572
0.01633
-0.11883
0.08553
-2.13101
0.05927
0.06480
0.04375
-0.16471
-0.29605
-0.11544
0.05496
0.06190
0.00998
0.04183
-2.98499
-0.21724
-0.14897
-0.13022
-0.34886
-0.49402
0.41503
0.38269
-1.40756
0.28196
0.21848
0.16384
-0.45218
0.34025
-1.39690
-0.48085
0.18423
-0.06969
0.28384
-0.25348
0.30237
-0.92756
0.30077
0.31030
0.30474
-0.36131
-0.56608
-0.54608
0.27162
0.17480
0.33767
0.09384
-1.06360
0.01350
-0.46624
-0.15016
0.02714
-0.50806
-0.69029
-0.78404
0.06154
-2.98800
-5.24566
-3.39851
0.01985
-0.60965
0.13247
0.10470
-3.43618
0.09122
-3.23962
0.09372
-0.59121
0.07425
-4.50740
-3.22779
-0.71208
0.05093
0.08098
0.18486
-1.55908
-5.33596
-0.58146
-5.45963
0.12605
0.10118
0.12048
0.13276
-0.28831
0.07657
0.03194
0.02630
-0.67930
0.05644
0.03424
0.04438
-0.10707
0.07480
-1.30762
-0.19678
0.01030
-0.46548
0.05077
-0.15025
0.05891
-1.83370
0.02827
0.00243
0.01655
-0.10692
-0.48537
-0.12985
0.02156
0.02093
0.04099
0.03195
-3.53710
-0.25352
-0.16487
-0.06424
-0.09958
-0.73915
-0.46099
-0.57162
0.05504
-3.03859
-4.82970
-2.43908
0.14910
-0.35757
0.07765
0.13602
-2.59545
0.09204
-3.27496
0.15418
-0.36568
0.02845
-2.86662
-3.99085
-0.55750
0.08332
0.09148
0.09385
-1.35995
-4.33359
-0.40579
-4.91596
0.09473
0.11654
0.04193
0.12585
-0.22801
0.07670
0.06062
0.10630
0.05206
0.12755
0.05418
0.18120
-0.20077
0.09412
-0.44562
0.17439
0.12761
0.33344
0.08868
0.05341
0.13695
0.08177
0.14615
0.12781
0.08990
-0.10756
-0.21098
0.00785
0.05931
0.13204
0.18364
0.12736
-0.67995
0.16796
-0.52285
-0.17290
0.05996
0.35538
0.08990
0.12532
-0.95118
0.04729
0.11571
0.06317
-0.43591
0.06096
-1.13740
-0.34091
0.15691
-0.63514
0.03292
-0.44704
0.16588
-1.28282
0.04897
0.10378
0.13454
-0.54648
-0.70433
-0.41937
0.06806
0.14011
0.18004
0.05002
-0.53846
-0.40580
-0.67412
-0.51546
-0.18426
-0.72788
0.14040
0.21831
-0.30534
0.22931
0.11027
0.11677
-0.63782
0.32648
-0.56570
0.04523
0.19170
0.22274
0.22834
0.06840
0.25441
-0.78503
0.17004
0.17185
0.26346
-0.30676
-0.31421
-0.15531
0.18840
0.13629
0.25594
0.13642
-0.79952
0.08756
-0.49793
-0.07548
-0.16166
-0.04084
0.07073
0.14494
-1.13220
0.10147
0.00478
0.05112
-0.25713
0.03915
-1.19157
-1.13385
0.03115
-0.52599
0.12000
-0.27773
0.05309
-3.46373
0.07367
0.09134
0.15950
-0.32764
-0.67458
-0.20812
0.05631
0.03219
0.11685
0.06709
-4.50851
-0.66261
-0.93900
-0.96119
-0.32522
-0.83258
0.02514
0.03349
-0.59548
0.06298
0.04946
0.02799
-0.16763
0.07035
-1.40463
-0.31924
0.06925
-0.44908
0.04591
-0.09350
0.03061
-3.08831
0.02464
0.05839
-0.03684
-0.20434
-0.38695
-0.14911
0.02993
0.07513
0.06690
0.05990
-3.70056
-0.34102
-0.18132
-0.06347
-0.06800
-0.81370
0.17959
0.10625
-0.26202
0.09945
0.14035
0.14447
-0.75448
0.10013
-0.28186
-0.16566
0.07548
-0.33742
0.09597
-0.21307
0.15979
-1.35022
0.16856
0.15190
0.22280
-0.64579
-1.11618
-0.26267
0.08960
0.11585
0.09511
0.12622
-0.79325
-0.22682
-0.55850
-0.68984
-0.09210
-0.28285
-0.65546
-0.69803
0.08206
-2.02009
-4.47457
-3.49523
0.15506
-0.30331
0.05608
0.13776
-2.42295
0.08143
-2.72378
0.08303
-0.35831
0.07719
-4.78299
-3.26114
-0.55308
0.12397
0.08646
0.11485
-0.95123
-4.71067
-0.31879
-4.67580
0.06296
0.12854
0.10887
0.17352
-0.21935
0.08664
0.07878
0.08387
-1.34907
0.00772
0.09061
0.09703
-0.41501
0.14735
-2.02460
-0.54560
0.05141
-0.75492
0.08584
-0.55156
0.16834
-3.33155
0.12006
0.09471
0.11319
-0.25732
-0.99169
-0.44883
0.08064
0.14863
0.07566
0.02910
-1.36791
-0.50112
-0.94400
-0.73928
0.00274
-1.13226
0.12596
0.05542
-0.46231
-0.00278
0.04447
0.13961
-0.34678
0.11928
-1.23587
-0.67922
0.12458
-1.11609
0.06662
-0.34933
0.10170
-2.61274
0.06029
0.03975
0.08929
-0.35217
-0.67961
-0.28002
0.02352
0.07790
0.06412
0.05864
-3.59812
-0.62353
-0.44522
-0.35974
-0.11254
-0.70104
0.06339
0.04119
-0.55712
0.07081
0.03587
0.04514
-0.20810
0.02347
-1.35627
-0.19779
0.01482
-0.54082
0.02403
-0.09096
0.03107
-3.17932
0.04116
0.07306
0.00935
-0.13118
-0.43467
-0.08492
0.03960
0.08099
0.04803
0.02129
-3.68858
-0.38671
-0.35584
-0.22998
-0.06790
-0.59414
0.15258
0.10658
-1.62278
0.11642
0.11483
0.05540
-0.39858
0.07985
-1.55054
-1.43333
0.05623
-0.64330
0.07525
-0.46219
0.07243
-2.28774
0.02574
0.09564
0.10817
-0.37570
-1.30322
-0.31629
0.12853
0.07562
0.05980
0.07712
-2.53973
-0.65325
-0.76453
-0.68002
-0.22596
-1.34742
-0.67229
-0.81634
0.08556
-2.29758
-3.72253
-2.82003
0.09567
-0.42735
-4.49502
0.05598
-2.23439
0.05887
-2.79107
0.11328
-0.70330
0.05574
-3.33427
-3.13412
-0.61124
0.08168
0.06287
0.09003
-1.18851
-3.54147
-0.53674
-4.07744
0.02648
0.09612
0.05714
0.10490
1.01150
0.10683
