-3.07126
0.05191
-0.46343
0.07936
0.06881
-0.00002
0.09540
-0.96839
0.05836
-2.30933
-2.66796
0.16024
-2.17989
0.08483
-0.40345
-1.76227
-0.40458
0.01471
0.07658
-0.45234
0.17360
-1.86618
0.08994
-1.08420
0.05773
0.10175
0.08870
-2.39875
0.12702
0.16124
-0.64886
0.13819
0.12585
-2.76581
0.13235
-2.30877
-1.56725
-2.27262
-3.88702
0.16412
-2.49642
0.21323
0.13994
-2.23990
0.11858
-3.05600
0.15198
0.08389
0.15720
-3.22787
-3.10914
0.15356
-2.88489
0.19076
-2.46989
0.13928
-1.46737
-2.47592
-3.65090
0.18674
-0.59525
-0.59515
0.11584
-3.89241
0.31386
-3.85045
0.31731
-3.84042
-3.25096
-2.48439
-4.47460
0.30255
-2.52379
0.36124
0.29971
-3.32898
0.31059
-3.42201
0.27523
0.21958
0.23409
-3.71825
-4.03433
0.27519
-3.15405
0.17049
-3.58661
0.35542
-2.45926
-3.54703
-4.05651
0.28906
-1.32277
-1.46337
0.31610
-3.66213
0.10812
-2.43350
0.11083
-2.88239
-3.01545
-1.02586
-4.46839
0.11476
-2.75361
0.15016
0.14070
-3.18981
0.10962
-4.68649
0.12793
0.14580
0.11209
-3.95829
-4.38801
0.21187
-3.63311
0.19592
-3.96207
0.09699
-2.46127
-3.91468
-4.65073
0.14722
-0.56098
-1.01193
0.08231
-3.97138
0.09008
-0.65501
0.04802
-0.34781
-0.28296
-0.20883
-5.45305
0.05628
-0.16242
0.03140
0.06005
-1.87550
0.04480
-4.82869
0.10506
0.06391
0.02184
-3.20737
-0.88934
0.03999
-2.87912
0.08111
-1.68742
0.02510
-0.20278
-1.74854
-2.25477
0.00289
-0.12683
-0.08098
0.09200
-4.02243
0.07930
-0.72470
0.06453
-0.68531
-0.36572
-0.34789
-4.81208
0.10374
-0.51199
0.03751
0.02653
-3.00707
0.08554
-5.38923
0.08415
-0.00314
0.10388
-4.85187
-1.53059
0.08542
-4.53821
0.08899
-1.33450
0.03222
-0.29762
-3.36475
-2.60556
0.05912
-0.21816
-0.31575
0.09284
-3.93112
0.07186
-3.31756
0.14631
-1.84807
-1.42953
-1.38480
-4.99155
0.15043
-2.06185
0.07160
0.16177
-3.61697
0.13202
-5.73096
0.15380
0.10526
0.09420
-4.14208
-4.14046
0.11501
-3.79213
0.18295
-4.05201
0.16636
-1.81787
-3.46853
-4.67736
0.06740
-0.96670
-1.20874
0.12377
-4.86469
-1.52280
0.02616
-0.35654
0.04369
0.06095
-0.00577
0.01190
-0.50721
0.01779
-2.22684
-1.26726
0.15219
-2.30706
0.04921
-0.45239
-2.38038
-0.33346
0.03868
0.04337
-0.21686
0.02206
-1.59417
0.06534
-1.70937
0.03683
0.07721
0.06264
-2.69284
0.04299
0.11380
-0.58887
0.09031
0.13625
-0.29489
0.21704
-0.06881
-0.01760
-0.00034
-0.97025
0.13221
-0.05623
0.18958
0.07707
-0.28295
0.18779
-0.96511
0.17552
0.18340
0.14527
-0.41414
-0.69670
0.15038
-0.93490
0.15765
-0.16385
0.12663
-0.03682
-0.94116
-1.21080
0.24302
0.07140
-0.01193
0.21308
-0.50479
-2.77863
0.14093
-0.60091
0.03171
0.05411
0.12345
0.12390
-0.61435
0.00487
-1.62335
-2.71010
0.13991
-2.34171
0.02954
-0.48296
-2.86460
-0.60803
0.06316
0.04977
-0.41448
0.10441
-3.62240
0.18852
-3.45435
0.06199
0.03161
0.07834
-2.77074
0.12395
0.20801
-0.51135
0.06185
-2.88252
0.11311
-0.45844
0.10179
0.09493
0.15097
0.13785
-0.50821
0.18386
-3.65015
-2.25647
-4.27989
-3.25797
0.15314
-0.50291
-2.02473
-0.43925
0.06539
0.11000
-0.38680
0.15201
-3.70461
0.12068
-3.13021
0.12344
0.08827
0.11422
-3.12795
0.13507
0.09796
-0.47248
0.08207
-1.91605
0.06478
-0.37801
0.04309
0.08017
0.01755
0.00065
-0.34324
0.03923
-0.87748
-2.65090
0.09631
-4.18325
0.07711
-0.42193
-1.57407
-0.37498
0.07117
0.05317
-0.37020
0.20573
-2.64232
0.03357
-3.13328
0.09788
0.06639
0.02458
-2.40097
0.10744
0.19884
-0.38272
0.11747
0.11334
-1.44187
0.11269
-1.25036
-0.74369
-0.92041
-3.44652
0.13103
-1.27755
0.11589
0.10099
-2.40718
0.11134
-2.57649
0.07998
0.09847
0.07695
-2.42433
-2.67894
0.19793
-2.44791
0.12389
-2.12318
0.13145
-1.46084
-2.28411
-2.60875
0.06802
-0.82882
-0.80756
0.04410
-3.18613
-2.05011
0.12609
-0.35025
0.01426
0.19323
0.11780
0.00377
-0.45079
0.06213
-3.00241
-2.63129
0.12388
-1.24430
0.06536
-0.45158
-2.39348
-0.46961
0.12147
0.14990
-0.33330
0.16872
-2.23172
0.09512
-3.01125
0.12631
0.11157
0.09206
-2.77081
0.11245
0.21205
-0.24532
0.08981
-0.24775
0.01681
-0.19322
0.05609
0.03189
0.05641
-0.00348
-0.12712
0.03422
-0.77959
-0.29448
0.02728
-2.88847
0.01141
-0.17100
-0.37220
-0.14456
0.01675
0.03884
-0.08331
0.03457
-1.53237
0.03877
-2.44242
0.03814
0.03809
0.02079
-0.45251
0.02715
0.02109
-0.18851
0.00582
0.10271
-1.21905
0.09641
-0.63679
-0.52211
-0.33207
-4.63710
0.04503
-0.49855
0.08351
0.04624
-2.88155
0.11423
-3.59899
0.12807
0.07967
0.09040
-3.03884
-3.32712
0.03614
-3.72867
0.07233
-1.66930
0.04495
-0.38018
-3.04076
-4.15058
0.07125
-0.25966
-0.42113
0.04764
-4.65058
-2.02837
0.11413
-0.59316
0.03953
0.13880
0.12307
0.04120
-0.47548
0.02314
-3.32798
-2.21525
0.11586
-2.59975
0.09070
-0.42687
-3.26680
-0.21368
0.13651
0.13396
-0.56137
0.08505
-1.91894
0.14564
-2.83461
0.01152
0.15614
0.12921
-2.33365
0.08034
0.16706
-0.52667
0.06103
0.08695
-1.64378
0.13989
-1.59856
-0.67269
-0.71413
-3.99665
0.06560
-0.96719
0.07032
0.14557
-2.88218
0.10050
-4.32487
0.11553
0.11824
0.09105
-3.37061
-2.29969
0.10780
-2.77483
0.13379
-2.48866
0.13632
-1.09913
-2.86793
-3.28536
0.07511
-0.48299
-0.79981
0.09382
-3.48164
0.12368
0.19561
-0.06282
0.11097
0.09239
0.09665
0.08566
-0.03272
0.19731
-0.84424
-0.75283
0.12771
-0.05198
0.11454
-0.00353
-1.70462
-0.12101
0.19090
0.17684
-0.12416
0.08459
-0.76005
0.16474
-1.50272
0.22514
0.16916
0.12756
-0.81156
0.26181
0.17897
0.04965
0.11680
0.12705
-1.08506
0.13090
-0.66909
-0.26930
-0.36098
-3.32546
0.06080
-0.32586
0.07510
0.05065
-1.12849
0.07137
-2.26534
0.08901
0.13077
0.07099
-1.74162
-2.34478
0.08731
-1.20136
0.05987
-0.92972
0.03885
-0.29369
-1.72152
-2.49408
0.09458
-0.21778
-0.19407
0.07866
-2.57510
-2.50208
0.08433
-0.25215
0.06783
0.05801
0.04776
0.01117
-0.17484
0.10464
-0.83640
-0.99294
0.07598
-3.32181
0.00777
-0.34568
-0.80703
-0.22887
0.05768
0.06447
-0.15961
0.08870
-3.39778
0.06586
-3.57996
0.07402
0.05977
0.06258
-2.94815
0.10267
0.07233
-0.27194
0.08453
-1.99988
0.04595
-0.53337
0.09719
0.09023
0.02458
0.01663
-0.30061
0.13170
-3.95616
-2.74165
0.14713
-2.92326
-0.00578
-0.54116
-2.49295
-0.25919
0.09258
0.06892
-0.40029
0.16316
-2.06100
0.09564
-2.56490
0.08697
0.01858
0.02154
-1.80231
0.11044
0.14299
-0.45502
0.02658
-2.25490
0.19802
-0.49101
0.14064
0.13358
0.17468
0.14776
-0.54933
0.15938
-3.09217
-2.76874
0.14278
-2.47935
0.12130
-0.37197
-2.44335
-0.42684
0.17616
0.13256
-0.48177
-3.28163
-3.45186
0.13031
-3.33441
0.12451
0.14007
0.16327
-2.97244
0.12686
-2.79154
-0.53318
0.17227
-1.44028
0.06288
-0.51749
0.17536
0.08705
0.15808
0.06717
-0.48783
0.14234
-2.62079
-3.05202
0.21932
-2.28088
0.10019
-0.52468
-3.71520
-0.50235
0.03394
0.12350
-0.41888
0.13882
-2.56620
0.03124
-1.32696
0.05204
0.07065
0.04588
-3.08724
0.08764
0.21256
-0.36560
0.09697
-0.16131
0.29326
0.28590
0.17698
0.26615
0.25897
0.20956
0.27508
0.21082
0.19980
0.15409
0.18332
0.11235
0.15258
-0.01757
0.03657
-0.47893
0.27828
0.29797
0.16229
0.08666
-0.73699
0.12244
-1.56207
0.28943
0.17036
0.19789
-1.94210
0.25905
0.12009
-0.08467
0.21735
-0.49115
0.05196
-0.36092
0.04073
0.10522
0.05242
0.07302
-0.36996
0.07763
-0.85642
-0.51107
0.11413
-2.32138
0.05745
-0.30199
-2.04741
-0.39965
0.05991
0.15550
-0.32073
0.17424
-3.51198
0.05956
-2.61523
0.11002
0.03851
0.13642
-3.49441
0.05363
0.08568
-0.32926
0.07656
-0.52896
0.07806
-0.42862
0.02863
0.04787
0.17113
0.09139
-0.44489
0.11784
-1.50299
-1.64282
0.15722
-3.21320
0.08938
-0.49714
-1.10363
-0.42904
0.09469
0.06175
-0.33649
0.10129
-3.65006
0.09241
-0.64349
0.12462
0.05543
0.07104
-2.89817
0.02530
0.12221
-0.46077
0.07022
-0.44211
0.05405
-0.23366
0.04757
0.05180
0.02761
0.03717
-0.29854
0.05449
-0.70262
-0.41374
0.09547
-2.90933
-0.01232
-0.21376
-0.38384
-0.26735
0.02004
0.02429
-0.19580
0.08234
-0.83330
0.03910
-2.73097
0.07422
0.04231
0.07681
-3.93668
0.00768
0.06767
-0.23599
-0.00490
0.01818
-0.95131
0.05892
-0.67680
-0.39717
-0.36312
-4.98772
-0.01356
-0.34721
0.05369
0.05710
-3.19330
0.06611
-5.23459
0.04606
0.06093
0.10172
-3.55202
-2.17704
0.06036
-3.43124
0.06266
-2.42327
0.04086
-0.29243
-3.86772
-2.69355
0.03877
-0.19472
-0.41239
0.08936
-4.91105
0.12051
-1.17645
0.14854
-0.69596
-0.56332
-0.53866
-4.40912
0.06297
-0.57535
0.14625
0.15672
-1.17314
0.13807
-3.53031
0.11113
0.07191
0.16777
-2.38077
-1.98751
0.11772
-1.26849
-7.21282
-1.61147
0.13244
-0.53248
-2.52856
-2.84247
0.13552
-0.37472
-0.26268
0.12016
-3.45713
-0.63707
0.20326
-0.89104
0.29518
0.29626
0.27274
0.17860
-0.51537
0.17296
-0.49444
-0.47225
0.07847
-1.21663
0.18262
-0.78294
-1.50791
-0.68545
0.13199
0.20866
-1.06337
0.18491
-1.81358
0.25891
-1.41034
0.24828
0.15113
0.30162
-1.53715
0.23437
0.27112
-0.65344
0.24416
0.24912
-0.51760
0.25246
-0.41281
-0.34178
-0.18039
-0.88192
0.35381
-0.52514
0.12051
0.30347
-0.59939
0.23999
-0.56421
0.22828
0.18786
0.23487
-0.51680
-0.73826
0.22796
-0.91653
0.21685
-0.11954
0.17120
-0.44157
-1.01823
-1.04897
0.25233
0.00989
-0.34685
0.30371
-0.75530
