-0.04457
-0.00292
0.05341
0.02286
0.06148
-0.00951
-0.07843
-0.01873
-0.05347
0.03141
0.04484
0.05885
0.03911
-0.02799
-0.07408
0.03763
-0.07789
-0.05837
-0.04655
-0.04919
0.07835
0.04205
-0.04006
-0.02556
0.04050
-0.05926
-0.05367
0.03490
0.05258
0.02207
-0.03885
-0.05757
0.05453
0.02048
0.02870
-0.03144
0.00842
0.01423
-0.07251
0.04492
-0.04716
0.02157
0.02984
0.07802
-0.06174
0.00005
-0.06032
-0.03163
-0.05711
-0.01213
0.03753
-0.06037
0.02343
0.01372
-0.06380
0.07231
-0.04099
0.07320
0.05856
0.00120
0.07221
-0.01745
-0.00049
-0.06366
-0.03687
0.02865
0.06455
-0.07909
-0.05952
-0.02793
0.03566
0.01162
0.05177
-0.06452
-0.05946
-0.03754
-0.05303
-0.06616
0.07251
-0.01148
-0.00059
0.03790
0.06879
0.00249
0.06650
-0.04621
0.03530
-0.07997
-0.06186
0.00972
-0.04395
-0.03947
-0.02640
-0.01479
0.07999
-0.00282
0.07917
-0.03580
-0.03334
-0.02873
0.04430
-0.06463
0.06719
0.04841
0.07186
-0.08109
0.05990
-0.08069
-0.06154
0.04332
-0.03246
0.02576
-0.07993
0.00260
0.04362
-0.08133
-0.04269
-0.00979
-0.03114
-0.01686
-0.00604
-0.00543
0.03716
0.02181
-0.04080
-0.04890
0.06304
0.06256
0.05390
0.01828
-0.08080
0.03678
-0.06243
-0.01668
-0.01564
0.06324
-0.05248
-0.03470
-0.04345
-0.00838
0.01455
0.06122
0.00909
-0.03311
0.02912
0.03305
0.00229
-0.04987
-0.01754
-0.02373
0.06746
-0.02246
0.06638
-0.06726
0.06818
-0.07616
-0.00928
-0.05793
-0.00056
-0.01197
-0.00782
0.08020
0.03939
-0.01409
-0.05269
-0.04440
-0.06839
0.06345
0.02140
-0.03334
-0.01220
-0.02669
0.02862
-0.01934
-0.04585
0.03334
-0.00494
0.05286
0.04098
-0.07098
-0.02324
-0.06374
-0.02424
-0.04129
-0.03474
0.03250
-0.06401
-0.03298
-0.06169
-0.04212
0.03031
-0.03557
0.03947
0.01045
-0.05648
-0.03417
-0.04784
0.07482
-0.02092
0.00199
0.06000
-0.06405
-0.04246
-0.00905
-0.01259
-0.01911
-0.02040
0.06764
-0.01980
-0.07394
-0.01247
-0.01774
0.05942
-0.01244
-0.05529
-0.06265
0.07943
0.00642
-0.00551
0.05242
-0.02790
0.02009
0.03802
-0.00205
-0.04185
-0.02190
0.04188
0.00169
0.05009
-0.02502
0.05958
-0.04731
0.07461
0.08057
-0.00593
-0.02450
-0.02132
0.03362
-0.07169
-0.07811
-0.00796
0.05815
-0.03886
0.08160
0.06868
-0.01526
-0.05176
0.04076
0.01041
0.04410
-0.07799
-0.00323
0.07765
-0.00535
-0.07369
-0.02744
-0.05422
0.00849
0.03399
-0.07171
-0.04897
0.07666
-0.06605
0.04143
0.06626
-0.05757
-0.03074
0.05760
0.00393
-0.07053
0.04491
0.02813
-0.00992
0.06233
0.05777
-0.01736
0.03398
-0.01592
-0.04433
0.02451
-0.06015
0.01322
0.00162
0.05279
-0.02302
-0.05186
-0.01942
0.06580
-0.06939
-0.06702
-0.07673
-0.00593
0.03875
-0.03852
0.01773
0.03159
0.00046
0.01013
-0.05048
-0.00487
0.05158
-0.01726
-0.01657
0.02501
0.01343
-0.04034
0.03462
0.01439
0.05245
0.02212
0.04318
0.06718
-0.07609
-0.05296
-0.06636
-0.02523
-0.06645
0.04921
-0.05038
-0.02784
0.05980
-0.04142
-0.07078
0.01013
0.04200
0.02131
-0.06469
0.04133
0.04230
0.01000
-0.05549
0.07182
-0.00171
0.01903
-0.01530
0.06955
-0.01867
0.06672
0.00083
-0.05447
0.02580
0.06394
-0.06792
-0.00334
0.07337
0.01786
-0.04387
0.02058
-0.02960
0.00433
0.06350
0.03577
0.05750
0.03759
-0.04353
0.01691
0.02658
0.01136
-0.02261
0.06162
-0.05248
0.07515
0.01055
-0.06513
-0.03170
0.06801
-0.02156
-0.00725
0.07801
-0.03907
0.05457
0.03437
-0.02469
0.03933
0.06417
-0.03582
-0.01402
0.03606
-0.02279
0.00814
0.00334
0.01760
-0.04546
-0.02379
0.03365
-0.06447
-0.03706
-0.02195
0.01302
0.04145
0.02492
-0.05359
0.01526
-0.02015
-0.07022
0.01155
-0.02207
0.02821
-0.04528
0.02129
-0.02619
0.01971
-0.01634
-0.06335
0.04283
0.07519
0.04365
-0.04637
-0.03816
0.06195
-0.06933
-0.02893
0.00975
0.00356
0.00067
-0.00522
-0.04736
0.02920
-0.00558
0.01052
-0.07689
0.01755
-0.02202
-0.04399
0.04053
-0.05747
-0.02165
-0.02806
-0.01238
-0.02821
-0.06299
0.07242
0.06077
-0.01653
0.03012
-0.00377
-0.05277
0.02689
0.08022
-0.00666
0.02031
0.07354
-0.00832
-0.01900
-0.05665
0.01122
-0.02426
-0.04748
-0.03453
0.06657
-0.00190
0.03348
0.06193
0.03956
0.07747
0.01883
-0.03681
0.00373
-0.06839
-0.00324
0.04332
0.05764
0.01657
-0.01197
0.01446
-0.06218
0.00414
0.07509
-0.05534
-0.02943
0.06621
0.05414
0.00614
0.08107
0.07893
0.00540
-0.06347
-0.04646
-0.04828
0.01557
-0.01648
0.04325
0.02773
-0.06630
0.01877
-0.01338
-0.03763
0.05983
0.03328
-0.07194
-0.06947
-0.00688
0.07341
-0.01420
-0.04912
0.05191
0.02308
-0.03140
0.06042
-0.04030
-0.07505
-0.00691
0.08135
-0.05354
0.07025
-0.03960
-0.05727
0.05781
0.02816
0.01041
-0.01404
0.06716
-0.00909
-0.00845
0.04257
0.04001
0.02489
-0.05983
-0.04230
0.07147
-0.00611
0.01418
0.02385
0.04192
0.01354
-0.06896
0.06512
0.05519
0.05435
0.06394
0.06832
-0.02333
-0.02148
-0.03231
-0.01997
0.03371
-0.03150
0.01248
0.01627
0.07598
-0.06465
0.05344
0.02752
-0.06576
-0.01095
0.08017
-0.00962
0.02783
0.00051
-0.06216
-0.05873
0.07558
0.00042
0.03542
-0.05608
-0.04097
0.03226
0.08169
0.05413
-0.02083
-0.07099
-0.03284
-0.05484
0.05281
-0.02329
0.03344
0.02980
0.04491
0.05188
0.04439
0.00785
0.07368
0.01403
-0.03931
0.03104
-0.06425
-0.05349
-0.06683
-0.00506
0.01759
-0.02817
0.06155
0.06876
0.03962
0.06648
0.03408
0.05420
0.04116
0.04818
-0.02265
0.04896
0.07506
-0.04278
-0.03720
-0.03142
0.07213
-0.00872
-0.01591
-0.03802
0.04634
0.04617
0.07622
0.00842
0.02855
0.03362
0.00491
0.08073
-0.00234
0.04364
-0.01214
0.02680
0.03589
0.00048
0.04918
-0.07805
0.00991
0.00552
-0.02351
-0.06618
-0.03424
0.06293
0.05368
0.00965
0.08088
-0.04739
0.05898
-0.00135
0.00850
0.04289
-0.03762
-0.07688
0.06026
-0.05063
-0.06961
0.00317
0.02419
0.05384
0.00936
-0.07128
-0.05687
-0.04281
-0.03975
0.05643
-0.08019
-0.00122
0.04057
0.03062
-0.04059
0.04676
0.07799
0.06389
0.05766
0.07777
0.01023
0.06091
-0.02034
-0.03841
-0.06818
0.04973
0.01523
0.04257
-0.05805
0.00664
-0.02710
0.07837
0.04747
0.03330
0.02527
-0.03624
0.03138
0.04039
-0.02017
0.06246
0.08032
0.04553
-0.01218
-0.02698
-0.06377
0.03817
0.03385
0.04458
0.06978
0.07760
0.07997
0.06742
-0.06314
0.05871
-0.07717
-0.06341
0.03212
-0.06397
0.08046
0.06105
0.05995
-0.01736
-0.00434
0.00264
0.03298
-0.03259
0.05447
-0.03664
0.04966
0.02309
0.06691
0.00680
0.02967
0.00443
0.05208
-0.01691
-0.01884
-0.01691
0.01193
-0.02124
0.07220
0.00044
-0.06653
0.04642
0.03684
-0.05198
0.05695
-0.01569
-0.07061
-0.00366
0.02841
0.03292
0.05287
-0.07775
-0.04660
0.03893
0.04885
0.03688
0.06911
-0.01505
-0.01827
0.01662
-0.00186
-0.05672
-0.05001
-0.05336
-0.04177
-0.06755
-0.02318
-0.05530
0.04853
0.05221
-0.06540
-0.03915
0.02631
-0.02441
-0.07630
-0.07444
-0.06008
-0.07495
0.04610
0.00627
0.00759
0.04144
0.04353
0.04209
-0.04683
-0.00191
-0.02427
0.05960
0.03186
0.00587
0.03310
0.04611
0.07464
0.07331
0.04315
-0.00510
0.01042
0.07623
-0.07879
-0.03519
-0.04837
0.04246
-0.01146
0.05502
0.07862
0.07373
0.04753
0.03431
-0.00990
-0.01074
0.04699
0.01293
0.02262
-0.05724
0.07580
-0.04887
0.04145
-0.06023
-0.05994
-0.02711
0.02681
0.01348
-0.06859
0.01059
0.05384
0.01350
-0.02710
-0.06566
0.01681
-0.02425
0.05910
-0.01920
-0.07333
-0.05226
0.07836
-0.05191
0.03540
0.07663
-0.03248
-0.00024
-0.08097
-0.01896
0.01596
-0.04529
-0.04274
-0.00102
-0.04277
0.01822
-0.08140
-0.04387
0.07967
0.00822
0.01670
-0.07123
0.02682
-0.02270
0.00347
0.04743
-0.04976
-0.07289
0.00200
0.01462
-0.06644
0.00608
0.08124
0.02453
0.03133
-0.05665
-0.02799
0.06926
0.00310
-0.02038
0.08038
0.08054
-0.05286
0.05932
0.00557
0.06158
0.07862
-0.07060
-0.07974
0.03553
-0.02409
0.04114
-0.05921
0.00210
-0.03401
-0.07103
-0.01795
-0.02746
0.02684
0.05328
0.06290
0.06556
-0.03755
0.04204
0.02513
-0.06463
0.05117
0.02979
0.07108
0.05440
-0.07647
-0.05613
0.03845
0.03115
-0.02270
-0.06554
0.04832
0.07250
0.06300
-0.04441
-0.01684
0.07576
-0.03531
0.02511
-0.04545
-0.03236
-0.04919
-0.07683
-0.03018
0.00985
-0.07255
-0.03453
-0.00442
0.05088
0.00616
0.00964
-0.01235
0.00896
0.03640
0.02514
0.00893
-0.01848
-0.01021
0.04655
-0.00148
0.02240
0.00724
0.04964
0.06065
0.06519
0.07101
-0.01060
0.06620
0.01749
-0.00027
0.05478
-0.06205
0.05530
-0.02565
-0.03270
-0.01872
0.04254
-0.04009
0.02355
0.08039
-0.04777
-0.04166
0.07464
-0.03614
-0.05159
-0.04386
0.05478
-0.04756
0.05293
0.07126
0.07894
0.02759
0.03592
-0.01446
-0.07033
0.06840
0.07756
-0.00963
-0.02746
0.01993
0.02120
-0.02417
0.07741
0.02854
0.02537
-0.03969
0.01649
0.01661
0.00577
0.02223
0.07711
0.04517
-0.06259
0.03063
-0.03379
0.00888
0.05155
0.02698
0.01516
0.03297
-0.04157
0.05923
-0.07640
-0.01133
-0.03537
0.04381
0.07801
-0.04753
0.05990
0.05634
-0.04456
-0.06584
-0.05428
-0.02834
-0.04038
-0.02322
0.02178
-0.06759
0.05987
0.01633
0.05202
-0.07121
0.06697
0.05106
0.01445
0.07973
0.01892
0.04880
0.03382
-0.01827
0.03212
-0.03479
-0.03872
0.03533
-0.03285
0.05567
-0.00691
0.01197
-0.07579
-0.01921
0.04600
0.01427
-0.04760
0.00441
0.01975
0.00484
-0.03680
-0.00172
-0.07970
-0.03130
-0.05130
0.01980
0.36786
0.48390
0.22137
-1.09556
0.30261
-0.17464
-0.41160
-0.16391
0.96580
-0.38974
0.05941
0.94213
0.22221
-1.39529
-0.64532
-1.45462
-0.49016
0.34067
0.46209
-0.90686
-0.27408
-0.53581
0.97991
-0.29559
0.20980
-0.86515
-1.06957
0.43908
-0.87906
-0.14254
0.22697
-0.19039
0.52190
-0.12001
-0.10326
0.08299
0.74190
-0.54387
-1.24823
-0.62721
0.81199
0.82228
-0.96959
-0.05590
1.19025
-0.48007
0.70153
0.17356
0.65426
-0.27987
-0.35976
-0.01566
0.87326
-1.12661
0.96234
-0.92346
-1.46451
0.41621
-0.10377
0.49219
0.50483
1.03615
0.26996
0.88685
0.46720
0.92195
-1.21948
-1.68481
-0.25020
0.54419
-0.25465
0.80582
-0.48753
-0.67234
0.09003
0.54065
0.09882
0.17988
0.37870
0.08482
-0.23092
0.13471
-0.51564
-0.72481
-0.60615
0.94247
0.28225
-1.35031
-1.20930
-0.11863
0.05460
0.04316
-0.32654
-1.19290
0.65193
0.25406
-0.46595
1.36700
-0.69451
-1.52172
1.05833
-1.63889
-1.58705
-0.04357
0.81194
0.17698
0.23469
-0.01591
0.11479
0.78348
-0.18593
-1.17970
-0.32684
0.68506
0.13348
0.65340
-0.97198
0.13828
-0.79456
1.01515
0.28411
0.12973
-0.11577
-0.04129
-1.31212
0.17241
0.24360
0.14833
0.57942
0.98581
0.16067
0.24405
-0.96408
-0.08757
-0.10470
-0.56127
0.85784
-0.47238
0.53445
0.83624
1.25722
-0.36205
0.53647
-1.10875
-0.63650
-0.59663
0.67230
-1.33787
-0.81295
-0.21451
0.09479
-0.23923
0.28461
-0.57505
-0.26253
-0.26174
0.55688
0.33778
-0.06485
-0.46680
0.80219
-0.64531
0.90299
0.42078
0.81862
-1.36696
-0.31674
-0.39690
0.56482
1.36793
0.25456
-0.92333
0.34007
0.99780
0.63411
0.34615
-0.26062
0.25554
-0.21273
0.08638
0.55998
-0.69019
0.64620
-1.41024
-1.32558
0.66766
-0.50552
0.51502
0.13931
1.26991
1.05564
0.81524
0.68040
0.54775
-1.13444
-1.55482
-0.80530
0.37965
0.24222
0.36841
-0.37008
-0.22602
0.75326
0.66925
-1.65350
0.05393
0.97386
0.15487
0.09410
1.08801
-0.50135
-1.49001
-0.61384
0.66984
-0.29680
0.06904
-0.20033
-1.08958
0.32316
0.56560
1.25607
0.52616
0.29093
0.08297
0.55990
0.87423
-0.35269
-0.76425
0.65398
-0.29445
-0.88828
0.19484
0.91789
0.10572
0.06183
0.62040
-0.74375
-0.87991
-0.49398
-1.59960
0.30830
0.21342
0.12724
0.44878
-0.49961
-0.08207
-0.50594
0.57013
0.30543
0.23199
-0.64472
-1.42239
-0.66616
-0.06646
0.24763
0.30351
0.17630
0.80635
0.58115
-0.30785
-0.89179
-0.05147
-0.41820
0.48456
1.01892
0.12223
-1.68598
0.96857
-0.15185
0.51474
0.64096
-0.11425
0.20111
0.85090
0.61876
-0.97515
0.25171
-1.12939
0.81629
-0.39776
0.09819
-0.44936
-0.20119
0.60358
1.04792
-0.41436
-1.36034
-1.34174
-1.27833
-1.49910
-0.94970
0.97274
0.38867
0.11515
-1.25835
0.26372
0.30360
0.03655
-1.33995
-0.41190
0.52324
-0.45769
0.67912
0.16887
0.39772
-0.32286
-0.33136
-0.65633
-0.08919
-0.34062
0.93560
-1.47861
-1.48703
0.37064
-1.16658
-0.16843
-0.12086
0.96767
1.14338
-0.77520
-0.06785
0.13412
-0.09468
-1.31519
-0.52309
0.88074
-0.77300
0.94224
-0.78851
-0.12754
0.01959
0.44887
-0.43371
0.22424
0.23795
0.17434
0.37081
0.91494
-1.10112
-1.18724
-0.52852
0.19712
-0.20289
-0.09587
-0.14760
-1.34731
0.22169
-0.09165
1.14545
-0.07193
0.72257
-0.13760
-0.87858
-0.46002
-0.20868
-0.65789
-0.64977
-1.16967
-0.46535
-1.30183
0.08254
0.36134
0.16969
0.57482
-0.60377
0.30684
0.07966
-0.33823
-0.64405
-0.04903
-0.22992
-0.38402
-0.88262
0.84127
-0.26825
0.20954
0.33240
0.21232
-0.24817
-0.40767
0.10243
0.15008
0.16843
0.14202
-1.03539
0.57166
0.85926
0.40161
-0.51906
-0.21804
-0.93849
0.02614
0.87001
-0.87050
0.18845
1.18623
1.19012
0.63210
-0.70920
-0.96254
0.51933
0.06955
0.87862
-1.40806
-0.47345
-0.86630
0.57369
-1.18860
0.10344
0.36791
-0.49218
-0.20700
0.13423
0.32264
-0.90498
-0.04354
1.01933
-0.14048
0.60595
-0.43672
0.15162
-0.28887
-0.23382
-0.37745
0.39370
-0.45752
0.44985
-0.19630
0.73050
-0.51225
-0.09742
0.14123
0.66064
-0.46965
-0.26354
-1.61914
-0.50943
-0.74159
0.00896
-0.75216
-0.10200
-0.04005
-0.88540
-0.73535
0.68792
0.55010
1.10876
-0.50643
0.02739
0.77063
-1.59535
-1.41745
-0.80328
0.21344
-1.23067
0.71282
-0.45281
-0.18045
0.35072
1.78603
-0.08703
-0.02832
-0.22298
0.18960
0.64680
-0.25157
0.01014
-1.58655
-0.17902
0.17274
-0.00399
-0.29107
-0.12402
-1.19141
0.15246
0.41511
1.07207
-0.59733
0.38104
-0.77043
-1.24756
0.47371
-0.01643
-1.08972
0.71571
-1.23098
-1.15854
0.60930
1.19219
0.10015
-0.03287
0.24178
-0.41639
0.31249
-1.19872
-0.24588
-1.05270
-0.12353
-1.18042
0.48606
-0.55463
0.39478
-0.37309
0.25829
0.67943
0.17198
0.01817
-0.92322
-0.47465
0.05410
0.09714
-0.01141
0.51227
0.52321
0.71638
0.08326
1.03785
-0.82658
-0.35686
0.17847
0.56827
-0.28149
-0.12722
0.73051
1.12834
-0.18871
0.45198
-1.03743
0.20372
-0.44662
0.48576
-1.35073
0.43325
-0.39585
0.61793
-1.21765
0.06650
-0.65056
-1.29647
0.45658
0.20351
-0.36709
-0.81492
-1.18769
-0.07842
0.61324
0.31363
1.29464
0.98587
0.24880
-0.86008
-0.43387
0.09690
0.54316
-0.26507
-0.25253
0.88574
-0.05854
0.76899
0.04582
-0.50317
0.08604
-0.98989
-0.89456
0.04652
-0.38671
0.25372
-0.07721
-0.00998
0.09140
-1.20232
0.29656
-0.34917
-0.66610
0.42064
-0.25205
0.77294
0.55395
-1.41171
-1.27793
0.05812
0.35779
-0.61650
0.55957
-0.26723
0.31878
-0.04542
-0.11722
-0.14129
-0.00350
0.20188
0.00568
0.53643
-0.60502
0.50582
-0.41392
-0.56295
1.02297
0.33899
-0.89268
-0.38355
-0.19054
0.13514
0.21064
0.80343
-0.03460
0.30674
-0.33946
-0.66192
0.88285
-0.49034
-0.79037
0.13556
-1.35160
-1.30050
0.12409
0.18994
0.17651
0.00471
1.12615
-0.54539
0.62061
0.34226
-0.27722
-0.91958
0.30328
-0.95113
0.93297
-0.94266
0.54983
0.03146
0.96690
0.64357
-0.01155
-0.73355
0.57717
0.38592
0.15860
0.09455
0.09063
-0.99724
-0.59797
-0.05367
-1.01666
-0.33224
-0.56521
1.03377
0.68774
0.12171
-0.22050
0.38827
0.05799
-0.03836
-1.17080
0.03301
0.57449
0.10404
0.70872
-0.26688
-1.14580
0.40347
0.19683
0.40838
-1.58328
0.18466
-0.06449
-0.13540
-0.03756
0.87976
0.56557
-1.02857
-0.74415
-0.33637
0.34548
0.31548
1.15136
-0.10354
-0.06083
-1.58631
1.11608
0.11178
1.23072
0.36486
-1.06731
0.51913
0.77156
-0.51603
-0.64803
0.38883
-1.00319
-0.22472
-1.06767
0.13219
-1.13127
0.33450
-1.12544
-1.23093
-0.21299
-0.51872
0.19446
-0.34150
0.08844
0.50560
-0.41976
-1.03649
0.09005
-1.14829
-0.02652
-1.00546
-0.05371
-0.33238
0.22320
0.02623
-1.34308
0.22467
1.30376
0.38813
0.24153
-0.84136
0.21512
0.58393
0.16642
0.03092
-0.18839
-0.18751
0.47190
0.03124
-0.66250
-1.52637
-0.66154
0.14788
0.94723
0.60762
0.75864
0.45117
-1.09651
-0.91598
0.33542
-0.16344
-1.41873
0.32121
-0.13639
0.49447
-1.11608
1.04438
0.32361
0.26732
0.07846
-0.11804
1.15211
-1.19590
-1.49770
-0.44651
1.06645
-0.10698
1.18206
-0.44151
-0.50050
-1.33902
0.48344
0.32540
0.11192
0.02990
0.29563
0.47627
0.12975
0.32276
0.10696
0.51834
0.91473
0.55940
-1.27982
0.37142
-1.11344
-1.14892
-0.65551
0.54707
-0.24772
-0.76119
-0.16127
1.07125
-0.08081
0.10747
-0.59416
-0.12520
0.08670
0.47962
-0.00370
0.29679
-0.58071
0.10070
-0.32881
-0.03403
-0.31750
-1.47390
0.90651
0.26880
-0.28273
-1.02755
-1.07789
-0.34838
0.59869
-0.14519
0.65078
0.20816
-0.34549
-1.12006
1.07395
0.22197
-0.49389
-0.22864
-0.03848
0.63255
1.01844
1.09563
0.33549
0.25078
-0.17171
-1.21556
0.02927
0.49014
0.28762
-0.10926
-0.05328
-1.46714
-0.84866
-0.68581
0.08204
0.06773
0.47569
0.52244
0.06847
0.33159
0.45112
-1.26568
-1.54194
0.34009
0.88719
-0.02376
0.79474
-0.30275
-1.78112
0.30676
0.08556
-0.08999
0.19261
0.48354
0.17757
0.79917
0.87458
-0.57116
-0.14210
-1.36788
-0.04109
-0.76034
-0.86400
-1.28114
-0.44923
0.31813
-0.85490
0.96733
-0.98812
0.73363
-0.24499
0.30936
-0.08408
-0.64774
-0.11668
-0.13001
-1.37433
0.05831
-0.31740
1.11771
0.21963
-0.07259
1.05503
-1.01728
0.33750
-0.77675
-1.22174
0.02521
0.42625
-0.34327
1.08300
-0.71591
0.27806
-0.32774
-0.24991
0.57406
0.22939
-0.31979
0.16752
-0.13060
0.34723
0.15462
0.12720
-0.83245
0.28110
0.39601
-0.65248
0.69773
-0.16228
-0.01625
0.66772
0.05849
-0.86561
-0.62152
0.97294
0.62826
0.00291
-0.61725
-0.10602
0.15387
-0.57879
0.63209
-1.03149
-0.16470
0.10042
-0.76058
-1.05047
0.26254
-0.37061
-0.40543
1.09027
-0.25084
-0.45898
0.10186
-0.60139
0.68561
0.26443
0.08295
0.80413
0.73613
-0.74141
-0.72943
0.61296
0.01823
0.33576
1.02872
0.15078
-0.55444
0.40497
0.86145
0.27523
0.64332
0.24488
-0.09060
-1.06187
-0.36229
0.20477
-0.01797
-0.88748
-1.30074
0.29923
-0.80977
0.24224
-0.49170
0.41252
0.37984
-0.06868
-0.96872
-0.18287
-1.21622
-1.02939
-0.76570
0.22422
-0.28438
1.11510
-0.83417
-0.88003
0.80043
1.05063
0.14928
0.10063
0.32713
0.23748
0.52048
1.03759
-0.18651
-0.28209
-0.20225
-1.24959
0.31660
-0.08123
-0.68788
-0.51116
0.32624
0.36105
0.33094
0.45680
0.49204
-1.40761
-0.47006
0.82120
-0.52549
-1.10430
0.27135
-1.14085
-0.45848
-0.06664
0.35404
0.31193
0.21373
1.33572
-0.65859
0.02130
-0.07800
-0.46754
-0.34622
-0.75994
-0.53210
1.05530
-0.43542
0.78043
-1.27361
0.86576
0.53448
0.19314
-0.08433
0.32538
0.55250
0.23643
0.25764
0.09884
-0.06391
-0.44175
-0.40936
0.15520
-0.05149
-0.11755
0.15313
-0.37647
0.57193
-0.46473
-0.25405
1.24575
0.31409
-0.03990
0.17237
-0.38197
0.18866
0.11894
0.53219
-0.13975
0.18692
-0.77546
0.77722
-0.36064
0.19942
-0.64584
-0.09880
0.21652
-0.20516
0.17849
-0.18833
-0.26282
0.98910
-0.26895
-0.39932
-0.36248
0.70690
-0.00648
-0.22426
0.55545
0.60267
0.77136
-1.12248
-0.23903
0.38732
0.25722
0.85903
0.13622
-0.06886
0.18908
-0.31116
-0.35351
0.59774
-0.83624
0.51946
-0.80165
-0.35971
-0.18290
-0.01461
-0.47220
0.02202
0.03218
-0.00803
-0.25826
0.01140
0.24830
-0.39234
-0.33028
-0.26601
0.98830
-0.09221
0.19360
0.08152
-0.91886
0.10194
-0.24135
-1.03734
0.21256
0.61638
0.06798
-0.95098
-0.14244
-0.57342
-0.12489
-0.88572
1.01079
-0.21613
0.24269
-0.18698
-1.04071
0.24150
-0.12115
-0.06670
-0.09462
0.45996
-0.17190
0.15869
1.17312
-0.93353
-1.66979
-0.32881
-0.19808
-0.77393
-0.15211
0.26040
0.25108
0.20504
-0.37626
-0.14557
-0.22317
-0.31857
-0.32548
-0.25624
0.04731
0.13548
-0.25011
-1.50305
0.01196
-0.57770
0.56229
-0.62242
0.16019
-0.04434
-0.24450
-0.60678
0.14668
0.13520
0.11998
0.28713
0.26573
-0.78661
-0.02787
-0.63403
-0.11878
-0.00164
-0.14781
1.13250
0.05073
0.17116
0.81999
0.29790
0.21193
0.17909
-1.26828
0.05201
0.58365
0.51604
-0.30179
0.21222
-0.58809
-1.14485
-0.21744
0.18540
-0.89396
-0.17010
0.17322
-0.66322
0.44099
-0.83858
-0.45466
0.70222
0.94458
-0.00463
0.52408
0.23516
-1.09850
-0.18639
0.12246
0.30836
0.31495
0.53766
-0.78855
-0.57157
-0.45712
0.78018
0.12585
0.12905
0.58682
-0.08414
-0.25793
0.47524
-1.03549
0.46855
-0.44582
-1.05418
-0.02735
-0.54906
-0.31580
-1.09731
1.03727
0.16022
-1.36199
-0.79508
0.80075
0.04607
-0.27806
-0.32923
0.55462
0.51237
0.24337
-0.19684
-0.43452
0.56312
-0.39334
-1.07485
0.05524
0.15595
0.16224
-0.66618
0.64935
-0.54698
-0.28881
-1.07897
-0.09613
0.24573
0.46042
-0.10425
-0.99326
0.06892
0.53530
-0.82141
0.55913
0.28686
-0.12508
0.31787
1.12495
-0.34922
0.15227
0.96966
-0.28343
-0.88720
-0.53503
0.96935
0.13659
0.12585
-0.18876
-0.75258
-0.12343
-0.79450
-0.11660
-0.01523
0.89496
0.36971
0.59864
-0.48742
-0.02216
-0.78124
0.94066
0.45203
0.07155
-0.08278
-1.24257
-0.69698
0.16348
0.25339
-0.28249
0.48210
0.36454
0.98678
-0.16628
-0.80182
-0.03343
-0.16848
-0.26864
0.62052
0.13126
-0.15652
0.34229
0.20850
0.48876
0.24609
-0.33762
0.46157
-0.03747
0.37739
-0.43824
0.34110
-1.72367
-0.18804
-0.33465
0.13016
-0.46185
-0.12333
0.31399
-0.70852
0.07049
0.33202
-0.82617
0.98189
0.31274
0.39862
0.26465
0.62491
0.01934
-0.08795
-0.65803
0.21151
0.74255
-0.08891
-0.21707
0.43247
-0.15477
0.25188
-0.12260
0.19655
0.15407
-0.18153
-0.85979
-0.08012
-0.51409
1.03385
-0.52731
-0.18368
0.21621
-0.28382
-0.24717
0.21949
1.14687
1.14630
0.04242
0.35346
1.04920
-0.45271
-0.11703
-0.20055
0.66930
0.10530
-0.40514
-0.48354
-0.43820
0.18467
0.01516
0.35931
-0.02923
0.49439
0.22081
0.38129
0.77731
-0.50837
-0.27130
-0.01568
0.40149
0.19336
-0.08164
-0.17025
-1.41327
0.19303
0.40454
0.48961
0.90930
0.45018
-0.26829
0.27499
0.55056
-0.56177
-0.40465
0.58893
-0.32423
-0.57015
-0.49766
0.60613
0.15526
-0.16120
-0.28017
-0.40555
0.22957
0.41406
-0.12895
-0.53335
0.33264
-0.13543
-0.05838
-1.37169
0.15533
-0.59718
0.69700
0.44306
0.13747
-0.01578
-0.44502
0.22388
0.18007
0.16334
0.10948
-0.18671
0.60291
0.56752
0.08916
0.46008
-0.29144
-0.82947
0.94118
0.74596
-0.56227
-1.08098
0.70896
0.72261
0.17981
0.07049
-0.53531
-0.64443
0.65752
0.64168
-0.16245
0.15102
-0.13819
0.69444
-0.32136
0.16356
0.18447
-0.16121
0.14079
-1.32322
0.48630
-1.09124
-0.29355
0.75403
0.64714
0.63949
0.00026
0.40761
0.12351
-0.29875
-0.11479
0.22266
-0.23792
0.13199
-0.50030
0.66541
-0.62319
-0.65890
0.13940
-1.27144
0.08974
-0.03349
-0.91268
0.70058
0.23335
0.81564
-0.60445
-0.10948
-0.07689
-0.24503
-0.02073
0.41571
0.10584
0.09744
-1.14791
-0.60339
-0.04369
-0.22936
-0.20005
-0.83948
-0.22607
-0.28046
0.60970
-0.09334
-0.37916
-0.11386
-0.63967
-0.40646
0.12522
0.53344
0.18281
0.21117
0.61204
0.29248
-0.12999
-0.27649
0.51959
0.13944
-0.13838
-0.24848
-0.31515
0.07060
1.12939
0.58126
0.00509
0.66109
-0.94767
-0.76303
0.89097
-0.11065
-1.53434
-0.49816
-0.21355
-1.05666
0.40587
0.49861
0.16457
0.07272
0.47488
0.03958
0.48680
-0.38542
-0.14323
-0.78340
0.75714
-0.10810
0.53796
-0.38828
0.32813
-0.13969
0.18493
0.37108
0.03253
-0.11921
0.10146
-0.56158
0.14367
0.13294
0.14809
0.08592
0.36276
0.97415
-0.07547
0.45366
-0.26591
-0.11454
0.17739
0.74508
0.59648
-1.28648
0.60039
0.78147
-1.57616
-0.18285
-0.12844
-0.01131
-0.82953
0.26584
-0.42117
0.36338
-1.12021
-0.29076
-0.15397
0.09622
-0.27739
-0.10671
-0.53407
-0.67388
0.31181
-0.23065
-0.22185
-0.25477
0.81349
0.18534
0.79513
0.42057
0.50594
-0.30053
0.47554
0.02073
0.79388
-0.30302
0.40710
0.93119
0.85214
0.72734
0.06196
-0.70006
0.47666
-0.10487
0.06808
0.46475
-0.06657
0.20345
0.10841
-0.28669
0.24797
-0.66461
0.31158
-0.06914
0.43563
0.23235
-0.10620
0.66276
0.05610
-0.21186
-0.11710
-0.03210
0.49875
-0.03777
0.54340
-0.39665
-0.09071
0.28695
-1.05554
-0.28658
0.15106
0.27955
0.17366
0.30084
-0.07064
-0.89406
-0.18898
-0.39886
0.43376
0.35123
-0.55417
-0.21638
0.01158
0.23000
0.69977
-0.16221
0.33853
0.41094
-0.89380
-0.22006
-0.07598
-1.00593
-0.13104
0.10611
-0.14074
0.13445
-0.04325
0.34185
0.10895
0.12542
0.99114
-0.58010
0.54675
0.00818
-0.16715
-1.31315
0.42849
-0.45990
0.50452
-1.31581
0.39181
-0.04025
1.06491
0.43796
0.04897
0.24222
0.33542
0.15958
-0.02228
0.13701
0.05529
0.06421
-0.10105
0.39568
-1.39330
0.53869
-1.03025
0.39430
0.67892
0.20142
-0.84801
-0.46401
0.30357
0.41960
0.22104
-0.33928
-0.82629
-0.36624
0.35279
0.30103
-0.16966
0.52956
-0.37189
-0.62043
-0.36068
0.20589
-0.11540
-0.05004
-1.00339
0.29198
0.10262
-0.08715
-0.75862
-0.60907
0.79419
0.50562
0.27711
0.15040
-0.75940
-0.21423
0.96467
-0.37863
0.77215
0.13782
-0.26213
0.44803
0.59902
0.72607
0.02778
0.51765
0.01324
-0.23911
-1.72009
0.25877
-0.10350
0.42325
-0.88842
-0.48176
-0.23823
-0.00147
0.07757
0.40818
0.01005
-0.49591
-0.60127
0.63362
0.31699
-1.24433
-0.06473
0.31218
-1.36440
0.36662
-0.09859
0.20107
-0.04742
0.34706
0.03922
-0.38900
0.07554
-0.25541
0.17348
0.21596
0.21526
-0.38262
-0.03766
-0.59448
0.88955
0.16338
0.09143
-0.25321
-0.75505
0.13484
0.89964
0.87148
0.19425
0.25826
-1.17663
-0.12130
0.26189
-0.49097
-1.31488
0.69903
-0.32824
-0.03634
0.12763
1.01777
0.17467
0.13610
-0.29650
-0.84088
0.58731
-1.10281
-0.25293
-1.56899
0.77663
0.11030
0.78573
-0.27607
0.32810
-0.96613
0.81327
0.46416
0.12543
-0.17268
0.63686
0.24295
0.12826
0.15633
0.11220
-0.97484
-0.42577
1.05367
0.19328
-0.20267
-0.24728
-0.17905
0.20771
-1.16499
-0.62953
-0.74838
-0.25589
0.48188
-0.10443
-0.16810
0.08976
0.19673
0.02922
0.33933
-0.07322
0.45358
-0.63338
-0.68659
-0.47329
0.16760
-0.62581
-0.14487
0.53319
0.39815
0.23778
-0.09927
0.37438
-0.72019
-0.03517
0.27315
0.95850
0.74380
0.16681
-0.23497
0.71643
-0.12090
0.11990
-0.05301
0.06835
-0.69962
0.82276
0.98132
0.03842
-0.47783
-0.13250
-0.10667
-0.72443
0.05478
-0.66714
-0.26054
-0.19453
-0.13714
-0.55066
-0.92008
0.48731
-0.44457
0.25630
0.82451
-0.01139
0.54218
0.97234
-0.00958
-0.16132
0.36408
0.77559
-0.29337
-0.16489
-0.25063
-0.36329
0.42898
0.70160
-0.84171
0.14416
0.40178
0.18289
0.71542
0.21344
-0.58102
-0.09478
-0.74806
0.58513
0.11178
-0.23428
-0.26736
-0.43045
0.13655
0.50570
0.57573
-0.22220
0.40045
-0.87866
-0.32026
0.79208
-0.53368
-0.02808
0.05036
-0.22738
0.07423
-0.87216
0.42267
0.10421
0.09549
0.85120
-0.98171
0.28919
-0.22821
-0.15605
-0.27668
-0.64324
-0.60213
1.10796
-1.06053
0.64840
0.32177
0.45185
0.42324
0.13833
-0.08869
-0.29532
0.22513
0.02740
0.26812
0.16726
-0.20219
-0.14030
0.01679
-1.01462
-0.91301
-0.24631
-0.57610
-0.14995
-0.34126
-0.32853
-0.97849
-0.55427
0.76267
-0.16765
-0.47901
-0.21308
-0.73340
-0.14586
0.28114
-0.96004
0.81510
-0.07350
-0.03581
-0.37203
0.16631
-1.38906
-0.15542
0.84644
-0.13224
-0.26211
0.19608
0.10325
0.74275
-0.88435
0.62014
0.84116
0.76513
-0.58876
-0.17828
0.70998
-0.36456
0.60813
0.64757
0.02897
-0.45008
0.55165
1.14434
0.13245
-0.25908
-0.29615
-0.13597
-1.36910
0.31380
0.36899
0.04050
-0.06309
-0.10522
0.29948
-0.11951
0.25473
-0.05218
0.43448
0.50013
0.40291
-1.04782
0.35288
0.15524
-0.16195
-0.46112
-0.60324
-0.57464
-1.11310
-1.40753
-0.94354
0.60082
0.44125
-1.54902
0.23942
0.44694
0.11801
0.16216
1.01208
-0.40885
-0.22713
-0.53958
-0.83018
0.31957
0.17852
-0.10576
-1.03058
0.28108
0.39821
-0.69270
0.10050
0.48216
-0.82114
-0.45243
0.63484
-0.15631
0.00637
-0.13083
-0.24048
-0.68716
0.40126
0.64103
0.26681
0.06672
0.07046
0.04715
-0.50232
-0.44358
-0.24310
0.09760
0.16338
-0.48012
1.02971
-0.31641
0.66035
0.38288
0.42148
0.53617
0.11302
-0.44635
0.22173
-0.00089
0.05631
0.27575
0.14501
0.20066
0.29936
0.04586
-0.16976
-0.67200
-0.19182
0.42243
-0.60035
0.59777
-0.18669
-0.31225
1.03457
0.33819
-0.11074
-0.08214
-0.98732
0.05624
-0.26780
0.74771
-0.13379
-0.06511
-0.27569
0.32423
-0.16726
0.14550
-0.17316
-0.19194
0.44601
0.55537
-0.01632
0.00364
-0.35902
0.47632
0.44846
-0.79542
0.17735
0.38617
-0.35109
-0.18160
0.56408
0.53207
0.56148
-0.73992
-0.13137
0.44456
-0.18229
-0.18394
0.16701
0.07107
-0.08507
-0.18740
0.18855
0.36808
0.07163
0.35542
-0.54677
-0.22004
-1.46937
-0.19648
-0.09760
0.11168
-0.02291
-1.16486
0.38014
0.08821
0.10600
-0.29265
-0.20701
0.05935
0.34163
0.09315
0.60652
-0.20229
-1.07406
0.16553
-0.34618
0.08971
0.07287
0.39068
0.12893
-0.57572
0.47283
-0.69084
-0.10200
-0.79913
0.77291
0.12650
0.45554
-0.17132
-0.39277
0.21548
0.13108
0.05195
-0.22421
-0.03824
-0.32069
0.11529
0.96851
-0.28508
-0.63567
0.37791
-0.08352
-0.13390
-0.21358
-0.88120
0.12126
0.18767
0.09206
-0.02711
0.09058
-0.29512
-0.18100
0.20782
-0.24021
-0.33759
-1.16813
-0.79259
0.35866
-0.54606
0.08717
0.20329
0.04064
-0.16518
-0.27663
-0.37473
0.08597
0.16350
0.11450
0.68278
0.34999
0.24512
-0.18847
-0.64990
-0.08872
0.08393
-0.78773
0.70716
0.10430
-0.08693
0.49031
0.40006
-0.14975
-0.24684
0.06247
0.03720
0.71251
0.38986
-0.12801
-0.03765
-0.52985
0.63761
-0.25444
0.11315
-0.32096
-0.14978
0.50344
-0.41663
0.43386
0.04327
-0.50289
0.62150
0.48252
-1.13548
0.46023
0.14195
-0.47417
-0.12115
0.35403
0.36481
0.20146
-0.01035
-0.67495
0.64626
-0.28359
-0.21453
0.21653
0.42455
0.22849
-0.13262
-0.73481
-0.26037
-0.95523
0.42369
-0.37553
-0.08688
-0.38006
-0.24602
-0.38851
-0.30990
0.80408
0.13557
0.06634
-0.05464
0.54531
-0.10743
-0.19834
0.01678
0.75030
0.17157
0.30309
-0.46216
-0.83329
0.09161
-0.65570
-0.60306
0.17292
0.10326
0.16333
0.34455
0.26975
-1.29947
-0.20258
-1.50510
-0.24643
0.22944
0.20690
-0.14311
-0.49045
0.10046
0.23108
-0.38533
0.16337
0.64592
-0.32377
0.52293
0.68269
0.04424
-0.12136
0.53546
-0.16524
-0.13435
0.35280
0.40923
0.04353
0.14316
0.24620
-0.86188
0.16815
-1.37616
-0.19504
-0.24670
0.61785
0.02858
0.37454
-0.43037
0.11501
-0.45553
0.16814
0.24781
0.09811
-0.17549
0.04347
-1.27039
0.17960
0.21546
0.16577
0.28681
0.44548
0.65535
0.07631
-0.50519
-0.00145
0.02438
0.18636
0.47843
-0.03422
-0.07128
0.39769
-0.76335
0.36131
-0.05405
-0.26435
-0.22925
-0.78563
-0.16508
-0.20452
-0.01963
-0.55286
0.59949
-0.18151
0.12299
-0.36579
-0.10382
0.24163
-0.36933
0.07923
-0.45893
-0.20408
0.52540
0.23252
-0.00764
0.19908
0.55072
-0.16538
-0.09866
-0.36904
0.28225
0.29001
-1.32042
-0.03435
0.32143
-0.05900
-0.06270
0.08119
-0.84047
-0.25409
-0.18764
-0.07601
-0.01697
-0.47374
0.86281
-0.29139
-0.11226
-0.14702
-0.21001
-0.41525
0.13775
0.36436
0.80332
-0.05727
-0.99289
0.53499
-0.12651
-0.12805
-0.24088
0.14920
0.22896
0.49005
-0.01145
-0.48183
-0.04040
-0.29073
-0.26877
0.12799
0.88483
0.18641
0.60475
0.46725
-0.74077
-0.16632
-1.04771
0.06274
0.08220
-0.24747
-0.13242
-0.99710
0.18292
0.50338
-0.24363
0.45409
0.63293
0.02726
0.29172
0.44719
-0.76246
-0.08467
0.51355
-0.10934
-0.40029
-0.48971
0.97000
0.04225
0.14537
-0.23868
-0.20294
-0.29610
-0.68844
-0.17833
-0.35005
0.51456
0.31265
0.13779
-0.43446
0.40850
-0.15153
0.66981
0.14856
0.05693
-0.22828
-0.40492
-0.16007
0.04580
0.11298
0.17396
0.27994
0.42756
0.17608
0.29967
0.05168
-0.35786
-1.01884
0.25780
-0.66515
-0.14889
-0.11367
0.01646
0.54799
-0.67594
-0.01152
-0.24461
-1.07136
0.27798
-0.08767
-0.07303
0.32931
-0.73883
0.43764
-0.23708
0.05844
0.33208
-0.17134
0.22647
-0.26376
0.17851
0.04253
-0.45323
0.78834
0.53716
0.27521
0.26760
0.28311
-0.19255
-0.08156
-0.67651
0.34252
0.35810
0.00553
-0.34465
0.09738
-0.17832
0.01531
0.16444
0.09617
0.34736
-0.12128
-0.49095
0.57825
-0.03897
0.07425
-0.75829
-0.18651
-0.19663
-0.21179
0.03346
-0.13258
-0.43895
0.30332
-0.73425
0.16152
0.11458
-0.12687
-0.19009
0.19645
0.42915
-0.36376
0.15020
0.05714
-0.47529
-0.30652
0.47061
-0.55028
0.15410
0.69602
0.16165
-0.53522
0.44056
-1.43906
-0.13339
-0.56137
-0.22986
0.09624
-0.41939
-0.11324
-0.66297
0.12310
0.70222
0.57877
0.58364
0.54117
-0.92243
-0.08287
0.32956
-0.00978
-0.17285
-0.03577
-0.09954
-0.24332
-0.00580
0.79018
0.16845
0.06143
0.32989
-0.58362
0.69360
-0.96722
-0.11573
-0.43968
-0.34696
0.21469
-0.51884
-0.41224
0.42410
-0.28455
0.47029
0.33126
0.11086
-0.21582
0.05570
-0.26681
0.08534
0.11142
0.05276
0.13308
0.43595
0.20947
0.20716
0.15792
-0.13348
-0.45423
0.13127
0.26791
-0.73311
-0.87723
0.41599
0.78393
-0.05479
0.15917
-0.02589
0.32278
0.37369
0.26116
-0.11544
-0.21284
-0.89300
0.31091
-0.17070
0.13932
-0.23648
-0.16034
-0.02622
-0.49300
0.40823
-0.26248
-0.26076
-0.23782
0.53932
0.66015
-0.99826
0.61053
-0.37226
-0.20192
0.27417
0.00859
0.33463
-1.02978
-0.47275
0.14951
0.62698
-0.63768
0.11722
-0.62134
0.21436
-0.14796
0.11806
0.55756
-0.36493
0.45802
-0.01823
-0.05705
0.04811
-0.15140
0.24471
0.27633
-0.55248
-0.02038
-0.13127
-0.81196
-0.23306
-0.00072
-0.13142
-0.58894
0.43858
-1.18738
0.12482
-0.52997
-0.78298
0.35973
-0.03950
-0.62137
0.07981
0.34308
0.14785
-0.16357
-0.24189
-0.69358
-0.13560
-0.96241
0.39399
0.14383
-0.10441
-0.22345
-0.41005
0.17284
0.51698
0.02107
0.49734
0.19491
-0.47968
0.06039
0.47689
-0.50613
-0.65728
0.46170
-0.16585
-0.59598
0.01608
0.23064
0.15459
0.06926
0.42799
0.06304
-0.05628
-1.19028
-0.15222
-0.34865
-0.14626
0.03132
0.18058
-0.92188
0.00906
0.13954
0.37658
0.52385
0.05796
-0.03035
-0.12883
-0.26208
0.13981
0.07186
0.12488
0.37817
-0.26202
0.13210
-0.49436
-0.36659
-0.23117
0.10306
0.14234
0.69044
-0.63888
-0.05112
-0.31943
0.34382
-0.03117
0.16896
-0.05902
-0.04380
0.19794
-0.39914
-0.13454
0.30121
-0.71649
0.27339
-0.13687
0.14423
-0.31509
-0.14041
-0.16872
-0.02243
0.30929
0.17843
-0.19113
0.43900
0.08788
0.68199
-0.05373
0.13628
-0.33608
-0.16570
0.82586
0.01000
0.85457
0.55609
0.30686
0.23443
0.47372
-0.12695
0.07974
-0.84437
-0.46608
-0.12241
-0.96946
0.49866
-0.07780
0.79670
-0.34780
-0.08464
-0.10273
-0.19915
-0.13281
0.50925
-0.32031
-0.16774
-0.28792
-0.27705
0.64505
-0.16432
-0.13228
0.05990
-0.48361
0.14301
0.09524
0.20157
-0.41099
0.49544
-0.43808
-0.67692
0.07497
0.38828
0.09357
0.90106
-0.02748
-0.63224
-0.09144
-0.77760
0.05039
0.28991
-0.52665
-0.13615
-0.46889
0.08489
0.63455
0.56546
0.05330
0.03311
-0.79892
-0.45115
0.26078
-0.34032
-0.03745
0.00129
-0.12002
0.32854
-0.15947
0.62994
0.16941
0.19203
0.62191
-0.32145
0.11926
-1.99449
-0.11655
-0.73085
0.21798
-0.11087
0.40650
-0.08101
-0.33689
0.31218
0.26882
0.46066
0.11781
-0.28375
0.29966
-0.11974
0.16097
0.16664
0.12031
-0.26791
0.32862
-0.24417
-0.16860
0.23094
-0.24976
-0.09261
0.24927
-0.45754
-0.46235
-0.09961
-0.22620
-0.39961
0.02088
0.09848
-0.09566
0.61814
0.08961
-0.17318
-0.11793
0.33992
-0.17444
-0.19262
-0.17927
0.20687
-0.06118
-0.11974
0.28713
0.44216
0.11261
0.00080
0.12944
0.47050
0.33906
0.52714
0.93796
0.38599
0.00422
-0.16808
0.16671
0.23667
0.60173
-0.29063
0.18260
-0.26426
0.67077
0.85171
0.17901
-0.51209
-0.20915
-0.13904
-0.62732
0.36832
-0.62220
-0.40119
-0.03371
-0.05393
-0.42315
-1.19324
0.27556
-0.04544
0.15872
0.26506
0.09640
0.67080
0.39429
-0.10068
-0.15451
-0.42262
0.35510
-1.81719
0.12895
-0.25900
-0.75980
0.39843
-0.22031
-0.14352
0.22039
0.31490
0.06854
0.42842
0.44851
-1.42702
-0.09986
-0.93661
0.77390
0.26351
-1.00204
-0.18368
-0.06640
0.13000
0.10614
0.46344
-0.92076
-0.15982
-0.43047
-0.51861
0.00117
-0.33057
-0.12292
0.07246
-0.17969
-0.52537
-0.14988
0.35872
0.16025
0.12977
0.38926
-0.02938
0.20105
-0.33990
-0.20208
0.15427
-0.13890
-0.15769
0.25542
-1.04917
-0.05043
-0.10643
0.48341
0.41400
0.16983
-0.23458
-0.13089
0.15818
0.20945
0.10590
0.19805
0.60683
0.41137
-0.77178
-0.21825
-0.78824
-0.12530
-0.34427
0.19850
-0.02413
-1.17912
0.10302
0.15404
0.46886
0.23948
0.54571
-0.47620
-0.34600
0.24541
-0.16830
-0.22974
0.56011
-0.49678
0.15906
-0.14356
0.15136
-0.41314
-0.14614
0.97216
0.30416
0.19716
-0.45665
-0.05574
0.41645
-0.31759
0.23556
0.97015
0.50585
-0.27355
-0.13452
0.09034
0.44333
-0.04558
0.21237
0.30751
-0.01404
0.32369
0.66742
0.17974
-0.16155
-0.03768
-0.14775
0.01375
0.11417
-0.06774
-0.44800
-0.38911
-0.18759
0.25721
-0.44473
0.22280
0.38814
0.01860
0.63763
0.11993
-0.27353
-0.10989
-0.51862
-0.16588
-0.89037
0.22580
-0.29273
0.34963
-0.05678
-0.94259
0.36436
0.53853
-0.46189
0.20481
0.16399
0.15194
0.08038
0.25188
-0.62407
-0.09079
-0.72420
0.26225
0.18846
-0.26518
-0.15764
-0.06323
0.16455
-0.94816
-0.04474
0.25198
0.36718
-0.53290
-0.75629
-0.25564
-0.38409
0.10960
0.42835
-0.10727
-0.48157
-0.25084
-0.17781
0.10972
0.13683
0.55390
-0.16937
0.09302
-0.86282
-0.16326
-0.62152
-0.63080
0.38598
0.22624
-0.24541
0.20662
0.33949
0.39886
0.25018
0.21399
-0.21488
0.36637
-0.54525
0.14500
0.05480
0.05310
0.30771
0.29115
0.06371
-0.25424
0.04174
-0.17768
0.26212
-0.23568
0.30757
-0.44267
0.02579
0.55804
0.03467
0.08665
-0.10892
-0.29377
-0.31398
-0.01283
0.09846
-0.19574
0.20423
-0.59995
0.24141
-0.13040
0.14637
-0.18063
-0.12933
0.17531
-1.27088
0.09740
0.32660
-0.16787
-0.21718
-0.05634
-0.67925
0.26625
0.28836
-0.08211
-0.20783
-0.31473
0.48424
0.18986
-0.54915
-0.10166
0.19066
0.35815
0.16324
0.12650
-0.04885
-0.08922
-0.07084
-0.45453
0.23270
-0.16747
0.08543
-0.41169
-0.18661
-0.44055
-0.19129
0.11841
0.11014
-0.19433
-1.36790
0.48605
0.03223
-0.46506
-0.20150
-0.14303
0.02016
0.48308
-0.09683
0.62839
-0.13262
-1.64613
0.20390
-0.40035
0.05535
0.13267
0.14489
0.11409
0.07777
-0.13506
-0.60160
-0.15105
-0.91451
0.18082
0.04101
0.51442
-0.14959
-0.39204
0.17417
0.03086
-0.12176
-0.36862
0.34623
-0.30511
-0.04985
0.51164
-0.14358
-0.15589
0.58960
-0.21037
0.00059
-0.31571
-0.23754
0.14059
0.16510
0.52655
-0.18044
0.17276
-0.40536
-0.14923
0.19130
-0.27755
0.37034
-0.19725
-0.60781
-0.08817
-0.36359
0.25395
0.04926
0.12880
-0.45278
-0.30240
-0.46329
0.12900
0.10895
0.18095
-0.22419
0.39619
0.00278
0.19968
-0.42230
-0.09083
0.30801
-0.31388
0.42504
0.01803
-0.55218
0.26158
-1.56695
0.09238
-0.25018
0.04762
-0.30658
0.03198
0.42907
-0.09330
0.17438
-0.39517
0.30453
-0.22430
0.11030
-0.08158
-0.10438
0.18318
-0.44502
0.07017
-0.04135
-0.36499
0.31553
-0.08558
-0.35514
-0.11195
0.60351
-0.07010
-0.11019
-0.27586
0.36694
0.61926
-0.43199
-0.18582
0.46708
0.31867
-0.42963
0.18902
-0.19139
0.23388
-0.20643
-0.34771
0.03628
-0.30020
0.52786
-0.23674
-0.15523
0.15312
-0.25868
0.07802
0.00139
0.02365
-0.09833
-0.14031
0.12146
-0.03253
-0.32261
-0.15178
0.26027
0.23677
-0.13212
0.27711
-0.14481
-0.46853
0.24479
0.22029
-0.53111
0.18472
0.30098
0.09456
0.42562
0.18705
-1.66683
-0.10150
-1.85359
-0.15969
0.14406
-0.32366
-0.09230
-0.23380
0.16975
0.28167
0.24948
-0.20519
0.36750
-0.03706
0.32195
-0.28028
-0.15684
-0.15541
0.42257
-0.20342
-0.07629
0.59223
-0.01175
0.18890
0.11670
0.20180
-0.27412
-0.22662
-1.15996
-0.14512
-0.29136
-0.66723
0.40119
-0.41155
-0.87708
0.28849
-0.16159
0.36213
0.06334
0.11656
-0.30014
-0.14500
-1.03863
0.15964
0.18818
0.15373
0.00256
0.42271
0.66688
-0.11640
0.13616
-0.09069
-0.56749
-0.18754
0.51200
-0.80085
-0.13778
0.22397
0.40211
0.28754
-0.18404
-0.08096
0.56802
-0.87300
-0.44970
-0.27357
0.28049
-0.17480
0.37244
-0.15055
0.05283
-0.21718
-0.14613
0.40278
-0.73483
0.24346
-0.17595
0.20169
0.56472
0.31353
-0.04600
-0.25671
0.43890
0.06125
-0.15499
0.27058
0.25759
-0.17773
-0.48358
-0.33157
0.27400
0.14178
0.02123
0.12811
-0.27895
-0.16756
-0.12049
-0.28070
0.08651
-0.00712
0.50322
-0.11185
-0.13777
-0.17228
-0.07112
0.09645
0.24530
0.29397
0.47121
-0.03180
-0.67059
-0.52106
-0.07572
-0.10309
-0.02011
0.50667
-0.54077
-0.23415
-0.36049
-0.65391
-0.14539
0.13834
-0.08683
0.13436
0.29506
0.12936
0.21504
0.29481
-0.21898
-0.16865
-0.16163
-0.21117
0.16066
-0.13009
-0.19499
-0.51030
0.15969
0.11986
0.35131
0.05496
0.61871
-0.32253
-0.14388
0.06715
-0.40367
-0.06193
0.33889
-0.15434
0.00184
-0.24883
0.33213
0.16475
0.12030
-0.11818
-0.06385
0.37949
-0.64786
-0.11876
-0.18968
0.28816
-0.05433
-0.12857
-0.47598
0.20011
0.12279
0.03743
-0.01476
0.11542
-0.21740
-0.22931
-0.15865
0.10873
0.12718
0.13853
-1.09917
0.62368
-0.30072
0.25651
-0.01554
-0.27944
-0.37933
0.25480
0.18358
-0.41899
-0.37212
0.22444
0.68917
-0.22543
-0.15297
-0.47262
-0.52413
-0.07244
0.04432
-0.08584
-0.01803
-0.42949
0.12949
-0.19640
0.14745
0.03970
-0.12403
0.48717
-0.14537
0.30136
-0.07504
-0.24165
0.15508
0.11670
0.12854
-0.21693
0.25199
-0.02114
-0.16553
0.01604
0.11294
-0.71790
-0.38619
-1.59828
-0.74523
0.29410
0.05210
0.12676
-0.09077
0.36250
-0.09647
-0.19174
0.24921
0.02285
0.46364
-0.17421
-0.21017
-0.11106
-0.17218
-0.28894
-0.00236
-0.75623
0.54447
-0.65867
0.06755
-1.14865
-0.00525
-0.13501
-0.19529
0.03569
-0.51988
-0.41586
0.06121
-0.18975
0.22955
-0.24183
-0.46800
0.10153
0.16559
0.17842
0.32364
-0.13171
-0.26323
-0.10815
-0.55754
-0.06551
0.08267
-0.78186
-0.10990
-0.32255
0.18458
-0.33671
0.60512
0.23080
0.29663
-0.50201
-0.00877
0.48475
-0.15147
-0.20901
-0.18795
-0.13004
-0.28989
0.06461
0.60849
0.19441
0.14422
0.07764
-0.30962
-0.03335
-0.17060
-0.17499
0.01801
-0.31439
0.11345
0.53081
-0.90652
0.03564
-0.39247
0.48994
0.12019
0.02903
-0.08903
-0.04230
-0.32138
0.07298
0.10451
0.08762
-0.84105
0.54507
-0.37324
0.07245
0.02349
-0.07476
-0.22273
0.32256
-0.15486
-0.42004
-0.64067
-0.35330
0.49213
-0.10664
-0.46655
0.16420
0.73267
0.16510
-0.69818
-0.15630
0.12322
-0.78207
0.32849
-0.16225
0.15655
-0.12843
-0.10228
-0.26582
0.33091
0.41969
-0.29829
0.14728
-0.03055
0.41380
0.31024
-0.05431
-0.29379
-0.46846
-0.22152
-0.80727
0.19798
0.20138
-0.25770
0.09618
-0.38092
-0.54849
-0.78278
0.17791
-0.45108
-0.07696
-0.04371
-0.20462
0.45265
-0.58093
0.01590
-0.39223
-0.08927
0.02452
-0.35918
0.21066
-0.21379
-1.54370
0.20137
-0.17162
-0.36360
0.10751
-0.06900
-0.16334
-0.30176
0.38058
-0.71704
-0.19447
-0.50490
-0.31124
0.39396
0.02601
-0.32619
0.14555
0.37519
0.11683
0.29155
0.26468
-1.01148
-0.15738
-0.91846
0.46633
0.07105
-0.07818
-0.11043
-0.41629
0.21362
0.34023
-0.09783
0.25447
-1.34232
-0.50776
0.24672
-0.07453
-0.63303
-0.35664
-0.19397
-0.13531
-0.07790
-1.17247
0.39585
0.15342
0.12853
0.39613
0.04207
0.15946
-1.08386
-0.13721
-0.19966
-0.34173
0.23148
-0.20589
-0.63443
0.21330
-0.12917
0.18681
0.46862
0.09456
-0.28002
-0.15175
-0.47639
0.08213
0.14617
0.08323
-0.19238
0.11686
0.25003
-0.34304
-0.11271
-0.22360
-0.11294
-0.45568
0.10437
-0.49805
-0.08878
0.12831
0.20644
0.32866
-0.72434
-0.23893
-0.70054
-0.12400
0.14926
-0.15955
0.31282
-0.03186
0.23063
-0.15145
0.12493
-0.11397
-0.14201
-0.03344
-0.51065
0.20738
0.24266
-0.49401
0.16401
-0.40541
0.62275
-0.40559
0.04576
-1.53420
-0.10660
0.08032
0.16675
0.41513
0.06690
0.18180
0.28089
0.14492
0.00917
0.14563
0.07151
0.03118
-0.07508
-0.50985
0.02535
0.15847
0.31291
-0.30947
-0.18710
-0.64183
-0.32605
-0.09436
0.46375
-0.17418
0.14138
-0.19698
-0.34565
-0.12176
-0.14099
-0.07744
0.13857
0.41624
0.40300
-0.60780
0.06222
-0.75108
0.44496
0.17497
-0.26537
0.10873
0.03815
0.12900
0.44135
0.01978
-0.63876
-0.15647
-0.78225
0.28472
0.10312
-0.95435
-0.14406
-0.36781
0.23366
-0.12436
-0.26772
-0.28126
0.06706
-0.47024
-0.09855
-0.14043
-0.14341
-0.54706
0.36509
-0.17655
0.00384
0.06518
0.13932
0.17136
0.11874
0.37703
-0.41388
-0.04330
-1.59391
-0.14137
-0.09903
0.09148
0.01727
-0.56656
-1.07765
-0.15895
0.17533
0.21048
0.41142
0.05956
-0.22932
0.05912
-0.46915
0.15468
0.09486
0.12556
-0.40161
0.22428
0.39523
-0.47034
-0.20855
-0.14369
-0.46647
-0.35664
0.16800
0.08216
-0.45266
-0.59192
0.15271
-0.46579
-0.11157
-0.11988
-0.46807
0.36144
-0.61108
-0.10308
0.21080
-0.39698
0.35861
-0.14478
0.12399
0.02791
-0.10967
0.11659
-0.07396
0.38397
-0.29025
0.02470
0.00085
-0.05758
-0.01321
-0.39720
0.04126
-0.12147
-0.15373
0.24042
0.18166
0.15555
0.06917
-0.30811
-0.16189
0.10810
0.66447
0.16829
-0.18726
-0.32402
-0.15571
-0.11319
0.39744
-0.54949
-0.08729
-0.13527
-0.10414
-0.10833
-0.21844
0.11483
-0.23159
0.02146
0.02316
0.15747
-0.18914
0.12094
-0.07733
-0.14793
0.05338
0.44285
-0.30469
-0.19839
-0.08420
-0.67845
0.47368
-0.51322
0.08614
0.07431
0.04783
0.17173
0.33452
0.26731
-0.83901
-0.13644
-0.84301
0.37601
0.15512
-0.34473
-0.17086
-0.12697
0.18907
-0.00334
0.27792
0.01585
0.15007
-0.06154
-0.23246
0.14837
-0.28942
-0.03189
0.13147
-0.20439
-1.66575
-0.56013
-0.04751
0.19937
0.23277
0.22647
-0.01274
0.57634
-0.23980
-0.12802
0.01982
-0.14407
0.07187
0.09522
-0.68172
-0.98957
-0.16497
0.12375
0.14051
0.11460
-0.18132
-0.46975
0.02574
0.15425
0.20374
0.18406
0.22202
0.31103
-0.09182
-0.11396
-0.03609
-0.04657
0.42528
0.77436
0.00643
-0.52044
-0.28513
-0.23630
0.09540
0.25210
-0.17567
-0.42724
0.25022
-0.08752
-0.03985
-0.15438
0.53866
-0.02208
0.18575
-0.14661
0.14682
0.29325
-0.09363
0.88102
0.20230
0.21469
0.01339
-0.22266
0.43543
0.40942
-0.35703
0.27109
0.53093
-0.50459
-0.11502
0.00600
0.42609
-0.55992
-0.12546
-0.45498
0.24738
0.66585
0.47553
0.17614
0.34637
0.10400
-0.09243
-0.43247
0.01259
0.26636
-0.58879
-0.21046
-0.21937
0.07620
-0.20921
0.04224
0.37154
-0.04914
-0.53308
-0.31951
0.04448
-0.51795
-0.18058
-0.14133
-0.92224
-0.14345
-0.35028
0.23370
-0.03758
-1.14677
0.40756
0.12985
-0.21387
0.16843
0.10349
0.09793
-0.33812
0.41545
-0.87791
-0.16403
-0.67666
-0.37597
0.17701
-0.43878
-0.17357
-0.23744
0.12141
0.11440
0.03792
-0.80768
0.15606
-0.44015
-0.11053
-0.18228
-0.31407
-0.16143
0.57383
-0.18350
-0.41234
-0.09250
0.16555
0.11131
0.14567
0.20495
-0.21409
-0.28818
-0.84721
-0.07657
-0.25950
0.08456
-0.05650
0.03203
-0.18456
0.29621
0.20959
0.14903
-0.18852
0.11143
-0.18403
0.15009
-0.59238
0.11455
0.15320
0.14244
-0.16023
0.03078
0.06405
-0.19238
-0.32859
-0.21202
0.02525
0.26036
0.00932
-0.59236
-0.04558
-0.20990
0.06498
-0.02451
-0.26972
-0.24574
0.08425
0.22426
-0.35380
-0.16761
0.04243
-0.30471
0.24737
-0.12235
0.14411
-0.05991
-0.07449
0.38714
0.33032
0.27569
0.35351
-0.40643
-0.21093
0.02526
-0.33874
0.28202
0.31185
0.10808
-0.14223
-0.21948
0.40438
0.06845
-0.01706
-0.07422
0.22210
-0.14108
0.38507
0.25656
-0.15276
0.07635
-0.05330
-0.28151
-0.13444
-0.23631
-0.16185
-0.37559
-0.15077
0.05136
-0.21507
0.05294
0.18179
-0.36736
-0.04063
-0.05825
-0.30144
0.13671
-0.22259
-0.09394
0.46622
0.06862
-0.25931
0.32368
-0.20509
-2.12986
0.24296
-0.06281
-0.26192
0.15775
-0.07985
0.13224
0.31691
0.11622
-0.76898
-0.12152
-0.29504
0.21017
0.12816
0.34689
-0.18121
-0.07252
0.18365
-0.05096
-0.18297
-0.00991
0.24845
-0.53398
-0.44679
0.26801
0.01133
-0.23292
0.15392
-0.09112
0.35740
-0.13951
0.19057
0.15508
0.16843
0.11890
-0.07590
0.26774
-1.21864
-0.11130
-0.13614
-0.19731
-0.31206
-0.00442
-0.28817
0.29567
-0.07899
0.10786
0.35337
0.13634
-0.47466
0.00763
-0.69060
0.14440
0.16934
0.16619
-0.47071
0.34009
-0.04623
0.22189
-0.91623
-0.11736
-0.55796
-0.47058
0.29662
-0.63203
-0.35595
0.06096
0.24759
-0.16098
-0.56204
-0.33902
0.22510
0.39326
-0.11370
-0.13482
0.15882
-0.20144
0.30046
-0.19996
0.15532
0.21468
-0.13925
0.10527
-0.05471
0.16158
-0.45900
-0.34210
-0.16389
0.28974
-0.07200
-0.06007
0.22714
-0.43393
-0.08145
0.47106
0.16965
-0.33868
-0.54088
-0.45927
0.07560
0.36829
0.32170
0.13043
-0.23655
0.04187
-0.19487
-0.23832
-0.02661
-0.55286
-0.12421
-0.07981
-0.09679
-0.59165
-0.28483
-0.10298
-0.16753
-0.15588
-0.33869
-0.65749
-0.22446
0.02784
-0.20527
-0.19160
0.10438
0.35888
-0.03134
0.06997
-0.07588
-0.40984
0.10318
0.19249
-0.08829
0.13041
0.08672
0.18529
0.32004
0.29965
-1.31523
-0.15081
-1.22907
-0.40869
0.16593
0.04641
-0.11197
-0.38829
0.16859
-0.34061
0.49924
-0.10972
0.22736
0.14287
0.36247
-0.11243
-0.04600
-0.00433
0.05146
-0.17669
-0.03063
-0.38005
-0.05152
0.14125
0.12342
-0.25768
-0.17889
0.05411
-1.10096
-0.18827
-0.92027
-0.30098
-0.13299
-0.21648
-0.14223
0.31927
0.40127
0.26797
-0.24415
0.11127
-0.31665
-0.01390
-0.68837
0.17177
0.19467
0.14541
0.12923
0.45691
-0.40296
-0.36939
0.36434
-0.24417
-0.92369
-0.23498
0.52090
-0.74183
-0.08602
-1.00406
-0.27287
-0.00889
-0.80884
0.00571
0.01547
-0.22616
0.11264
-0.25256
0.11760
-0.36761
0.07859
-0.13310
0.11523
-0.46000
-0.12785
0.13406
-0.56114
0.17114
-0.15510
0.10882
-0.15113
-0.09063
0.12599
0.06142
-0.34364
0.14034
-0.22202
0.41037
0.24197
0.31935
-0.44206
0.07360
0.05977
0.35952
-0.06353
0.15140
-0.52646
-0.32972
-0.09323
-0.25433
-0.11592
0.11879
0.36155
-0.38014
-0.10474
0.12315
-0.21475
-0.28980
0.20539
-0.16038
-0.58356
0.04543
-1.23721
-0.08244
-0.15579
-0.15574
0.33217
0.12740
-0.33746
0.36192
-0.50260
-0.76032
0.22025
-0.03051
0.04881
0.12722
0.06404
0.16910
0.04675
0.17695
-0.89209
-0.16333
-0.80738
-0.59430
0.11146
-0.12145
-0.24040
-0.15484
0.16724
-0.18919
0.19465
-0.45183
0.04669
-0.31927
-0.20948
-0.12278
-0.32426
-0.09079
0.43180
-0.17112
0.11875
-0.20556
0.46465
0.08122
0.11446
-0.15070
-0.04727
-0.27683
-1.15123
-0.16052
-0.09441
0.07709
-0.96321
0.38750
-0.42234
0.17297
-0.45718
0.14346
-0.35541
0.13897
-0.35982
-0.59557
-0.60628
0.13933
0.09928
0.09539
-0.65115
0.51585
-0.15963
0.04036
-0.57865
-0.12763
-0.22226
0.18647
0.28155
-0.31284
-0.30038
-0.18577
0.00975
0.29474
0.05236
-0.28854
-0.84155
-0.66133
-0.53751
-0.14137
0.23525
-0.31715
-0.44064
-0.13204
0.08018
0.44186
-0.14222
0.37417
-0.59997
0.16500
-0.03493
-0.54092
0.27262
0.44510
-0.10081
-0.52713
0.06750
-1.03404
-0.13629
0.25442
0.23197
-0.06865
-0.14320
-0.54667
-0.04918
-0.03670
-0.58176
0.14138
-0.87862
0.16437
-0.19578
-0.42931
-0.48830
-0.13544
-0.12713
-0.07484
-0.22899
-1.04800
-0.48978
-0.02164
-0.26956
-0.56976
-0.57154
-0.77335
-0.07097
0.40917
-0.02190
-0.12922
0.23274
0.50162
-0.02837
-0.11915
0.01742
-0.08845
0.15951
-0.27776
-0.40216
0.12924
-0.32511
0.13788
0.18905
0.06648
-0.34442
-0.15813
-0.79338
-0.03484
0.06726
-0.00051
-0.15066
-0.08589
0.14453
-0.15681
-0.07870
-1.14999
0.17846
-0.31744
-0.67913
-0.30611
-0.26107
-0.14490
-1.52959
-0.12866
-0.33393
-0.05238
-0.51393
0.11857
0.12361
0.03053
-0.30426
-0.29043
-0.47159
-0.09003
-0.62622
-0.02466
0.28892
-0.09390
-0.95913
0.25768
0.31182
0.11688
0.07614
0.04979
0.01335
-0.18107
0.16531
0.16199
0.17782
0.16206
-0.04337
0.21001
0.20290
-0.51589
0.09037
-0.03627
-0.40771
0.11679
-1.57153
-0.96491
-0.39537
-0.00823
-0.38535
-0.34255
-0.75922
-0.11794
0.47620
-0.95659
0.03918
-0.15132
-0.46181
-0.36632
-0.11059
-0.20355
0.15105
-0.53684
-0.07368
-0.00987
0.04345
0.18477
-0.30287
0.25826
0.49957
-0.14912
0.19888
-0.19956
0.15689
0.17430
-0.22267
0.26104
0.29011
0.27655
0.14263
-0.17702
-0.06196
-0.07925
0.02695
0.16410
-0.66356
-0.00076
-0.13644
0.02020
0.07824
-0.26041
0.16852
-0.26809
-0.02100
0.48924
-0.24690
-0.40277
-0.29951
-0.71680
-0.75561
-0.25259
-0.38172
-0.39537
-0.36779
-0.18754
-0.20487
0.05943
0.18418
0.21242
-0.57512
-1.38572
0.34382
0.21613
-0.06361
0.16633
-0.20119
0.15272
-0.31051
0.17987
-0.67703
-0.11748
-1.28033
-0.27519
0.12077
-0.49020
-0.15400
-0.45878
0.16195
0.40724
0.45236
-0.33196
0.01687
-0.19045
-0.05711
0.20809
-0.28967
-0.18975
0.35629
-0.16902
0.14921
-1.52001
0.29751
0.12305
0.15909
0.42225
-0.05114
-0.03006
0.17075
-0.14742
-0.11403
-1.20198
-0.61943
0.18926
-0.87861
0.16661
-1.09992
0.02281
0.28570
0.12352
-0.61896
-0.48503
-0.54044
0.11379
0.13608
0.11879
0.03198
0.20929
-0.58536
0.04685
-0.42966
-0.16183
-0.32762
-0.76348
-0.09975
-0.18760
0.07168
-0.00668
0.60156
0.16230
-0.13492
-0.19204
-1.22209
-0.87767
-0.77823
-0.21236
0.10973
-0.04616
0.34009
-0.09726
0.17532
0.20316
-0.12363
0.03042
-0.45949
0.23670
0.14099
-0.43596
0.18583
-0.03247
-0.03377
-0.22828
-0.24045
-0.04803
-0.12484
-0.53151
0.10643
-1.24903
-0.09143
0.22637
-1.49819
-0.07893
-0.16559
0.12721
-0.46615
-0.10449
-0.09583
-0.37703
0.30981
0.03225
0.20436
-0.07961
-0.25644
-0.11919
-0.23389
-0.22930
0.14170
-0.48168
0.04843
-0.53135
-0.68724
-0.26100
-0.22728
-0.18298
-0.20337
0.72276
-0.03341
-0.10344
-0.08022
-0.58673
0.25349
0.35748
0.03630
0.08143
0.24911
0.12201
0.10276
0.21187
-0.52875
-0.14483
-0.88597
0.23856
0.17650
-0.31375
-0.20480
-0.15722
0.14662
0.53828
-0.52515
-0.41237
0.04111
-0.34035
-0.29940
0.33830
-0.11117
-0.25182
0.11863
-0.12403
0.00424
-0.24388
-0.16758
0.14536
0.16016
-0.12930
-0.55318
0.28846
-1.36440
-0.17517
-0.57054
-0.38430
0.08303
-0.19326
-0.87439
0.35797
0.11984
0.41036
0.03516
0.12754
-0.31492
0.22138
-0.25155
0.12488
0.10326
0.14333
-0.44412
0.05394
-0.07235
-0.27655
-0.45635
-0.15918
-0.41879
0.06567
0.18902
-0.08346
-0.38396
0.43049
0.16455
-0.06618
-0.84626
-0.29082
-0.16256
0.28923
-1.16839
-0.14236
0.12501
-0.13011
0.47799
-0.21764
0.15981
-0.38104
-0.10300
0.08274
0.20511
0.26599
0.09778
0.13542
-0.68569
0.04453
0.01451
0.42556
0.00010
-0.43492
-0.16384
0.12578
0.26001
0.29945
0.26588
-0.27076
0.11505
0.08206
-0.03698
0.13295
-1.04473
-0.45723
-0.15721
-0.46596
0.26244
-0.04620
0.01840
-0.40426
-0.08069
0.00820
-0.11717
0.09366
-0.34050
0.23021
-0.88902
0.24559
-0.17874
0.40050
-0.18766
-0.14348
0.23687
0.31869
0.04824
-0.08254
-0.01720
-0.66496
0.40344
-0.28918
0.02119
0.13489
-0.04530
0.15309
0.01197
-0.28458
-0.75528
-0.08096
-0.74625
0.23782
0.18213
-0.31807
-0.10516
-0.15817
0.15853
0.39640
0.20831
-0.21200
0.05846
0.02663
0.07793
0.02807
-0.30727
0.15021
0.58273
-0.11220
-0.56035
-0.41454
0.11618
0.17402
0.12838
-0.21179
0.01413
-0.22514
-0.63654
-0.19186
0.01322
0.10954
0.17749
0.04972
-0.87310
0.09652
-0.65570
0.34456
-0.07825
0.13218
-0.24787
-0.25380
-0.43730
0.17817
0.16314
0.13425
0.25701
0.29956
0.06777
-0.11103
0.03676
-0.09716
0.43919
0.35313
0.06140
-0.06638
0.05681
-0.12780
-0.25824
-0.07811
-0.08080
-0.26842
-0.30411
0.03281
0.33597
-0.17490
0.25469
-0.27212
-0.12560
-0.14866
0.15688
0.41292
-0.11598
0.62929
0.01570
0.15641
0.10315
-0.06941
-0.34042
0.07686
-0.23082
-0.14521
0.32815
-0.88115
-0.15875
0.05949
0.36551
0.30395
-0.45801
-0.36503
0.15866
0.43565
-0.27988
0.15897
-0.16959
0.50524
-0.13933
-0.48743
-0.14547
-0.01564
0.20256
-0.24520
-0.17837
0.16230
-0.19516
0.11955
0.32043
-0.20467
-0.22163
-0.57078
-0.01619
-0.26753
-0.26232
-0.11005
-0.53391
-0.00582
-0.31035
0.51471
-0.10175
-0.97679
0.25839
-1.06334
-0.02522
0.16824
-0.03249
0.15878
-0.18141
-0.04882
-0.84052
-0.15786
0.25638
0.05948
0.17743
-0.61743
-0.15566
-0.26105
0.12697
-0.12257
-0.06865
-0.37178
0.06110
-0.43688
0.20751
0.21646
-0.28995
-0.15965
0.15953
-0.16185
-0.98092
-0.08283
0.36843
0.15599
0.11945
-0.00158
-0.29418
-0.37287
-0.55250
-0.12033
-0.13807
-0.17303
0.36993
-0.47244
-0.27148
0.39461
-0.01642
0.26754
-0.09790
0.14806
-0.23983
0.19231
-0.72528
0.17296
0.13559
0.15459
-0.90085
0.27949
-0.39759
-0.26781
-0.16584
-0.18324
-0.17784
0.07766
0.08923
-0.03135
0.02077
0.41191
0.10030
-0.40393
0.06344
-0.24783
-0.18261
-0.17470
0.00260
-0.15279
0.09545
-0.38273
0.21052
-0.13506
0.12372
-0.46543
-0.09807
0.26968
-0.48447
0.25145
0.42530
-0.22671
-1.04032
0.10872
-0.32008
0.45182
0.26652
0.06917
-0.10544
0.28704
0.42255
-0.99293
-0.53245
-0.17999
0.33861
0.01360
-0.00330
0.17623
-0.07433
-0.02408
-0.07352
-0.27628
0.12404
-0.23425
-0.26864
-0.46510
-0.18021
0.45207
-0.44764
0.14610
0.08280
-0.64774
-0.42743
0.56643
-0.04029
0.26279
-0.30888
-0.12962
0.00967
-0.66073
-0.79816
0.09401
-0.40414
-0.89406
0.28227
-0.66793
-0.35870
0.18132
-0.12224
0.14746
0.27992
-0.12416
-0.80432
-0.18188
-0.96309
-0.32602
0.08068
0.28828
-0.09299
-0.19132
0.15730
-0.08869
-0.12176
-0.23390
0.15790
-0.61253
-0.25645
-0.14183
-0.21370
-0.41220
-0.00883
-0.12623
0.03586
-0.33027
-0.19954
0.15764
0.16657
0.09434
-0.11708
0.14772
-0.52674
-0.12430
0.11875
0.08822
0.38316
-0.36512
-0.13569
0.07815
-0.20721
0.49566
0.12101
0.10526
-0.47116
-0.06917
-0.63563
0.11540
0.14995
0.07948
0.21410
0.40803
-0.72397
-0.25693
-0.90896
-0.08483
-0.85839
-0.22674
0.11267
-0.52395
-0.27737
-0.03257
0.53786
0.09479
-0.42096
-0.40126
0.02282
-0.55568
-0.07047
-0.23081
0.22639
-0.67415
0.15817
-0.18685
0.12054
-0.06724
-0.16260
0.14414
-0.38021
0.11215
-0.49856
-0.42214
0.52930
-0.04079
-0.10149
-0.40202
0.29852
-0.54470
-0.14573
0.13587
0.30461
0.26410
-0.66056
-0.40119
0.22113
0.24260
-0.11501
0.17405
-0.46601
-0.19784
-0.21751
-0.20278
-0.11680
-0.71730
-0.30081
-0.17188
-0.15446
-0.29420
-0.44415
0.03915
-0.23683
-0.28835
-0.14777
-0.51666
0.14186
-0.23742
-0.16644
-0.17941
-0.06437
0.14993
-0.86943
-0.03543
-0.27865
-0.56791
0.16869
0.11117
-0.21180
0.14893
0.24682
0.11750
0.25342
-0.32323
-0.68585
-0.16239
-1.06616
0.05204
0.07522
-0.04822
-0.11232
-0.40943
0.17628
0.19519
-0.06539
-0.01133
0.30133
-0.08560
0.07121
-0.18038
-0.13296
-0.11885
0.01387
-0.12603
-0.16698
-0.30652
0.12819
0.14297
0.12956
0.16000
-0.26332
0.10712
-1.34830
-0.15211
-0.62639
-0.24140
-0.36396
0.02210
-0.56527
0.17034
0.02075
0.13007
-0.10479
0.16036
-0.30338
0.04582
-1.09936
0.15342
0.13727
0.10539
-0.05461
0.47595
0.05105
-0.53763
0.18395
-0.24563
-0.48847
-0.71548
-0.39779
-1.27857
-0.21739
0.20844
0.12953
0.22604
-1.28529
0.01006
0.24309
-0.66227
-0.38013
-0.27321
-0.05052
-0.40995
0.09208
-0.19089
0.13428
-0.82260
-0.10445
0.12496
-0.24590
0.03246
-0.03517
0.02751
0.45949
0.22445
-0.05763
-0.28844
0.10985
0.20810
-0.19368
0.12770
0.30973
-0.14314
-0.80152
0.31683
0.17187
-0.11161
0.12257
0.15867
-0.33894
-0.57616
-0.13364
-0.44298
-0.24501
0.09155
-0.24994
-0.42607
-0.11142
-0.00992
-0.14569
0.01091
-0.45036
-0.14154
-0.39031
0.14342
-0.01700
0.26536
-0.26980
-0.13372
-0.04115
0.28681
-0.15120
0.05080
-0.58559
-1.12092
0.04147
-0.31195
-0.13888
0.14712
0.11573
0.10714
0.21003
-0.41150
-0.40907
-0.13681
-0.34992
-0.52571
0.08213
-0.44788
-0.13378
-0.01543
0.14923
-0.03916
0.09410
-0.32814
0.07715
-0.53172
-0.66757
0.64153
-0.34604
-0.29937
0.28702
-0.14701
-0.20865
-0.13595
0.12688
0.10062
0.10333
0.20182
-0.23554
0.32697
-1.07828
-0.16751
-0.10114
-0.10448
-0.31604
0.18774
-0.64054
0.23147
-0.44558
-0.20221
0.16052
0.10765
-0.33385
-0.30326
-0.53498
0.07850
0.16556
0.15640
0.05490
-1.50976
0.12730
-0.43670
0.09218
-0.18899
-0.79040
0.20534
-0.79771
-0.45333
-0.10730
-0.57669
-0.73123
-0.07804
0.27002
-0.62630
-0.38801
0.17834
-0.52058
-0.19331
0.23121
-0.06934
-0.26075
-0.13769
0.17657
-0.76855
-0.10322
0.46393
-0.16583
0.07576
0.02012
-0.48399
-1.03046
-0.29033
-0.49723
-0.03715
-0.12590
-0.15142
-0.14621
0.54872
-0.04225
0.18785
0.16055
-1.06506
0.38735
0.58865
-0.42305
0.28776
-0.59913
-0.68095
-0.18124
-0.72679
-0.31486
0.01991
-0.81350
0.06512
-0.22953
0.08498
0.01016
0.01657
-0.06613
-0.32250
-0.72573
-0.19799
-0.92548
-0.30873
0.05052
-0.11478
-0.39535
-1.06461
-0.60489
0.55819
0.24047
-0.18786
0.11749
-0.40924
-0.06098
0.23757
-0.24119
0.13139
0.63715
-0.06535
0.51633
-0.11919
0.58136
-0.04814
0.23079
-1.39475
-0.14008
0.18314
0.15202
-0.79823
0.26360
-0.40490
0.37472
-0.14444
-0.80730
0.53946
-0.00277
0.16351
-0.77006
-0.12635
-0.52891
0.00206
-0.95663
0.15637
0.10765
-0.09516
-0.18240
-0.22833
0.79018
-0.04673
-0.04461
0.17298
-0.59053
0.33713
-0.21078
0.50154
-0.09963
-0.63881
0.28088
0.15978
0.24373
-0.66787
1.03679
0.15005
0.17951
0.19098
-0.05401
0.43636
-0.83377
-0.34910
0.26946
-0.25335
-0.75337
0.33628
-0.01264
-0.11899
-0.28071
-0.24194
0.53807
-0.10112
-1.02044
0.05254
-0.10836
-1.05829
-1.24627
-0.16104
0.43135
-0.21215
-0.24705
-0.19721
0.12786
-0.37673
-0.12323
0.16688
-0.01759
-0.05737
-0.75165
0.03822
-0.71866
-0.59093
-0.16353
-0.55298
-0.33880
-0.80410
-0.34249
0.10934
0.06127
0.18598
0.49270
0.42639
-0.79163
-0.30937
-0.19631
0.19527
-0.50079
-0.56284
-0.06551
0.38733
-0.34892
-0.01753
0.59161
-0.01480
-0.16900
0.35292
-0.13450
-0.28199
-0.33432
-0.23322
0.87920
-1.87754
-0.27743
-0.97099
-0.37321
-0.14984
-0.52113
0.31164
-1.16005
0.69167
-0.20054
-0.02745
0.14776
-0.75595
0.10620
0.16152
0.01593
0.04961
0.59188
0.87139
-0.64428
-0.15839
-0.38665
0.21693
0.14027
-1.26464
-0.23004
-0.12873
-0.04148
0.72200
-0.80748
-0.62277
-0.18273
-0.11603
-0.77369
0.27825
-0.28471
-0.03896
0.29862
-0.40120
-1.17778
-0.75077
0.28314
0.14281
0.10495
0.20527
-0.01951
0.35906
-0.51815
-0.10168
-0.80960
0.80596
-0.62717
-0.03656
-0.71303
0.39939
-0.51459
0.25177
0.38890
0.13708
-0.39650
-0.51802
0.29209
0.03988
0.05832
0.11756
0.25005
0.25910
-0.44447
-0.22007
-0.28968
-0.22724
-0.44036
-0.13733
0.26002
-0.27220
0.07427
0.13405
-0.09835
0.39369
-0.72041
-0.22749
-0.97554
-0.51187
-0.48991
-0.18393
0.19904
-0.04124
0.48856
-0.13726
0.11906
-0.07511
-0.13609
0.19238
-0.83849
0.28732
-0.31353
-0.56315
-0.23469
0.26600
-0.24287
0.27026
-0.40393
-0.61040
-0.06956
0.40345
0.31925
0.24134
-0.58128
-0.72630
-0.15958
0.51525
0.25085
0.18743
-0.80318
0.03120
-0.09872
-0.37709
0.21159
0.08769
-0.06277
-0.04467
-0.20940
-1.18722
-0.37176
0.01576
0.13343
-0.05384
-0.03277
-0.44804
-0.55267
0.21855
-0.21594
-0.15673
-0.81199
0.34027
-0.03001
0.02072
-0.11851
-1.07252
0.22312
-0.82628
-0.13626
0.12484
0.18448
0.08335
-1.08515
-0.73057
-1.19769
-0.15104
-1.51314
0.38928
0.00944
-0.37699
-0.14212
-0.31523
0.15166
0.30058
0.26888
0.21409
0.17306
-0.32857
-0.21448
0.19641
0.03005
-0.26927
-0.26305
-0.15636
-0.65052
0.52381
0.20959
0.15652
0.11280
0.31596
-0.70787
0.00686
-0.94171
-0.13418
-0.21357
-0.14306
-0.13277
-0.25344
-0.41829
0.28065
-0.31421
-0.03591
0.02898
0.10395
-0.08921
-0.02552
-0.14711
0.13830
0.20436
0.17612
0.44108
0.16552
-0.08807
-0.60709
-0.55205
-0.24841
-0.32279
-0.35870
0.22421
-0.62801
-0.04680
0.36541
0.36468
-0.26025
-0.08491
-0.21414
-0.16883
-0.14113
-0.83885
-0.08753
0.40345
-0.14784
0.51102
-0.18638
0.17074
-0.33669
-0.09182
0.08835
-0.02276
0.35521
0.03709
0.01148
-0.41414
0.14210
0.01702
0.36948
-0.80322
-1.00932
-0.20223
-0.54300
0.27128
0.23555
0.23320
-0.59496
-0.21386
0.24577
-0.43673
0.13756
-0.50504
-0.87593
-0.11816
-0.30824
0.38737
-0.09008
0.13648
-0.37586
-0.14288
-0.61181
-0.26711
0.12186
-0.91874
0.02162
-0.26784
-0.15293
-0.36865
-0.29165
-0.11564
-0.12922
-0.20151
-0.09410
-0.11585
0.28945
-0.08537
-0.60302
0.23098
0.16002
0.08515
0.13835
0.15975
0.19088
0.12874
0.02905
-0.45723
-0.12012
-0.68238
-0.03292
0.15992
-0.56753
-0.11576
-0.38157
0.15158
-0.02597
-0.38293
0.02660
0.17277
-0.08998
-0.15596
0.06422
-0.25638
0.23405
-0.40003
-0.15502
-0.49382
-0.26898
0.04942
0.17592
0.13976
-0.03515
-0.17644
0.18032
-0.79600
-0.13660
-0.34960
-0.37245
-0.14527
0.09962
-0.20888
0.19601
-0.27360
0.00327
-0.30861
0.13486
-0.18324
-0.52698
-0.41873
0.16420
0.17297
0.18614
0.19079
0.27937
-0.21229
0.01983
0.16796
-0.09548
0.30403
0.46667
-0.21519
-0.57535
0.00741
0.12941
-0.13616
0.33062
-0.00501
-0.28956
0.13386
-0.40048
-0.43183
-0.18218
0.52174
-0.39149
0.10492
-0.13582
0.11581
0.40894
-0.17001
-0.70268
-0.48828
0.20236
-0.08787
-0.41099
0.23417
0.12828
-0.73399
0.27735
-0.07903
-0.65032
-0.13886
-0.01017
0.25843
0.02735
-0.57817
-0.32570
0.30488
0.37828
-0.02321
0.16677
-0.28118
-0.23578
-0.08922
-0.42588
-0.00086
-0.01722
-0.40259
-0.22745
-0.25437
-0.24455
-0.27077
0.02604
0.39189
-0.03491
-0.30401
-0.67199
0.14484
-0.06400
-0.14348
-0.14460
-0.83701
-0.73904
-0.19137
0.54328
-0.05819
-1.17206
0.46669
0.46295
-0.22926
0.12896
-0.23670
0.07407
-0.03122
-1.38870
-1.29595
-0.13201
-0.65129
0.41672
0.14577
-0.42066
-0.17430
-0.33507
0.15959
0.33015
0.18134
-0.07696
0.27512
-0.44761
0.14853
0.18828
-0.30463
-0.20520
-0.04211
-0.16661
-1.48881
0.15312
-0.06652
0.20360
0.18041
0.09527
-0.43363
-0.33040
-1.45092
-0.12100
-0.30442
-0.22452
-0.13605
0.19689
-1.42423
0.47043
0.27147
0.06111
0.14887
0.14718
-0.16420
0.02294
-0.28300
0.13667
0.13058
0.10415
0.06627
0.00926
0.00467
-0.03274
-0.07673
-0.03490
0.00539
-0.02505
-0.05879
-0.00918
0.04704
0.02634
-0.04069
0.02901
0.07159
0.00497
-0.05526
-0.07798
0.01809
0.06106
-0.04279
-0.05812
0.00921
0.04286
0.02582
-0.07816
-0.04901
0.04154
0.04868
-0.04415
-0.00756
0.02867
-0.06570
0.02484
-0.02744
0.06222
0.08133
0.00016
0.01720
-0.06982
0.00625
0.08081
-0.01067
0.02170
-0.06600
0.06683
0.03205
-0.06521
-0.02396
-0.02388
-0.07570
-0.06883
-0.02272
-0.01085
-0.01538
-0.05706
-0.04487
0.02920
-0.04903
0.01803
0.01610
-0.06240
-0.00501
-0.05636
0.04283
0.04882
-0.01027
-0.04726
0.03549
-0.03498
0.02445
-0.06067
0.01939
0.06247
0.06712
0.05220
-0.06829
-0.00332
0.04128
-0.07417
0.04711
0.00513
0.01721
-0.06833
0.06261
-0.03553
0.03799
-0.06123
0.04983
0.02074
0.04112
0.00075
0.07590
-0.06108
0.04645
0.05210
-0.00615
-0.00636
-0.05860
-0.05403
0.04441
-0.00397
-0.05687
0.01256
0.00300
0.03375
0.06990
-0.00149
-0.01132
-0.02382
0.00858
0.06380
-0.04069
0.02421
0.07066
-0.01602
-0.00641
0.07431
0.04132
-0.02588
-0.03884
-0.00889
0.03928
0.01798
-0.00189
0.03879
0.01065
0.03075
0.04336
0.01956
-0.05086
0.07536
0.06232
0.00488
0.03339
-0.02084
-0.06446
-0.02229
-0.02908
-0.05104
-0.05430
0.00175
0.04341
-0.04020
-0.05519
0.06883
-0.00398
0.04312
0.01558
-0.04575
0.06870
0.02354
0.05959
0.01581
0.02401
0.06015
-0.04426
-0.05364
0.03484
0.02398
0.05278
-0.05016
-0.05101
0.01552
0.01456
0.07066
0.02609
0.02115
0.03261
0.00640
-0.00492
0.05269
0.01018
-0.00048
0.02832
0.03415
-0.04733
0.07185
0.02037
-0.00479
0.05588
-0.04039
0.00737
0.04996
0.04601
-0.04717
0.05435
-0.01789
0.06501
-0.06449
-0.05716
0.04453
0.07685
-0.00810
0.00237
-0.01577
0.00911
-0.06838
0.03947
-0.01142
0.07355
-0.02082
-0.03816
0.05402
-0.00963
0.08160
0.07274
0.07632
-0.06278
-0.04855
0.02909
0.02780
0.03041
-0.05001
-0.06457
-0.07864
-0.05748
0.03820
0.04355
-0.01304
0.00351
0.05723
0.07393
-0.04618
0.02255
0.02952
0.03534
0.02690
-0.07785
0.05906
-0.06202
0.03067
-0.06344
-0.01791
-0.07208
-0.04146
-0.04884
-0.03129
-0.04498
0.03689
0.03525
0.08107
0.00693
-0.07901
0.02776
-0.03254
-0.08020
0.03467
0.04305
-0.06212
-0.06945
-0.03391
0.07248
0.02254
0.07984
0.05829
-0.05875
-0.01013
0.07979
0.03916
-0.01918
0.06712
0.04509
-0.04791
0.03012
-0.03479
0.03286
-0.03554
0.01382
-0.06650
0.02025
0.03211
-0.00306
0.07413
0.05041
0.05319
0.06178
0.00606
-0.04354
0.07767
-0.02116
-0.03401
0.05444
-0.06250
-0.01887
0.00713
0.04088
0.03125
-0.04631
-0.04946
-0.05520
-0.04851
-0.00489
0.03302
0.03912
-0.00077
-0.01338
0.03279
-0.05151
-0.02392
-0.04970
-0.03078
0.07601
-0.07831
-0.03580
0.02723
0.01868
-0.08130
0.04889
-0.06725
0.04999
-0.01320
0.01660
0.01858
0.05730
-0.03589
-0.06087
0.07302
0.00709
-0.04840
-0.01904
-0.04098
0.03659
-0.04655
0.01674
-0.01399
-0.06757
0.00162
-0.06529
0.07885
0.00578
-0.00488
-0.07815
0.06338
-0.02912
0.07481
-0.04298
-0.01757
0.00243
0.07310
-0.04204
0.00014
-0.02719
-0.06143
-0.06495
0.03016
0.00179
-0.03007
-0.07126
-0.01470
0.08157
0.02217
0.03965
0.04300
0.07204
0.01513
-0.06496
-0.03169
-0.04661
-0.06200
-0.04532
-0.02750
0.05025
0.02119
-0.01236
0.08112
0.01763
0.05782
-0.01187
-0.00625
-0.02804
0.06931
0.03225
-0.04346
0.07122
-0.03552
-0.08039
0.01976
0.04749
0.03824
0.06656
0.05789
0.05974
-0.05645
-0.01348
0.05420
0.01334
-0.00824
-0.03153
0.04950
-0.04459
-0.06738
0.01561
0.04631
-0.02403
0.04736
0.06853
-0.03530
-0.03618
0.00280
-0.01315
-0.04386
0.01106
0.03046
0.00886
-0.04821
-0.02885
0.06953
0.05100
-0.07215
0.04633
0.03454
0.03783
0.00896
-0.00114
-0.05867
-0.00845
0.04541
0.01063
-0.04560
-0.00364
-0.07793
0.06784
0.05799
0.04766
0.04334
-0.03617
0.02507
0.01160
0.02877
-0.00709
0.06039
-0.07296
-0.07071
0.07429
0.00838
0.05768
-0.07636
-0.08175
-0.06417
-0.06385
-0.06543
-0.07676
0.06133
0.01475
-0.08057
-0.06380
-0.03506
0.04337
0.06595
-0.05773
0.00071
0.06600
-0.05162
0.03416
0.01994
-0.00883
0.07190
0.06395
-0.06720
0.08011
0.00229
-0.07511
-0.07204
-0.04467
0.01979
0.00709
0.01743
-0.00294
-0.03147
-0.01197
0.04174
0.04992
-0.06006
0.02838
0.04614
0.05946
0.04612
0.00986
0.05808
0.02159
0.00501
0.06452
-0.02009
0.03145
-0.05297
-0.03450
0.02740
-0.01931
-0.04413
-0.05314
0.07671
-0.00749
-0.00670
-0.03212
-0.07353
0.03917
-0.02903
-0.00362
0.06536
0.01373
0.00275
0.03664
-0.01569
0.03712
-0.00579
0.07234
0.00356
-0.04788
-0.07079
0.03624
-0.00724
0.02304
-0.05637
-0.01484
-0.04114
0.01750
0.02343
0.07615
0.05366
0.01927
-0.06971
-0.05599
0.07536
0.07873
0.07463
-0.03510
-0.01578
-0.06224
0.07374
0.06918
-0.06588
-0.03105
0.02401
-0.00941
0.03839
-0.02782
-0.01527
0.04577
0.01093
0.00727
-0.02129
-0.06957
0.01515
0.02435
-0.00952
0.03604
-0.07662
0.07607
0.07752
0.01400
-0.08073
0.06550
0.00480
-0.07596
0.04199
0.02773
0.08149
-0.06705
0.06429
-0.04001
-0.00166
-0.02575
-0.02357
0.01690
-0.05409
-0.00762
-0.03916
0.01849
-0.06558
-0.01891
0.01955
0.02779
-0.06928
-0.04185
-0.06583
0.01845
-0.04613
-0.05659
0.04948
0.04720
0.07445
-0.07827
-0.07662
0.06066
0.06726
-0.08081
-0.00201
0.07777
-0.06917
0.04785
-0.05721
0.02512
-0.02430
0.01954
-0.02575
-0.04388
0.06199
-0.06957
-0.01524
-0.05472
0.08065
0.04354
0.05968
-0.03217
0.05268
0.06700
-0.01006
0.07046
-0.06869
-0.07775
-0.02218
0.06249
-0.07455
-0.02531
-0.05843
-0.00547
0.00822
-0.05314
-0.05185
-0.00892
-0.04696
0.04358
-0.00605
0.03829
0.05497
0.06053
0.05618
-0.01408
-0.06059
-0.00029
0.02340
0.00710
-0.02536
0.06881
-0.04063
0.03681
0.05240
0.03267
-0.03948
-0.07523
-0.00671
-0.07198
0.00644
0.02891
-0.01251
-0.04369
0.03406
-0.04928
0.03346
0.05337
-0.04932
0.03260
-0.06255
0.06831
-0.06622
-0.03322
0.01372
0.03985
-0.01651
-0.00799
0.04485
0.07370
0.04689
0.01923
-0.06342
-0.05103
0.02564
-0.02398
0.02919
-0.05324
-0.04780
0.00904
-0.01018
0.07525
0.07653
0.07458
-0.00317
0.00614
0.03409
-0.08007
0.06478
-0.01644
-0.03955
-0.08113
0.08101
-0.02240
0.00826
-0.00382
0.00383
-0.04461
-0.05225
0.07838
0.06522
0.06374
0.02507
-0.06704
-0.02823
0.04237
-0.00073
-0.04899
-0.04018
0.07399
0.07629
-0.04657
0.04388
0.03324
-0.07995
-0.03606
0.01794
-0.07354
-0.03778
0.03840
0.04352
-0.03158
0.04073
-0.03557
-0.06168
-0.04936
-0.05729
-0.07421
-0.04296
0.04539
0.00035
0.01590
0.05701
0.00645
-0.06746
-0.06182
-0.06441
0.06124
-0.05312
0.07961
0.04960
-0.04068
0.04354
0.05409
0.01941
0.00776
0.05971
0.01283
0.01628
-0.07039
0.07821
0.03930
-0.03000
0.07627
-0.08062
-0.03381
-0.03914
-0.04955
0.00289
-0.07976
0.00453
0.07918
0.07290
0.00610
-0.00665
-0.07999
0.00110
-0.06334
-0.01885
0.01517
-0.06606
-0.01812
0.04387
-0.07581
0.01905
0.06111
-0.02557
0.04663
-0.04429
-0.03857
-0.04594
0.02954
-0.07456
0.00220
-0.05006
0.03031
-0.01013
-0.00369
0.03131
-0.07277
-0.08086
0.05368
-0.04166
0.04709
-0.01426
0.04858
0.01920
0.01020
-0.02994
0.06453
-0.01760
-0.06579
0.00873
0.03298
-0.06658
0.04470
-0.06598
-0.05453
0.00914
-0.03478
-0.06728
0.06968
-0.05220
-0.05428
-0.06908
0.06649
0.07546
0.07038
0.05636
-0.01244
0.02435
-0.02340
0.05506
0.03686
-0.01829
0.04682
-0.03099
0.03834
0.00681
-0.07752
0.05518
-0.07027
0.07961
0.02557
0.00646
0.06876
0.00669
0.02747
-0.07034
-0.01132
-0.00460
0.03449
-0.03124
-0.07037
-0.02597
0.05213
0.04219
0.00434
-0.07799
0.02149
0.03677
0.03101
0.06992
0.04447
-0.08090
-0.06648
0.05695
0.07282
-0.04757
-0.00787
-0.06124
0.06514
-0.03418
-0.03442
0.06415
-0.07522
-0.07710
0.01454
-0.04710
-0.04521
-0.02220
-0.04249
-0.03483
0.03374
-0.01334
0.04015
0.02118
0.02012
-0.08130
0.04876
0.06540
-0.03334
0.06344
0.00745
0.05420
-0.01572
0.02553
-0.04252
0.07777
0.07677
-0.00203
-0.04268
-0.04529
-0.05789
-0.04052
0.04521
-0.07138
-0.05598
-0.05649
0.01553
-0.05799
-0.05960
0.07332
0.04678
0.07169
0.02475
0.02041
0.04231
0.02597
0.07066
0.00524
-0.04467
0.00672
-0.04507
0.00848
-0.01328
-0.02028
0.01948
0.02346
0.06868
-0.05658
0.06953
-0.05120
0.05960
0.03199
-0.07487
-0.05563
-0.01385
0.01527
-0.03490
0.02699
-0.01416
0.03504
-0.01580
-0.07931
-0.04021
0.06019
0.06622
0.06238
-0.04711
0.01158
-0.05878
0.01865
-0.01813
0.04605
0.01120
0.03608
0.00442
0.07205
-0.06418
0.04172
-0.06993
-0.04996
0.05161
-0.03061
-0.01273
-0.04222
0.00559
0.05724
-0.05411
-0.04974
-0.07292
-0.00758
0.04354
-0.01049
-0.05655
0.00956
0.05650
0.05500
0.03787
0.03051
0.01332
0.05067
0.02376
-0.02536
0.03816
-0.00133
0.02062
-0.05880
-0.01872
0.03231
0.07366
0.01704
-0.06965
-0.00677
0.03815
-0.04318
0.01433
-0.00387
-0.00951
0.01790
-0.00005
-0.06423
-0.03249
-0.04877
-0.04356
0.05052
0.00768
0.04435
-0.04861
-0.02228
-0.01219
-0.05684
0.07433
0.06186
0.05007
0.06909
-0.06703
0.02030
0.04914
-0.05661
-0.06911
0.04441
0.01365
0.05109
-0.07896
0.05309
0.07604
0.01808
0.01978
0.04771
-0.06513
-0.08177
-0.04753
-0.06807
0.01237
0.06757
0.03247
0.07769
-0.04992
-0.03036
0.38416
0.97314
0.15060
-0.06716
-1.11711
-0.06957
-0.14557
-0.54780
1.29031
0.48302
0.23457
-0.40104
-1.05876
0.53458
0.38175
0.75005
-0.28386
-0.48399
0.89152
-0.70023
-0.14553
0.38008
0.55907
-0.86499
0.32219
0.53220
-0.24848
-0.14592
0.70895
0.68054
0.39292
-0.18103
0.38346
-0.63522
-0.04523
-0.11403
-0.51790
0.65892
-0.30736
-0.28693
0.70709
-0.40240
-0.89753
-1.14108
0.98139
-0.10406
-0.40965
0.19282
-0.55541
0.24007
-0.38003
0.29735
0.19902
0.40898
0.76405
-0.34770
-0.01884
-0.19303
-0.70114
0.38414
0.36241
0.45659
-0.16241
1.17307
-0.75609
-0.15770
-0.99723
-0.59919
1.11467
-0.24038
-0.49294
0.90023
-0.17932
-0.02850
-0.22327
0.73844
0.69600
0.14263
1.02315
0.34289
0.08535
0.01758
0.45276
-0.94366
0.01129
1.75871
-0.75685
-0.07451
-0.12179
0.05174
0.36539
-0.32596
0.08695
-0.03186
-0.00598
-0.03191
0.44879
1.69908
-0.73282
0.74152
-0.11021
-0.68702
-0.28234
-0.16828
1.15037
0.62850
-0.28056
-0.45461
-0.04911
-0.74185
-0.29494
-0.23797
-0.51265
1.32489
-0.47081
1.27332
-0.23034
1.42560
0.15860
-0.36265
-0.24120
0.25645
-0.54751
-0.10343
-0.18505
0.23778
0.46416
0.23083
1.06826
0.40547
-0.04614
-0.12334
0.21392
-0.27762
-0.14880
-0.22049
0.16683
0.19388
0.33600
0.41312
-0.39011
-0.17861
-0.87726
-0.04661
-0.21634
0.31655
0.10954
-0.41235
0.85460
-0.24963
0.55263
-0.24983
0.52963
-0.74501
-0.44253
-0.30185
-0.35392
0.58492
0.10025
-0.58708
-0.16122
-0.33146
-0.00925
0.57023
0.14893
0.19267
-0.39975
0.36818
-0.05830
-0.00060
-0.75630
-0.47830
0.40136
-0.03333
0.15555
0.49560
0.58100
-0.26259
-0.44668
-0.81978
-0.61360
-0.37905
1.56267
-0.71729
-0.22596
-0.95536
-0.06396
-0.30184
-1.13355
-0.70386
-0.10775
-0.13425
-0.64358
-0.57191
0.07554
-0.49496
-0.62880
0.11546
-0.10627
-0.25347
-0.09560
-0.00020
0.48418
0.89375
-0.22125
0.42650
0.05078
0.34028
1.30632
0.27268
-0.33367
-0.33886
-0.82577
1.17557
0.73530
-0.26887
-0.26212
-1.18657
0.65901
0.41159
1.15290
1.07707
0.93344
0.38799
0.46249
-0.22387
-0.09186
-0.56543
0.78726
-0.37439
0.47418
0.04500
0.91756
0.34374
0.48661
0.06471
-0.22700
1.19231
-0.46439
-0.49623
0.45424
0.35978
-0.14304
-0.22429
-0.44655
-0.51866
-0.12032
0.61680
1.26340
0.60104
-0.42141
0.18105
0.19060
0.54820
0.57226
0.55583
-0.49253
0.98770
-0.02165
0.46199
0.44078
-0.65944
-0.53980
0.18829
0.63161
-0.15019
-0.14488
0.55676
0.22233
0.33157
-0.79411
-0.73725
0.09473
-0.33086
-0.30276
-0.54552
0.15532
0.32068
1.37014
-0.58347
0.27750
0.65426
-0.48794
0.53501
0.14952
0.94086
0.08896
-0.59111
-0.40683
-0.55939
0.04961
0.09761
0.98672
0.45857
-0.43325
-0.09399
0.39203
-0.12652
-0.60514
0.14769
0.05412
-0.17675
0.39114
0.31108
-0.31448
-0.02853
-0.37397
-0.57719
0.25086
0.61513
1.30668
-0.86561
-0.52952
-0.28169
-0.22591
-0.58123
-0.49808
-0.55056
0.19438
0.02434
-0.00049
-0.31334
-0.38024
-0.71361
-0.56250
-0.65297
-0.71071
0.16576
-1.45320
-0.38348
0.77769
-0.28615
0.40171
0.39566
0.86888
0.44241
-0.09298
-0.05236
0.50578
-0.33522
0.01821
-0.36992
0.43464
-0.38608
-0.48476
-0.14367
0.57353
-0.13130
-0.48769
0.27469
0.20563
0.08207
-0.17330
0.02187
-1.09263
0.30246
0.21739
-0.67208
0.42248
-0.30302
1.04058
0.53739
0.33562
0.40238
-0.21350
0.28996
0.93480
-0.26321
-0.37412
-0.00498
-1.15249
-0.09734
-0.28184
0.47443
-0.14112
1.38775
1.01254
0.53766
-0.55765
0.13462
0.62252
0.55961
0.31856
0.47437
-0.30592
0.71221
0.11766
-0.95163
-0.86516
-0.25745
0.07980
0.33140
0.62471
1.05241
-0.11322
0.29766
-0.22589
0.19692
-0.75328
-0.13053
-0.33634
-0.27360
0.41013
-0.30070
0.66674
-0.97833
0.42641
-0.55399
0.52161
-0.47877
-0.49308
0.28523
0.32827
0.26760
-0.31491
-0.22934
0.66576
0.85248
0.03988
0.27741
0.27951
-0.39972
-0.44583
0.26414
0.72313
0.03835
-0.21117
0.64152
0.35396
-0.20114
-0.56553
0.40826
-0.47459
-0.36171
-0.38509
-0.46750
1.28066
-0.09612
0.22310
-0.74084
-0.20513
-0.59718
0.15660
-0.46434
-0.57744
-0.60989
1.18090
0.35751
-0.85708
0.65315
0.08539
-0.37510
-0.65472
1.05064
0.31135
-0.50566
0.15887
0.29151
0.47544
0.46871
-0.64201
0.48737
0.04349
0.53798
-0.23097
0.32847
0.97949
-0.52848
0.41063
1.66204
0.76785
0.53355
-0.37008
-0.69308
0.54631
0.01455
0.12423
0.49565
-0.16751
-0.19970
-0.00620
0.70819
-0.48076
0.10208
0.13685
-0.55374
-0.74287
-0.08790
0.28700
0.40679
-0.44347
-0.48651
-0.41625
-0.24998
-0.16577
-0.48561
-0.91559
0.40097
-0.32846
-0.24699
0.39387
0.29741
0.41039
0.69136
0.48858
0.52229
0.04561
-1.04625
0.28508
0.43823
0.48138
0.48748
0.32311
-0.20016
-0.50041
-0.07977
0.16013
-0.17368
0.22124
0.79222
0.23491
0.01754
-0.08473
1.54892
-0.68577
-0.26949
-0.24523
-0.35867
-0.00369
-0.45252
-1.02252
-0.27169
0.22343
-0.27503
-0.74110
-0.38925
0.47910
0.41047
-0.37116
-0.63297
0.00262
0.10024
-0.02116
-0.19203
0.05443
0.95368
-0.34699
0.93160
0.33778
0.47000
-0.52098
0.77159
0.63618
0.84897
-0.75936
0.35144
0.65663
-0.47348
1.06446
0.49105
-0.55841
0.02635
-0.41828
0.36160
0.10419
0.02632
0.68491
-0.24504
-0.60195
-0.47261
-0.45586
-0.90167
-0.27085
-0.48048
0.66305
-0.59826
-0.32375
0.70833
-0.28970
-0.40493
-0.28278
0.52445
-0.22511
0.74907
-0.23734
0.17886
-0.07529
0.51576
0.10095
0.52879
0.61232
0.49249
-0.26179
0.96571
0.73732
-0.32900
0.17950
0.27159
0.56938
-0.56121
-0.31888
-0.28637
0.54735
0.74869
-0.54086
-0.50355
0.83916
0.39187
-0.88061
0.83774
0.35393
-0.69105
0.70410
-0.33995
0.56748
-0.55573
0.72046
0.47133
0.35807
-0.46952
-0.42242
0.34088
0.13044
-0.37718
-0.59099
-0.34752
-0.83623
1.27352
-0.06550
-0.03459
0.26996
0.31500
1.11983
0.38451
-0.22047
-0.46114
0.20469
0.54836
0.39903
0.19643
0.36518
-0.09341
-0.31854
0.67893
-0.27195
-0.14326
0.98711
0.10504
-0.32131
0.89032
-0.75938
-0.18606
-0.28331
-0.88390
-0.65477
-0.13744
-0.70739
-1.15153
-0.47647
-0.45542
0.46294
-0.27613
1.15863
-0.32285
0.44508
0.27240
-0.33022
-0.47099
-0.06117
0.68619
0.49307
-0.80632
0.79831
0.89115
-0.16154
0.18436
0.18894
0.34660
-0.41581
-0.07116
-0.08394
1.08430
0.81939
-0.30965
-0.09416
-0.49932
1.00534
0.48872
0.16072
0.65761
-0.45088
0.32583
-0.60291
-0.53508
-0.23426
-0.81984
-0.40580
-0.74242
-0.01773
-1.01825
-0.52891
-0.11081
-0.51720
-0.00172
-0.64514
-0.21653
0.12766
-0.35691
-0.13882
-0.33146
0.08629
0.07887
-0.52213
1.02676
0.95108
0.11994
-0.31370
0.40852
-0.90810
0.28205
-0.66017
0.88163
1.60736
-0.48567
1.43417
-0.37766
0.53499
0.11977
-0.42336
-0.86422
0.19171
-0.01768
0.56941
0.10612
0.46501
-1.01525
0.23275
-0.23370
-1.01937
-0.53670
-0.21334
-0.26264
-0.06994
-0.47306
-0.02352
0.66183
0.29317
0.98375
-0.50495
0.85713
0.64659
-0.31393
0.52721
-0.08721
0.38295
0.63419
0.18851
0.39975
-0.64988
0.47626
-0.03948
0.32216
-0.57069
-0.61571
-0.53105
0.57725
0.38906
0.39569
0.56789
0.06354
-0.32102
0.01744
-0.62451
-0.99309
-0.64880
-0.55528
-0.37049
0.00262
-0.22706
-0.26143
0.21460
-0.15328
-0.07850
-0.44741
-0.08479
-0.59761
-0.36448
-0.62907
0.20792
-0.11428
0.05872
-0.66762
-0.25295
-0.43591
-0.50619
0.02116
0.33525
0.86540
-0.38507
0.46816
-0.25494
-0.16206
-0.69711
0.66177
-0.34994
-0.50795
-0.76898
-0.31825
-0.26828
-0.03387
0.06822
-0.30696
0.14587
-0.61169
-0.04441
0.37608
-0.50816
-0.08763
-0.50258
0.31513
-0.49804
0.64046
-0.28466
-0.37947
-0.37553
-0.53872
-0.32511
-0.18076
-0.36145
0.45576
-0.24554
-0.02909
-0.97678
-0.34233
-0.63011
-1.28578
-0.51452
0.53045
-0.37069
-0.59229
-0.18551
1.29943
0.83728
-0.00818
-0.38093
-0.59155
-0.08260
-0.01933
-0.49163
-0.47467
0.66722
-0.45408
-0.42699
-0.48718
-0.38577
-0.28898
-0.50847
0.07785
-0.02683
-0.46667
-0.49708
-0.00206
-0.47430
-0.09405
-0.52814
-0.12293
-0.18197
-0.60046
-0.03523
-0.52309
-0.81088
-0.86059
0.16285
-0.11307
-0.10513
-0.08336
-0.84558
-0.23686
0.35837
-0.57829
-0.94046
0.18369
-0.11894
0.52221
-0.40505
-0.34046
-0.32984
-0.89471
0.93898
-0.47547
-0.70786
-0.16023
-0.08899
-0.56513
0.25301
-0.38187
0.08524
-0.16831
-0.01578
-0.57606
-0.48624
-0.35003
-0.23719
-0.43269
-0.00256
0.20137
-0.21052
-0.13012
0.65407
0.93002
0.28490
-0.05507
0.96174
-0.14165
0.71322
-0.64676
1.03725
0.86378
0.44935
-0.20934
0.13452
0.05882
-0.45471
1.19536
0.00435
0.32250
-0.39792
-0.31788
0.46207
1.18779
0.25716
0.81040
0.87786
-0.14913
-0.22004
-0.46192
0.02889
1.47192
0.41963
0.31592
0.64620
-0.06381
0.32428
0.38694
-0.28699
-0.02259
-0.45179
0.73303
0.78652
-0.11945
0.09504
0.07735
-0.19451
0.48293
-0.34289
0.24843
0.40566
-0.28675
0.04363
0.42298
0.70756
0.84139
0.20908
-0.40357
0.44599
1.81624
0.45243
0.18833
-0.41526
0.45942
0.17107
0.32987
-0.36091
0.38451
0.50879
0.30397
1.02492
2.49217
0.52619
-0.56404
0.52707
0.25859
-0.43062
0.79234
-0.77976
0.26527
0.26401
0.59141
0.14423
0.84826
-0.09243
-0.38472
-0.28905
-0.03759
-0.89242
0.21338
0.12283
-0.46449
-0.63931
0.58403
0.96361
0.64435
-0.25024
-0.51746
-0.13490
0.50483
0.00232
-0.40184
0.54362
-0.08467
0.45446
-0.28873
0.12474
0.62063
0.95464
0.32256
0.69360
0.32951
-0.30574
0.04052
0.06304
0.27897
-0.09072
0.17042
0.82750
0.60673
-0.15493
-0.96858
0.35694
-0.37002
-0.32627
0.27680
0.55092
-0.84208
0.04531
0.12326
0.61496
0.26535
-0.19500
-0.35864
0.26742
-0.34887
-0.49119
-0.33905
-0.31336
-0.18823
0.51908
-0.38137
0.39125
-0.30122
-0.36572
0.27310
-0.46171
0.83995
-0.55841
-0.38634
1.16844
-0.09218
-0.21217
0.63810
0.74212
0.58579
-0.25403
-0.06309
0.32544
0.13002
0.24642
-0.10260
0.32701
0.16190
1.12158
0.34436
-0.35243
0.09723
-0.54040
0.08279
0.86880
-0.84345
-0.04661
-0.62540
-0.28929
-0.54854
0.00117
-0.67688
-0.41521
-0.39245
-0.31210
0.64861
0.27513
-0.62972
-0.11676
-0.58692
0.66703
0.34841
-0.72085
0.52873
0.14444
-0.53865
0.82667
-0.44687
-0.03159
0.33747
0.08663
0.24338
-0.40892
0.09216
0.34478
-0.51813
-0.88289
0.58572
0.05686
0.34456
-0.58232
-0.01386
0.49806
0.43186
-0.67549
1.05382
0.35450
0.03739
-0.01202
0.67845
-0.72361
-0.86552
-0.45651
-0.42599
0.45378
-0.07340
0.06372
0.48645
0.21084
0.75108
-0.36438
-0.35846
0.52755
-0.47230
-0.08804
0.83876
-0.37572
0.35422
-0.01336
0.17957
-0.45436
0.96098
1.18980
0.45352
-0.52030
-0.10494
-0.42163
0.42274
0.41684
-0.14679
-0.20021
0.19868
0.34387
0.47202
-0.79965
-0.53608
-0.23746
-0.76255
-0.09226
0.14440
-0.45900
-0.27533
-0.13047
-0.00544
0.80510
-0.20856
-0.30618
-0.93837
-0.65280
-0.32019
0.70333
-0.82892
-0.05157
-0.45004
0.36935
0.13680
-0.60752
0.14719
-0.08239
0.60483
-1.12900
-0.64285
0.36159
-0.16958
0.76786
-0.47694
-0.63957
0.67781
-0.40393
-0.46361
0.44951
0.72654
-0.34932
0.48297
0.59049
0.55592
1.26905
0.41803
0.30182
0.14075
-0.39791
-0.70442
1.01444
-0.69556
0.83858
-0.59050
-0.28503
-0.09006
-0.36597
-0.19387
-0.71994
0.00289
-0.89653
-0.87243
-0.04378
0.08855
-0.77689
-0.37569
0.13324
0.01362
0.12252
-0.56201
-0.17826
-0.01378
-0.04820
-1.04855
-1.00622
0.51718
-1.53218
0.49150
0.54664
0.11479
-0.28528
-0.64033
-0.17479
-0.46941
0.51369
0.08238
-0.42561
-0.97860
0.51354
0.40136
-0.74276
1.40149
0.69331
0.04652
0.43987
0.26115
-0.68011
-0.76344
1.42497
-0.45003
-0.42965
-0.65269
0.31786
0.43333
0.58024
-0.73870
-0.85935
0.73618
-0.62635
-0.40834
-1.39105
1.33267
-0.54520
1.36295
-0.77194
0.72504
0.22253
-0.78814
0.62597
0.40074
-0.38290
-0.33751
-0.47609
0.52282
-0.06223
0.39872
0.68758
0.88617
0.30371
0.02965
-0.51901
-0.47380
0.26216
-0.34263
0.90080
-0.75540
0.31928
-0.54379
0.49151
0.07932
0.70407
0.02559
-0.53188
0.50000
-0.16208
-0.36324
-0.07201
-0.34626
0.60764
-0.42220
0.54150
-0.06284
-0.57464
-0.37952
-0.73713
0.51500
-0.44582
-0.38270
-0.19857
0.42859
0.09345
0.65878
0.30989
-0.72413
-0.47538
-0.53176
0.75408
0.92234
-0.57847
0.30994
-0.14750
0.04461
-0.09886
0.41640
0.02958
0.46624
-0.38713
0.63845
1.24710
0.30343
0.84654
-0.01203
-0.22687
-0.45383
-0.55056
-0.54628
-0.67124
-0.96905
0.42094
0.61898
0.08642
1.09588
-0.68143
-0.47582
-0.20430
0.62463
-0.55215
0.40117
-0.45999
-1.38945
-0.67498
-1.00284
0.53813
0.36855
0.94284
0.48211
1.39195
0.08568
-0.82902
-0.44450
-1.21921
0.43728
0.04374
-0.40079
-0.40299
-0.38121
0.67665
-0.08439
-0.10825
-0.41350
0.59068
-0.63547
-0.34600
0.89610
-0.37146
0.27189
0.13220
-0.40578
0.06545
-0.74825
-0.53370
0.44957
0.49808
-0.28173
-0.13970
0.43584
-0.02244
-0.40799
-0.10363
-0.69750
-0.88371
-0.18980
-0.66082
0.46899
-0.19790
-0.24872
1.07381
0.60457
-0.71508
0.22391
-0.23677
0.38067
0.58093
0.60608
0.64198
0.46000
-0.87517
-0.74865
-0.42706
-0.37341
0.17204
-1.45328
0.36576
0.46134
-0.16705
-0.51561
-0.30251
0.34831
-0.63781
-0.55381
0.07020
-0.75334
0.33316
-0.29409
0.37119
0.80241
0.68881
-0.47870
0.39275
0.43240
-0.46685
0.23145
-0.56856
0.28322
-0.14224
-0.45114
-0.23932
0.22310
0.44314
0.60884
0.04900
-0.34027
-0.45248
0.64458
0.22688
0.45085
-0.45398
-0.40609
0.04363
0.76873
0.10387
0.31924
0.18250
-0.30220
-0.37245
-0.50702
0.21702
0.34802
0.57745
-0.31549
-0.46279
-0.04929
-0.10000
-0.82329
0.18115
1.02277
-0.57516
-0.84740
-1.29164
1.10171
-0.77662
-0.47841
0.29875
-0.23157
0.07416
-0.74839
-0.03921
-0.08628
0.37652
0.49814
-0.76728
0.50335
0.80035
0.39279
0.06212
0.55153
-0.33600
-0.36181
0.54373
0.29362
0.61814
-0.02259
-0.48951
0.02034
0.59461
-0.43993
0.65031
-0.69802
0.56073
0.09114
0.38145
0.14198
-0.31723
-0.51119
-0.00094
-0.51560
-0.28262
-1.01142
0.34558
0.51629
0.43976
-0.20738
-0.12115
0.37632
-0.69331
-0.43105
-0.77014
-0.19960
0.19694
0.10874
-0.02812
0.65311
-0.69125
0.94865
0.55380
0.39308
-0.02788
-0.88410
-0.38220
0.43232
0.38335
0.48226
-0.30541
0.59394
-0.12757
-0.28222
-0.60563
-0.28593
0.11251
-0.43777
0.30230
0.28351
-0.19862
-0.62600
0.20980
0.36623
-0.57429
-0.21096
-0.71293
-1.78100
0.68072
-0.35942
0.63138
-0.62329
0.40489
-0.68160
0.49131
-0.10840
-0.50280
0.27499
0.25495
0.52569
-0.13261
-0.44901
-0.27123
0.24699
0.41712
0.63841
0.19236
0.10065
-0.41505
-0.66962
0.48595
0.30666
-1.09465
0.09434
-1.04721
0.67442
0.74707
0.45702
-0.56627
0.81979
-0.56523
0.58617
1.55008
0.36659
-0.73964
-0.18969
-0.53008
-1.16136
-0.36917
-0.03934
-0.18211
-0.36600
0.87818
0.59918
0.25341
-0.51030
-0.08443
-0.41738
0.10360
0.06296
-0.68129
0.36575
-1.13593
0.44151
0.81390
0.99732
-0.19801
0.48349
0.74538
0.45671
0.91503
0.79435
0.19537
-0.47728
0.29295
0.44264
0.28171
-0.38947
-0.43081
0.12015
0.40528
0.24830
0.50058
-0.49323
0.06537
-0.38750
-0.15404
-0.48194
-0.26155
-0.03281
-0.30338
-0.43996
-0.18356
-0.47545
0.92173
0.57273
0.35561
1.23305
-0.74677
-0.31282
0.03689
-0.43249
-1.56551
0.41886
-0.22516
0.01761
-0.51956
0.21705
0.51183
-0.66321
0.84585
0.38592
-0.59681
-0.20971
0.36457
0.44628
0.52527
0.28032
-0.12408
0.49349
0.20841
-0.32788
-0.01513
-0.75177
-0.55195
-0.27630
-0.71485
0.20489
0.32546
0.28460
0.52731
-1.30235
0.31303
-0.59700
-0.60091
-1.04071
-0.42578
-0.69862
0.94535
0.01078
1.25276
-0.31317
0.50309
0.24647
-0.56822
-0.31512
-0.13757
0.15001
-1.19700
-1.00459
-0.37624
0.02471
-0.51339
0.84297
0.27380
0.75591
-0.44418
-0.50958
0.57188
0.42196
-0.22497
0.43087
0.30175
0.37874
0.24392
0.55586
-0.97440
0.13648
-0.45815
-0.52987
0.35620
-0.27612
0.27969
0.17277
-0.25416
-0.62705
-1.05348
-0.04466
-0.94603
-0.21967
-0.01678
-0.96390
-0.60331
0.46949
-0.08979
-0.44807
-0.41650
-0.04431
-0.37586
0.40023
-0.95678
-0.17968
0.33877
-0.27933
0.24831
0.36660
0.23922
0.39399
0.69500
0.42595
-0.39337
-0.72546
-0.56946
-0.63462
0.45405
0.16249
-0.49839
-0.33117
0.53414
0.78170
-0.76056
0.17446
0.36939
-0.35740
0.18891
0.07491
-0.27777
0.15958
0.65012
-0.51265
0.36493
0.67709
0.51673
0.46846
0.62755
0.80414
-0.58607
0.23152
-0.99563
-0.52943
-0.92207
0.58664
0.49843
0.82446
-0.53600
0.26669
0.00024
0.65746
0.63479
0.51692
-0.09546
-0.11853
0.61646
0.47939
0.43219
0.41754
0.24201
0.74943
0.81947
0.22545
-0.44519
-0.67548
0.41708
0.12723
-0.53747
0.11824
-0.01440
0.66302
0.81868
-0.44196
-0.94261
-0.71747
-0.02946
0.09145
0.73084
-1.10160
0.36692
0.58407
1.09063
-0.34433
0.28208
0.03692
-0.66008
-0.70091
0.28951
-0.11962
-0.04392
-0.64099
-0.24078
0.35431
0.23542
-0.65045
-0.33769
-0.58841
-0.40454
0.67012
0.38186
0.28457
-1.08417
-0.48634
-0.21972
0.40376
1.35230
0.44747
-0.23634
0.62468
-0.61893
-0.20910
1.05564
-0.34458
1.20994
-0.27980
-0.50010
-0.15037
-0.46275
-0.39395
-0.16883
0.21818
0.22437
0.21119
-0.28248
0.27535
-0.41280
-0.35644
-0.79683
0.49125
0.47916
-0.01519
-0.59441
0.46294
0.14969
0.76944
0.15448
0.28026
0.99765
0.31461
0.63268
0.50144
-0.27680
-0.36452
0.11284
0.13141
0.42795
-0.08346
-0.35867
0.01070
0.40157
0.97473
0.45160
-0.18089
0.74255
0.21489
0.15472
0.23686
0.17053
-0.24464
0.41026
-0.44637
-0.74768
-0.11663
-0.20896
0.39226
0.30935
0.94197
-0.13833
0.65519
-0.26015
-0.59808
0.42132
-0.01690
-0.34847
-0.20787
0.25272
-0.12330
-0.00515
0.52216
1.02514
0.34844
-0.24319
0.11786
0.13790
0.44200
0.25244
0.28233
0.20335
0.49342
0.53535
0.55783
-0.72701
-0.47886
0.28139
-0.35520
-0.05662
-0.16417
0.20697
-0.38616
0.35189
0.23916
-0.86342
0.14768
-0.18839
-0.51356
-0.29309
-0.24862
0.38971
-0.25111
0.73756
-0.73294
0.36774
0.55752
-0.44381
0.76186
0.64761
0.10247
0.01439
-0.93465
-0.98117
0.72958
0.37781
0.46702
0.59697
0.17652
-0.49979
0.44261
-0.07118
-0.01537
-0.48522
0.23977
-0.52857
-0.45064
0.65214
0.41650
-0.94121
-0.57008
-0.67796
-0.58221
0.26967
0.69017
-0.40132
-0.18561
-0.23831
-0.87533
-0.92614
0.03759
0.27659
0.47632
-0.86506
-0.16626
-0.31875
0.19524
-0.84029
-0.44095
0.45655
-0.74540
-0.46370
-0.28238
-0.90514
0.60769
0.42322
0.71169
-0.14980
0.27164
0.21505
0.35251
-0.27126
0.69763
0.14155
-0.78456
0.66792
-0.39833
0.63553
0.79977
-0.27235
0.23017
0.33747
-0.58503
-0.37586
0.69571
-0.31192
-0.19148
-0.16013
0.70720
0.28143
0.13176
-0.76445
-0.29518
0.36278
0.41913
0.71225
0.42750
0.32820
0.82386
-1.20854
1.03957
-0.09359
-0.44358
0.17863
0.89473
-0.32556
0.43834
-0.32927
0.41430
-0.41004
-0.65155
0.44028
0.38497
-1.15594
-0.29647
-1.04007
0.31992
0.27388
0.22768
0.37099
0.94003
0.24994
0.15629
-1.07266
-0.24811
-0.41189
-1.01924
-0.27183
0.28018
0.77696
0.57266
0.59150
-0.49343
0.62877
-1.16072
-0.01799
-0.60816
-1.10822
-0.64610
0.16010
0.80724
-0.05810
-0.26187
0.49585
0.10321
-0.44039
1.16200
0.79394
0.20008
0.27594
-0.27611
-0.04825
0.78280
-0.26529
-0.48525
1.22706
-0.63916
-0.41933
1.02732
0.30819
1.16691
0.36989
-0.25124
0.35717
0.04645
0.81399
0.50253
-0.55764
0.42783
-0.24724
0.61806
0.76685
-0.07523
0.26982
0.00401
-0.82354
-0.10323
-0.59099
0.28371
-0.77738
1.03850
-0.59262
0.09527
0.13323
-0.69680
-0.40066
-0.36670
0.20852
0.37104
0.41610
-0.37355
0.03964
0.13834
0.61460
-0.35263
0.74884
0.28142
0.73696
0.35570
0.36521
-0.24285
0.62274
-0.31184
-0.10484
0.44724
0.62918
-0.73581
-0.24940
-0.11744
0.46085
-0.10660
-0.32710
0.42177
0.62549
-0.27699
-0.13823
0.51514
-0.24258
-0.10902
0.52270
-0.44546
-0.49895
-0.03955
0.85775
0.43295
0.36964
0.55589
-0.86252
0.94564
-0.14346
-0.30907
-0.64316
-0.10403
-0.01370
0.82942
-0.93470
0.38513
0.42693
0.89426
0.23468
0.51902
-0.07892
-0.38317
-0.15245
0.52604
0.53370
0.46427
-0.56278
0.65196
-1.01691
-0.06275
-0.66849
-0.41005
-0.78521
-1.11363
-0.06884
-0.15567
-0.15182
0.05349
0.76273
0.15151
-0.09194
-0.45966
-0.15922
0.05252
0.66885
-0.38373
1.21666
0.25884
0.98224
-0.65253
0.46763
-0.30517
-0.42724
0.08825
0.42103
0.88540
0.32827
-0.23396
-0.50464
0.12146
-0.67746
0.41365
0.41975
-0.44176
-0.32947
0.79607
0.41045
0.07133
0.58354
0.01442
-0.42176
0.13122
0.19453
0.50316
0.49735
-0.63078
-0.46152
-0.09671
0.53069
-0.24640
1.00672
-0.31467
-0.37724
-0.50624
-0.34782
-0.30636
-1.25038
-1.01990
-0.36819
0.51641
0.42951
-0.65892
-0.68990
-0.42642
-0.17882
-0.21870
0.20816
0.54096
-0.49830
-0.86196
-0.64389
0.11352
0.31714
0.44425
0.93782
0.54511
0.16589
0.96687
0.04304
-0.47517
0.43156
0.83408
0.49595
-0.01611
-0.35569
-0.14605
0.58798
0.56312
0.56505
-0.35987
-0.93646
0.03964
-0.75285
0.91100
0.15283
0.07028
0.25917
-0.42023
0.24923
-1.00154
0.38067
0.55727
0.57062
-0.50191
-0.20483
0.51406
0.16828
-0.36533
-0.63971
-0.29309
-0.09507
0.19094
-0.00291
0.24562
-1.22751
0.47973
0.92142
0.48997
-0.30715
-0.31598
0.05333
0.44233
0.41285
0.46126
0.32675
0.33602
0.47206
-0.13447
-1.05043
-0.16399
-0.19527
0.10481
0.59589
-0.26451
-0.71014
0.11804
-0.82257
-0.34780
-0.78349
-0.31802
-0.05895
-0.77129
-0.26037
-0.53029
-0.07626
0.41504
0.60278
-0.57339
0.52467
-0.79832
-0.45582
0.20824
-0.23105
0.71533
-0.42350
-0.26064
0.49758
0.24356
0.70736
0.30574
-0.12193
0.42777
-0.34571
-0.06776
0.36537
0.50394
0.44619
-0.57875
0.26798
0.28831
-0.08806
0.58005
-0.56312
-0.45774
-0.48540
0.56287
0.33300
-0.08931
-0.24270
-0.26509
-0.26942
0.13100
-0.26415
-0.61343
-0.87115
-0.05092
0.13532
-0.11662
0.13171
0.20568
-0.18417
-0.47443
-0.04861
-0.23539
-0.63268
0.31894
-0.12393
0.34162
0.56742
0.25969
-1.17787
0.44739
0.66412
0.51278
0.58813
-0.32065
0.29169
-0.40455
0.33782
0.83745
0.68711
0.40391
-0.36873
-0.53856
0.59072
-0.37383
-0.24207
0.87099
0.20889
0.22965
-1.05865
0.79485
-0.00544
-0.18635
0.18818
-0.44981
-0.35672
-0.22359
0.17654
0.38314
0.52238
-0.62490
-0.49040
-0.32813
0.34674
-0.48661
-0.02598
0.68787
0.15179
0.50192
-0.81961
0.14478
0.36422
0.43245
0.53825
0.45383
-0.02808
-0.06302
-0.55841
0.50949
0.48866
0.44251
-0.03274
0.49501
0.32865
-0.49396
-0.54380
-0.46184
-0.94409
-0.65016
0.63512
-0.31877
-0.85507
-0.06264
-0.52817
-0.69425
-0.36669
-0.39294
-0.31955
-1.29349
-0.22159
-0.46385
0.53295
0.30123
0.45977
-0.57042
0.40613
-0.07215
-0.45516
0.75068
-0.33208
0.55650
-0.00608
-0.26057
0.42223
0.61131
-0.71378
0.90217
0.26362
0.45312
-0.46629
-0.51800
0.45828
-0.59308
-0.17825
-1.20562
0.56589
-0.89724
0.90943
0.39798
-1.11644
-0.00586
-0.43532
-0.14266
0.49713
-0.14442
0.26987
-0.94391
-0.39350
-0.65204
-0.20501
-0.75436
-0.73282
0.14602
0.50686
-0.76301
-0.57495
0.51883
-0.60801
-0.44491
-0.40500
0.10199
-0.92451
0.47352
-0.29357
0.24971
0.03993
0.62522
-0.32952
0.23812
0.35434
0.38563
0.09162
-0.46570
0.30929
-0.59190
0.15401
0.51969
0.48632
-0.22877
-0.61398
-0.61129
0.52703
0.33580
0.04227
0.23470
0.17590
-1.49896
-0.39947
-0.00669
-0.65563
-0.24005
0.31854
-0.51913
0.33578
-0.60400
0.09943
0.44921
0.50445
-0.35178
-0.55579
-0.05493
0.41708
-0.40995
-0.16109
0.32676
-0.01311
-0.18153
-0.14851
0.23652
0.06957
0.55447
0.34082
0.46777
-0.62574
0.11246
0.36717
0.46299
0.42191
0.46623
-0.59874
0.81977
-1.12309
-0.01748
0.22671
-0.69642
-0.35071
-0.31332
-0.09153
-0.04919
-0.00191
-0.10525
0.53035
-0.94513
0.27459
-0.00827
0.16974
-0.07917
-0.17117
-0.49995
0.82167
-1.26101
0.98992
-0.68411
0.49370
-0.38892
-0.53997
0.76819
-0.56803
0.62999
0.03651
-0.37512
0.20057
0.10684
0.57274
0.25126
-0.01188
0.13567
-0.51742
0.52666
0.41607
0.33770
-1.09854
0.02408
0.48088
0.11284
0.68237
0.33191
0.29375
-0.01500
-0.43359
0.04478
0.83420
-0.23239
-0.01154
-0.18706
-0.30518
-0.22091
-0.20068
-1.45484
-1.28287
-1.27467
0.72721
0.65677
-1.11211
-0.55163
-0.33341
-0.59608
-0.59003
0.59185
0.21563
-1.20332
-0.17288
0.13652
0.50750
0.49765
-0.42435
0.52316
0.61088
0.40764
-0.63535
0.44936
-0.10720
-0.56460
-0.03933
-0.40673
0.69532
-0.22695
-0.49284
0.25559
0.59018
0.70782
-0.01935
0.79984
0.76664
-0.45907
0.05657
-0.26394
-1.29259
-1.06212
0.38896
-0.46965
-0.32294
0.24519
0.36735
0.55651
0.53449
-0.16357
-0.12575
0.49104
0.56866
-0.57472
-0.16167
0.04108
0.15665
0.63240
0.62565
0.57630
-0.21947
0.75777
0.80706
0.40547
-0.33678
-0.49912
0.07631
0.46270
0.52630
0.45188
-0.72295
0.73559
-1.07074
0.17655
0.13126
-0.28339
-0.44268
-0.02311
-0.51899
0.09098
-0.02573
-0.44195
0.00621
-0.98650
0.19793
-0.10299
0.08565
0.01349
0.68720
-0.31319
0.29592
-0.31417
-0.24626
-0.41725
0.56180
-0.42052
-0.49202
0.48912
-0.43225
0.36467
0.21487
0.29004
0.80782
-0.29390
0.83348
-0.01498
-0.30137
-0.02069
-0.49021
0.60920
-0.86454
-0.69678
0.53898
0.38678
0.57168
0.38719
0.26173
0.52282
0.11481
-0.65032
-0.56790
0.50867
1.05502
-0.32621
0.74063
-0.04660
-0.34829
-0.57420
-0.06727
-0.49004
-0.35650
0.49069
0.74028
-0.41924
-0.05500
0.06410
-0.36586
-0.52529
0.18023
0.66089
0.07312
-1.02771
-0.41036
0.11590
0.46354
-0.21528
-0.16709
0.40287
0.06347
0.49122
0.08320
0.56822
0.33959
-0.48661
0.19549
-0.55368
0.71896
0.35074
-0.52505
-1.35304
0.60217
0.08022
0.33617
-0.08772
0.43191
-0.37046
-1.08485
-0.59568
0.01044
-0.42189
0.22117
-0.34333
-0.16262
-0.16465
0.74252
0.55560
0.49686
0.35156
-0.59424
0.17582
0.13154
-0.47770
0.45179
0.92223
-0.07323
0.83927
0.16477
0.29977
-0.78258
1.11125
0.70985
0.55203
-0.63397
-0.35134
-0.78225
-0.21847
0.48288
0.49352
-0.05739
0.26929
-0.01483
-0.19996
-0.24855
-0.47099
0.24844
-0.58775
-0.42617
0.34220
-1.32405
0.58392
0.29614
-0.62779
0.35273
0.08113
-0.18958
-0.12286
0.45615
-0.49461
0.36063
0.21870
0.94375
-0.27543
0.34326
0.03854
-0.45642
0.45172
-0.70448
-0.05309
0.04244
-0.16688
0.15886
0.04818
-0.29521
0.26899
0.45779
0.17531
-0.29335
0.20039
0.28545
0.74129
0.38012
0.11849
-0.15028
-0.09386
0.88615
0.59363
-0.74396
0.22287
-0.45491
0.29352
0.76242
-0.59213
0.36978
0.05435
-0.26008
0.35809
0.03069
-0.20833
-0.99335
0.00389
0.15943
-0.85945
0.04399
-0.25171
-0.88701
-0.45702
-0.61582
0.03780
0.29668
-0.05655
-0.01417
0.34379
0.39284
-0.60425
-0.48450
0.42009
-0.22280
0.53253
0.64499
1.06576
0.18508
-0.57466
0.47207
-0.70377
0.46388
0.03434
-0.61123
0.05464
0.37180
0.42288
0.27149
0.96019
1.16692
0.18184
-0.16505
0.35543
-1.54842
0.06134
0.27432
-0.43192
0.04547
0.10193
0.57253
0.56814
0.23073
0.67518
-0.27839
0.60649
0.27367
-0.49628
-0.45080
0.18273
-0.21589
0.05496
-0.05658
0.55402
0.38883
1.03965
0.90704
0.43549
-0.21164
-0.50881
-0.15137
0.30610
0.47644
0.46877
0.07699
0.06122
-0.55826
-0.34051
-0.01029
-0.21095
0.20937
0.73788
0.31710
-0.27680
-0.50858
0.40770
0.95397
-1.02438
0.48541
0.23354
0.08446
-0.95307
-0.05111
-0.45614
-0.09363
0.61147
0.31429
-0.48844
0.45014
-0.45122
-0.45296
0.18840
0.44673
0.69648
-0.82370
-1.47365
-0.29667
0.74534
0.43961
0.09485
0.17663
0.31934
-0.45235
0.94015
0.66457
0.29133
-0.34823
-0.49680
-0.49199
0.47268
-0.20156
0.34340
0.47453
-0.06395
-0.47571
0.39952
-0.71701
-0.08889
0.27560
0.07109
-0.29320
0.39847
0.00692
-0.69262
-0.73422
-0.40913
0.55038
0.05871
-1.05342
-0.30843
-0.10255
-0.42571
-0.08736
0.76212
0.70039
-0.41743
-0.38272
0.20195
0.36766
0.40925
-0.64200
0.44054
0.06013
0.38558
0.62094
-0.30646
0.72591
-0.59247
0.12259
-0.46360
0.56797
0.27381
-0.45154
0.33527
0.48063
-0.57114
0.30386
-0.16322
0.59359
-0.45176
-0.41077
-0.22402
-0.48928
-0.50924
0.57147
-0.28728
-0.55696
0.28577
0.44888
0.64723
0.38723
0.64715
-0.11148
0.47944
-0.64343
-0.48561
0.32444
0.88506
-0.02550
0.42366
0.05305
-0.48776
-0.96566
-0.19522
0.89532
0.52785
-0.41778
-0.11658
-0.20566
0.41687
0.44205
0.52039
-0.01863
0.63582
0.05362
-0.02386
-0.98735
-0.28173
0.48322
-0.78609
0.41422
-0.59253
0.18225
0.06063
0.13723
-0.78141
-0.17319
-0.47203
0.04314
-1.11873
0.16725
-0.45915
0.22117
0.61735
0.61457
-0.41189
0.42732
-1.00614
-0.56859
0.28451
0.19870
0.20722
-0.02400
-0.47921
-0.40976
0.00241
0.20974
0.61469
-1.11313
-0.14489
-0.33324
-0.08876
0.40073
0.17832
0.45959
-0.34582
0.30390
-0.17789
0.85923
0.54192
-0.53958
0.59933
-0.42514
0.38975
0.51545
-0.84333
0.12949
-0.70584
-0.43919
0.24162
-0.31324
-0.31423
0.02431
-0.02480
-0.62854
-0.23779
-0.90888
-0.17510
-0.31635
-0.39634
-0.18883
-0.11400
-0.07027
0.36163
-0.07638
0.26773
0.70343
0.02980
0.14683
0.49929
-0.62554
0.50789
-0.58303
-0.42206
0.33713
-0.46358
0.51913
0.28022
0.34246
0.18693
-0.61611
-0.63775
0.47109
-0.07336
-0.03534
0.82467
0.56767
0.07154
0.43827
0.42718
0.16643
-1.27312
-0.48365
-0.48592
0.28513
-0.76062
0.65130
0.48349
0.46082
0.53780
-0.54050
0.71942
0.45276
-0.36281
0.46536
-0.04350
0.10667
0.53056
-0.09320
-0.19198
-0.21290
-0.48980
0.61995
0.38446
-0.12770
-0.94356
-1.10451
0.40130
0.41728
0.41038
0.30527
0.53032
0.80324
-0.79572
-0.08875
-0.41691
0.28222
0.18707
0.46650
-0.00397
-0.57793
0.23470
0.79847
-0.59515
-0.59925
-0.23782
-0.66183
-1.31319
0.58420
-0.30169
-0.30249
0.18765
0.96276
-1.29933
0.41503
0.12900
-0.37691
-0.05649
-0.35397
0.65242
0.01727
-0.09197
-0.17387
0.38003
-0.23610
0.36848
-0.38147
0.29042
-0.35373
-0.31587
0.56144
-0.14504
0.25838
-0.25310
0.88718
-0.20789
-0.28257
0.43837
0.12262
-0.24366
-0.32342
-0.38537
1.40817
0.14596
-0.14065
-0.43754
-0.44850
-0.27840
-0.16073
-0.18591
-0.58004
0.09638
-0.13010
0.43309
-0.36236
-0.88753
-0.45662
-0.39601
-0.40452
0.76131
-0.34446
0.22645
-0.25876
0.11506
0.73099
0.53003
-0.34956
0.44753
0.29220
0.44640
-0.10781
-0.45102
-0.99744
-0.36688
0.00537
0.69830
-0.17869
-0.38197
-0.33772
-0.03292
0.61137
0.45943
-0.58352
0.28409
0.60295
-0.85495
0.28386
0.39599
-0.71061
-0.79076
0.36246
-0.62393
-0.60894
-0.33727
0.39812
0.59695
0.33144
-0.12337
-0.42028
0.68630
-0.15769
-0.49365
-0.28609
0.57625
-0.22777
0.02575
0.49199
0.30268
-0.45621
0.53362
0.69039
0.35483
-0.19360
-0.34016
-0.46744
0.53185
0.50011
0.39817
-0.03562
0.55520
-0.70334
-0.40664
-0.85787
-0.36588
-0.14825
-0.37791
0.06710
-0.18387
-1.40534
0.45482
-0.52314
-0.23657
-0.35002
-0.33673
0.23296
-0.73139
0.31525
-0.46696
0.43938
-0.35122
0.28905
-0.57732
0.44555
-0.22929
-0.42705
0.69633
-0.07124
0.53770
-0.98199
-0.36882
-0.42648
0.53787
0.65945
0.57014
0.33158
0.25674
-0.37872
0.48107
0.16734
-0.25387
-0.40056
0.08361
-0.24427
-0.16449
-0.10145
0.52836
-0.45292
-0.04440
-0.46767
-0.68013
0.64557
-1.12204
-0.32975
-0.34047
-0.42228
-0.28784
-0.16017
-0.64709
-0.34805
0.14880
0.33176
-0.43677
-0.71809
0.57682
-0.57066
-0.49576
-0.72364
0.29376
-0.17038
0.08585
-0.91180
0.37904
0.57957
-0.08555
-1.04199
0.51719
0.24540
0.44868
0.06588
1.14920
0.01262
-0.49792
-0.12058
0.96313
0.37171
-0.23043
-0.45436
-0.60902
0.65018
-0.15099
-0.14203
-1.25274
-0.10124
-0.78125
-1.04986
0.27119
-0.16305
-0.86443
0.10749
-0.57906
-0.60622
0.08433
0.37887
0.41269
0.52722
0.10479
-0.30517
0.64366
0.39875
-0.55445
-0.06802
0.03699
-0.09674
-0.33584
-0.68236
0.13018
-0.18221
-0.06345
0.69173
0.37712
-0.10806
-0.71466
-0.00396
0.54697
0.34163
0.39704
-1.20827
0.50599
-0.16766
-0.69629
-1.03091
-0.42002
-0.33919
-0.41451
-0.66806
0.15024
0.06936
-0.25120
-0.84864
-0.13199
-1.32596
-1.02216
-0.32723
-0.49917
-0.11364
-0.44042
-0.15926
0.43932
0.79692
-0.36495
0.44173
-0.80956
-0.50696
0.03336
0.23489
0.06103
-0.76586
-0.70608
-0.41972
0.52580
0.38890
0.38082
0.23012
-0.90075
-0.43456
0.59478
0.33311
-0.85179
-0.63748
-1.05982
0.50000
0.08345
0.37834
0.44346
-0.84897
0.28046
-0.56353
-0.21451
0.52844
-0.96281
-0.09757
-0.17012
-0.62100
-0.53958
-0.33523
-0.48239
-0.88808
0.32742
0.58134
0.40967
0.20897
0.11794
-0.77338
-0.37665
-0.63341
0.33867
-0.23947
-0.68270
-0.41677
-0.02766
0.40751
0.66825
-0.29483
0.41707
0.50416
0.55966
0.56648
-0.42727
-0.07779
-0.54427
-0.17959
0.44280
0.48595
0.28887
-0.86276
-1.38137
0.48072
-0.02530
