-0.65804
0.23847
0.40145
0.21793
-0.80240
0.17270
-2.03632
-0.49076
0.46964
0.36646
0.11558
0.39754
-0.70579
-0.73094
-3.59946
-0.45361
-2.64661
0.38286
-0.65495
0.48325
-1.05099
-0.33720
-1.59834
-0.67716
-0.52927
-1.09063
0.39035
-0.74725
-0.37461
-0.54889
-1.03809
0.48762
-0.65789
0.56156
0.64116
0.48362
-0.74074
0.60813
-0.55628
-1.03626
0.42279
0.44217
0.46667
0.57804
-0.40925
-0.73637
-0.38006
-0.54035
-0.32817
0.65086
-0.36456
0.45555
-0.91493
-0.64488
-0.43736
-0.64132
-1.00191
-0.70941
0.59153
-0.80564
-0.70719
-0.44612
-0.58677
0.56798
0.28160
0.16735
0.15166
0.48701
0.13088
0.33040
0.33137
0.11216
0.27211
0.21585
0.39073
0.21004
0.18917
0.15902
0.47457
0.05141
0.48675
0.22666
0.13283
0.15200
0.58865
0.25234
0.49464
0.20252
0.05149
0.34501
0.22781
0.16214
0.24148
0.09700
0.12792
0.31417
-0.54369
0.31953
0.43338
0.15180
-0.71551
0.24005
-0.96689
-0.78557
0.34170
0.26163
0.18409
0.26912
-0.77687
-0.80071
-1.77850
-0.46755
-2.19383
0.31976
-0.30860
0.31000
-1.12884
-0.47924
-1.72453
-0.62740
-0.51105
-1.14565
0.35151
-1.08133
-0.52283
-0.71036
-0.87087
0.39094
-0.93523
0.30009
0.27052
0.23465
-0.91440
0.35392
-0.59712
-0.77977
0.38145
0.33128
0.22232
0.25622
-0.60377
-1.08003
-0.68807
-0.21475
-0.47420
0.35043
-0.40451
0.29476
-1.14656
-1.21276
-0.81073
-0.94323
-0.74023
-0.82626
0.32046
-1.02792
-0.57400
-0.34380
-0.86451
0.36648
0.58314
-0.87511
-0.45869
-0.58885
0.20335
-0.69735
0.34071
0.52470
-0.50996
-0.54591
-0.86246
-0.51092
0.40100
0.42700
0.23270
0.42643
0.20299
-0.84841
0.21166
-0.61012
0.36039
0.49695
0.44796
0.29248
0.45169
0.24859
-0.33679
0.43268
0.48976
0.29227
0.51630
-0.76612
-0.58270
0.32811
0.22429
0.21669
-0.77890
0.07033
-0.40851
-0.86385
0.26184
0.29938
0.29249
0.51013
-0.57668
-0.58128
-0.52248
-0.31202
-0.33425
0.19713
-0.45112
0.22517
-0.59874
-0.82411
-0.34232
-0.40286
-0.41637
-0.39892
0.48861
-0.26359
-0.73284
-0.39577
-0.53294
0.43418
0.27897
-0.63097
-0.36536
-0.34140
0.38498
-0.35911
0.25146
0.32213
-0.37922
-0.34502
-0.68661
-0.51003
0.28068
0.29836
0.17683
0.22582
0.15408
-0.48243
0.18802
-0.66617
0.22624
0.09968
0.22418
0.32851
0.40328
0.30852
-0.48743
0.26085
0.28491
0.32244
0.27747
-0.46200
-1.06683
-0.34838
-0.42051
-0.66210
-1.16912
-0.83025
-1.94874
-0.71570
-1.43921
-0.43655
-1.02889
-1.83790
-0.12421
-0.70357
-0.86254
-0.10512
-0.77746
-0.74897
-0.08846
-1.08913
-1.06421
-0.84674
-1.44942
-1.50103
-0.12443
-1.25328
-1.31800
-1.47916
-0.38805
-0.18164
-0.58963
-0.92015
-0.47774
0.44970
0.49000
0.15641
-0.50460
0.33887
-0.86389
-0.55217
0.28736
0.22827
0.30790
0.49136
-0.68380
-0.75735
-2.29544
-0.48372
-1.53369
0.43334
-0.50830
0.43269
-0.72578
-0.62109
-1.51166
-1.10047
-0.46059
-1.13520
0.34790
-0.78583
-0.79996
-0.60684
-0.94644
0.42708
0.20834
-0.31017
-0.39965
-0.74338
0.27226
-0.51295
0.14938
0.27747
-0.35575
-0.45452
-0.37966
-0.80930
0.24870
0.33939
0.14550
0.25909
0.05652
-0.61347
0.27405
-0.33196
0.19524
0.12376
0.29746
0.15301
0.39626
0.18210
-0.43142
0.22150
0.34014
0.33768
0.36976
-0.42318
-0.52536
0.16985
0.30324
0.17237
-0.09038
0.21575
-0.45486
-0.47883
0.23977
0.31864
0.13851
0.34676
-0.55755
-0.38078
-0.17353
-0.37500
-0.28506
0.24434
-0.44129
0.28204
-0.25077
-0.66691
-0.35873
-0.28369
-0.39217
-0.70676
0.30627
-0.50586
-0.34056
-0.38640
-0.38913
0.35682
-0.37796
0.29019
0.22595
0.13797
-0.12539
0.16707
-0.33287
-0.56630
0.20414
0.41137
0.17285
0.04701
-0.25658
-0.21989
-0.10816
-0.29987
-0.11178
0.41626
-0.46623
0.33301
-0.36230
-0.36906
-0.46948
-0.41581
-0.41828
-0.55295
0.26943
-0.85031
-0.34047
-0.40628
-0.26460
0.36657
0.21785
-0.23890
-0.38735
-0.46411
0.33892
-0.40848
0.37241
0.17663
-0.21992
-0.46398
-0.21322
-0.38925
0.23418
0.25118
0.04585
0.19934
0.18712
-0.60851
0.23651
-0.56083
0.18476
0.27895
0.20738
0.36355
0.38015
0.28042
-0.71141
0.15674
0.35575
0.44308
0.23279
-0.28616
-0.65205
0.56225
0.53946
0.32874
-0.36895
0.48739
-0.48837
-0.92484
0.62568
0.68529
0.47520
0.52240
-0.59152
-0.39619
-0.47319
-0.43482
-0.37703
0.67604
-0.67546
0.63976
-0.93229
-0.60680
-0.45419
-0.52182
-0.62641
-0.56969
0.47069
-0.11178
-0.75111
-0.21628
-0.64392
0.62563
0.03330
-0.11324
-0.18149
-0.68988
-0.00329
-0.40194
-0.06780
0.10259
-0.30144
-0.45288
-0.34359
-0.19847
0.01777
0.04384
-0.31110
0.10348
0.00151
-0.55591
0.09130
-0.54435
-0.58496
-0.08077
-0.01734
0.01654
0.04539
-0.58434
-0.44032
0.03050
0.07834
0.07466
0.03625
-0.42277
0.38828
-0.41429
-0.41096
-0.46431
0.31785
-0.17000
0.03469
0.53333
-0.38389
-0.30810
-0.16631
-0.37649
0.37345
0.52358
0.07018
0.68085
0.13318
-0.26199
0.47221
-0.32023
0.35129
0.57744
0.11877
0.43365
0.71435
0.27394
-0.58572
0.17469
0.48091
0.66186
0.42796
-0.52750
-0.66570
0.28936
0.45110
0.18974
-0.72306
0.20486
-1.90238
-0.73690
0.35622
0.59176
0.21144
0.46363
-0.53847
-0.55292
-3.78883
-0.73710
-2.78060
0.44236
-0.62971
0.33327
-1.51866
-0.89012
-1.31072
-0.81732
-0.34616
-1.32167
0.27824
-0.77256
-0.39134
-0.48023
-0.88418
0.48897
0.39094
-0.64970
-0.44973
-0.49643
0.42521
-0.42620
0.40763
0.42499
-0.24667
-0.38305
-0.46868
-0.63119
0.41265
0.46158
0.48809
0.66197
0.10747
-0.46537
0.34762
-0.34768
0.45706
0.52798
0.35665
0.66280
0.37285
0.53514
-0.80718
0.31267
0.32678
0.48246
0.57643
-0.66306
0.42820
-0.43497
-0.67850
-2.26727
0.64496
-1.62972
0.46426
0.34042
-0.93092
-0.64881
-1.55947
-1.08946
0.50952
0.39241
0.22482
0.50287
0.19797
-0.86637
0.48229
-0.70571
0.42228
0.31850
0.31486
0.49772
0.58524
0.41816
-0.72654
0.43453
0.23843
0.45201
0.44812
-0.79393
-0.39176
0.35097
0.43183
0.14176
-0.18744
0.21236
-0.18121
-0.29058
0.29361
0.35381
0.23475
0.37011
-0.38331
-0.51377
-0.22587
-0.29333
-0.17712
0.30462
-0.46512
0.27424
-0.29767
-0.37837
-0.32115
-0.17620
-0.21841
-0.30246
0.26973
-0.37903
-0.22901
-0.42544
-0.32573
0.45202
0.32210
-0.39761
-0.34795
-0.36000
0.35046
-0.36414
0.31041
0.47958
-0.38475
-0.26985
-0.25805
-0.18025
0.29179
0.34635
0.22748
0.22189
0.22572
-0.35614
0.29758
-0.30948
0.40227
0.26171
0.21951
0.40133
0.40998
0.22704
-0.53250
0.24222
0.19751
0.31332
0.36847
-0.40774
-0.56210
0.31284
0.47981
0.31154
-0.59962
0.38065
-0.97667
-0.44186
0.20637
0.25763
0.29355
0.31194
-0.55017
-0.65887
-1.65578
-0.42313
-1.55971
0.37914
-0.54057
0.30052
-0.70179
-0.34672
-1.02971
-0.62951
-0.32968
-0.71522
0.33573
-0.70060
-0.54490
-0.63659
-0.54750
0.48468
0.49587
-0.36429
-0.77150
-2.20763
0.41598
-2.19510
0.36598
0.44546
-0.95826
-0.59831
-1.83208
-0.74891
0.29527
0.34469
0.20807
0.49529
0.25366
-0.82618
0.51852
-0.58901
0.27030
0.49845
0.21589
0.28621
0.49038
0.15388
-0.59132
0.40263
0.47219
0.50225
0.36652
-0.95426
-0.50901
0.27702
0.18869
0.09379
-0.36845
0.09732
-0.19878
-0.22660
0.21936
0.36669
0.08917
0.18547
-0.38502
-0.50488
-0.32218
-0.31681
-0.36314
0.33870
-0.33891
0.31127
-0.35862
-0.35915
-0.35123
-0.37390
-0.41423
-0.20641
0.25701
-0.27803
-0.30870
-0.42037
-0.36544
0.31997
0.26567
-0.34858
-0.44078
-0.28234
0.35356
-0.18090
0.20085
0.28256
-0.12366
-0.19372
-0.26418
-0.06769
0.33377
0.16133
0.15748
0.35029
0.05447
-0.49055
0.32510
-0.24032
0.27050
0.19822
0.18534
0.27307
0.32343
0.22753
-0.17907
0.31378
0.42038
0.24248
0.42726
-0.23642
0.44082
-0.33397
-0.26735
-0.38104
0.36842
-0.12897
0.23557
0.41981
-0.14532
-0.36418
-0.30397
-0.28619
0.19991
0.29445
0.13927
0.24535
0.15623
-0.33435
0.25509
-0.06188
0.22352
0.13563
0.29087
0.30432
0.35819
0.26600
-0.35875
0.39120
0.35088
0.46158
0.13534
-0.31606
-0.39164
0.20248
0.06597
0.05703
-0.36858
-0.00871
-0.09817
-0.16860
0.03253
0.16438
0.05056
0.05508
-0.39434
-0.72219
-0.39906
-0.20679
-0.26030
0.00377
-0.14240
0.02045
-0.45287
-0.31873
-0.66413
-0.74288
-0.25693
-0.35671
0.06703
-0.34983
-0.58850
-0.25956
-0.23217
0.16051
-0.48339
0.13414
0.06267
-0.03697
-0.23311
-0.01128
-0.11826
-0.21798
-0.10668
0.05186
-0.01512
0.13291
-0.41580
-0.78209
-0.44628
-0.28991
-0.37428
0.05450
-0.31739
0.06667
-0.39834
-0.19491
-0.54836
-0.59864
-0.26011
-0.48503
0.01150
-0.28717
-0.34781
-0.15188
-0.09903
0.08129
0.36721
-0.44464
-0.82678
-1.92186
0.41036
-2.01435
0.26494
0.55739
-0.95406
-0.66240
-2.28360
-0.45306
0.49042
0.53015
0.20943
0.50250
0.31632
-1.01076
0.48240
-0.69980
0.35356
0.50278
0.51034
0.39368
0.56917
0.33636
-0.85588
0.32251
0.48231
0.50205
0.40083
-0.88073
-0.46874
0.38425
0.31470
0.39950
-0.67045
0.23009
-1.43882
-0.77477
0.24537
0.41461
0.28148
0.33857
-0.59625
-0.85239
-2.73538
-0.53701
-2.67285
0.33869
-0.26141
0.44025
-1.29165
-0.40005
-1.44210
-0.80624
-0.71763
-1.12469
0.43181
-0.82106
-0.39321
-0.68671
-1.14876
0.50783
0.55700
-0.70216
-0.59167
-0.42063
0.26311
-0.20404
0.44111
0.32454
-0.34795
-0.62371
-0.55273
-0.87548
0.36721
0.27468
0.33192
0.31820
0.30333
-0.67855
0.30072
-0.42991
0.22668
0.42932
0.43084
0.31970
0.28402
0.31173
-0.30896
0.36160
0.22516
0.28543
0.38068
-0.70012
0.64848
-0.23522
-0.09229
-0.00872
0.48922
-0.12464
0.55223
0.68539
-0.54092
-0.29511
-0.17895
-0.21618
0.48102
0.67131
0.28390
0.54915
0.46084
-0.48720
0.56648
-0.36929
0.37278
0.49056
0.41776
0.39305
0.48485
0.37328
-0.32681
0.57925
0.51005
0.63752
0.43673
-0.29984
-0.42838
0.37339
0.18949
0.22964
-0.24623
0.12817
-0.54755
-0.39145
0.22284
0.34762
0.18850
0.19047
-0.41471
-0.37269
-0.29873
-0.29625
-0.18189
0.29283
-0.34186
0.26696
-0.24516
-0.57245
-0.30564
-0.26398
-0.33916
0.01504
0.29757
-0.28608
-0.44765
-0.27127
-0.20067
0.28226
-0.34892
0.23724
0.19214
0.15221
-0.25402
0.17526
-0.41668
-0.28703
0.16839
0.25318
0.28002
0.29388
-0.33861
-0.67485
-1.00835
-0.34690
-0.65428
0.19122
-0.32201
0.10282
-0.45777
-0.66809
-0.76200
-0.41625
-0.29553
-0.61561
0.21617
-0.33687
-0.28970
-0.25242
-0.44945
0.29724
-0.18221
0.34595
0.50326
0.45672
-0.18947
0.39403
-0.19077
-0.23068
0.39587
0.29918
0.34255
0.42632
-0.21854
-0.20316
-0.06996
-0.26387
-0.05279
0.44543
-0.19733
0.32595
0.00658
-0.22557
0.00400
-0.08642
-0.37500
0.00212
0.40195
-0.25534
-0.30998
-0.50015
-0.22823
0.42514
-0.34129
0.31823
0.31318
0.14885
-0.32022
0.14281
-0.32931
-0.39772
0.19761
0.27281
0.18597
0.19279
-0.29059
-0.24416
-0.45718
-0.35850
-0.08237
0.19888
-0.31180
0.30232
-0.59343
-0.43030
-0.41053
-0.33414
-0.32435
-0.31037
0.28558
-0.27323
-0.36707
-0.22921
-0.32761
0.34199
-0.34168
0.36892
0.40090
0.25302
-0.18868
0.17582
0.00661
-0.22763
0.32832
0.38653
0.22734
0.33847
-0.24662
-0.14571
0.09836
-0.33264
0.19327
0.30464
-0.18016
0.26005
-0.12553
-0.22615
-0.00987
-0.18179
-0.19473
-0.00328
0.28640
-0.26025
-0.33047
-0.20826
0.01672
0.38848
0.30452
-0.36271
-0.58934
-0.67656
0.16952
-0.39290
0.29141
0.15829
-0.23950
-0.63789
-0.40063
-0.58923
0.30794
0.27166
0.13858
0.39476
0.21406
-0.34250
0.13000
-0.16940
0.13065
0.27995
0.08070
0.17966
0.44372
0.19042
-0.33899
0.06678
0.20422
0.24912
0.32112
-0.39681
-0.55553
0.07458
0.23968
0.04919
-0.47301
0.04971
-0.34525
-0.27258
0.04705
0.11520
-0.03055
0.23366
-0.40795
-0.42729
-0.14433
-0.41818
-0.30289
0.14941
-0.21342
0.23122
-0.32699
-0.31353
-0.63146
-0.51167
-0.32942
-0.31024
0.18863
-0.34855
-0.56522
-0.26939
-0.23071
0.22505
0.47115
-0.11854
-0.22914
-0.12616
0.37899
-0.22059
0.29499
0.23938
-0.27349
-0.35815
-0.19590
-0.25754
0.31072
0.22977
0.16870
0.39939
0.18170
-0.52642
0.45815
-0.37488
0.25460
0.43122
0.29452
0.25405
0.41239
0.30729
-0.28512
0.29716
0.38718
0.36468
0.35409
-0.16780
-0.38252
0.14995
0.25200
0.08198
-0.17252
0.06959
-0.15723
-0.27364
0.21933
0.32299
0.20314
0.12774
-0.32609
-0.32788
-0.05051
-0.28633
-0.32483
0.29735
-0.23702
0.15350
-0.12334
-0.13717
-0.33376
-0.27554
-0.36599
-0.11670
0.20702
-0.30949
-0.44578
-0.19849
-0.24622
0.28469
0.42202
-0.01157
-0.02392
0.40087
0.52732
0.20296
0.37556
0.35221
0.11588
-0.20567
0.33327
-0.12474
0.42556
0.42283
0.45991
0.29151
0.37581
0.01408
0.41592
0.12590
0.66236
0.42439
0.52270
0.45225
0.48993
0.77275
0.01534
0.32301
0.47776
0.31190
0.34534
0.13511
0.12189
-0.26352
-0.24068
-1.47592
0.10235
-0.76149
0.22305
0.26415
-0.52635
-0.47064
-0.90951
-0.35371
0.07994
0.07813
0.07477
0.27838
0.05425
-0.70036
0.34217
-0.35738
0.18635
0.33324
0.16029
0.05871
0.22955
0.19727
-0.48671
0.13792
0.14648
0.23030
0.17008
-0.46425
-0.34035
0.24694
0.38590
0.15933
-0.38272
0.08718
-0.41924
-0.25276
0.30654
0.26589
0.20555
0.31677
-0.28742
-0.37381
-0.00351
-0.30183
-0.34805
0.32774
-0.31243
0.51725
-0.21618
-0.41345
-0.27779
-0.28819
-0.21410
-0.15548
0.24455
-0.20676
-0.30450
-0.28724
-0.25151
0.31119
0.56867
-0.31415
-0.34929
-0.31961
0.49024
-0.05808
0.25299
0.36727
-0.35804
-0.29009
-0.18320
-0.26506
0.35074
0.37049
0.21277
0.36984
0.25926
-0.41604
0.38672
-0.23401
0.26269
0.27216
0.42798
0.38286
0.38621
0.23294
-0.12281
0.39670
0.37691
0.56786
0.56713
-0.34935
-0.31669
0.35365
0.40446
0.27656
-0.51807
0.28273
0.08445
-0.40123
0.33773
0.17492
0.33864
0.28793
-0.45902
-0.58067
-0.20636
-0.20144
-0.32932
0.45864
-0.31668
0.37241
-0.29551
-0.52798
-0.25280
-0.52399
-0.49641
-0.04806
0.39913
-0.45097
-0.57447
-0.09173
-0.24712
0.38853
0.34874
-0.47526
-0.83339
-0.21965
0.26034
-0.39029
0.18590
0.34023
-0.43169
-0.50911
-0.25264
-0.33201
0.31740
0.39052
0.06305
0.21165
0.19976
-0.41132
0.41147
-0.34396
0.34646
0.47351
0.19246
0.37321
0.32768
0.44685
-0.54550
0.40722
0.48944
0.45643
0.46343
-0.28164
0.45023
-0.42402
-0.49674
-0.39612
0.47259
-0.58174
0.17861
0.54139
-0.65177
-0.47681
-0.55352
-0.27772
0.24382
0.40322
0.09222
0.31775
0.17008
-0.52660
0.52872
-0.38302
0.30334
0.41636
0.24889
0.10638
0.47072
0.39983
-0.59115
0.15338
0.36855
0.46091
0.22521
-0.58108
-0.49778
0.28450
0.42169
0.44515
-0.40697
0.38959
-0.29956
-0.35399
0.47171
0.28294
0.30495
0.33342
-0.43730
-0.36218
-0.21135
-0.25289
-0.14364
0.19626
-0.46406
0.38456
-0.22011
-0.20240
-0.20813
-0.10275
-0.13101
-0.05411
0.37149
-0.28223
-0.43889
-0.38045
-0.38764
0.43492
-0.74783
0.34092
0.51365
0.19166
-0.84216
0.28244
-1.49892
-0.70364
0.43380
0.48511
0.28874
0.36704
-1.00857
-0.84672
-2.44771
-0.48697
-3.02494
0.35964
-0.67085
0.39855
-0.86594
-0.52368
-1.40502
-0.71957
-0.72971
-1.16279
0.45435
-1.09187
-0.54430
-0.69509
-0.73210
0.54021
0.47173
-0.57968
-0.52799
-0.31503
0.34330
-0.38797
0.36180
0.38737
-0.60488
-1.35815
-0.32708
-0.32230
0.57936
0.45265
0.37570
0.24631
0.28628
-0.24238
0.43966
-0.53714
0.39409
0.46645
0.49398
0.33118
0.42896
0.53632
-0.39397
0.48449
0.36142
0.24887
0.44609
-0.66834
-1.04684
0.18832
0.24615
0.29298
-1.19354
0.36443
-0.89458
-0.43384
0.22012
0.22161
0.35888
0.16479
-0.44549
-1.35106
-0.71267
-0.03114
-0.89404
0.26487
-0.39275
0.25238
-1.06101
-0.75145
-1.16624
-1.09789
-0.65289
-1.06682
0.27923
-0.32803
-0.34812
-0.42775
-0.55244
0.37947
0.47043
-0.25934
-0.67389
-0.39411
0.44073
-0.43159
0.30815
0.49373
-0.41103
-0.38692
-0.44668
-0.31342
0.61945
0.35265
0.18433
0.51984
0.16872
-0.32247
0.34239
-0.45035
0.23802
0.38420
0.19489
0.55758
0.38783
0.26894
-0.40108
0.37283
0.54099
0.40079
0.31864
-0.38441
0.33572
-0.41906
-0.50581
-0.27383
0.37319
-0.04484
0.29052
0.33292
-0.26905
-0.38497
-0.22929
-0.28960
0.26586
0.33785
0.08820
0.28893
0.04459
-0.30460
0.35320
-0.34577
0.24805
0.32832
0.20851
0.04716
0.40686
0.33241
-0.33587
0.44651
0.23740
0.24731
0.41328
-0.45027
0.33610
-0.32191
-0.37081
-0.56532
0.36463
-0.64375
0.27597
0.19224
-0.68511
-0.47431
-0.66459
-0.53438
0.46985
0.17714
0.10910
0.23475
0.13094
-0.57381
0.42087
-0.22903
0.27803
0.38749
0.36650
0.36634
0.32899
0.21351
-0.38669
0.33825
0.28275
0.33892
0.24628
-0.50195
-0.99939
-0.44159
-0.41953
-0.82787
-1.30747
-1.19231
-2.00435
-1.11806
-1.53747
-0.50328
-1.26758
-2.08162
-0.56338
-1.21069
-1.07583
-0.07351
-1.20526
-0.66404
-0.13227
-1.14261
-1.08086
-1.05873
-1.52866
-1.96416
-0.13631
-1.52834
-1.20614
-1.73720
-0.31003
-0.08886
-0.68502
-1.19872
0.33713
-0.84856
-0.60336
-1.15846
0.28540
-1.15087
0.35786
0.25337
-1.64671
-0.70868
-1.13488
-1.41530
0.38786
0.41204
0.48958
0.07228
0.40789
-1.09816
0.24284
-1.49501
0.43380
0.30097
0.52707
0.43972
0.26376
0.49582
-0.87423
0.44804
0.16773
0.05590
0.43626
-1.30899
-1.23545
0.21141
0.34995
0.42655
-1.99749
0.30531
-2.27463
-1.23656
0.12267
0.21934
0.32280
0.25452
-0.87827
-1.36448
-1.30042
-0.12321
-1.56160
0.38877
-0.38708
0.34573
-1.26709
-1.42127
-1.78813
-1.61674
-0.73299
-1.33522
0.40628
-1.87423
-0.75517
-0.21165
-1.26174
0.39371
-0.66825
0.25810
0.46613
0.38822
-0.56640
0.24531
-1.30502
-0.50483
0.16784
0.54531
0.24155
0.39226
-0.65951
-0.80164
-2.16410
-0.42891
-2.14536
0.38273
-0.64521
0.36791
-0.66908
-0.67085
-0.73235
-0.88155
-0.37072
-1.18156
0.31520
-0.75368
-0.68032
-0.56529
-0.81005
0.51496
0.18271
-0.28993
-0.14621
-0.28392
0.25844
-0.19958
0.10708
0.11537
-0.20049
-0.25564
-0.32865
-0.37842
0.33420
0.17552
0.06295
0.39421
0.14311
-0.38741
0.23304
-0.50495
0.07366
0.13092
0.17550
0.19212
0.26540
0.13726
-0.37105
0.12280
0.25303
0.37092
0.15326
-0.32680
-0.36046
0.38920
0.37492
0.30839
-0.33965
0.17980
-0.20188
-0.47401
0.43857
0.39513
0.12766
0.38940
-0.32331
-0.20843
-0.04878
-0.43665
-0.32668
0.26970
-0.44185
0.49149
-0.36873
-0.45996
-0.35350
-0.29477
-0.50701
-0.18157
0.32541
-0.44408
-0.12705
-0.21915
-0.49225
0.45933
-0.48896
0.19439
0.34490
0.18387
-0.54806
0.18572
-0.30722
-0.44472
0.31967
0.41529
0.17166
0.27011
-0.46893
-0.32047
-1.06786
-0.37508
-1.43384
0.24165
-0.47390
0.31121
-0.58055
-0.41186
-0.74398
-0.81405
-0.39448
-0.62912
0.17660
-0.79667
-0.48056
-0.43905
-0.52194
0.37883
0.17970
-0.22108
-0.22385
-0.36745
0.29263
-0.49166
0.23962
0.32767
-0.15657
-0.37584
-0.27640
-0.21984
0.27618
0.14973
0.05866
0.35864
0.14853
-0.30704
0.34847
-0.40345
0.20697
0.33932
0.11396
0.34097
0.19357
0.06841
-0.52105
0.17240
0.19853
0.32274
0.24756
-0.29933
0.18959
-0.28964
-0.26177
-0.40269
0.24299
-0.20573
-0.05223
0.18964
-0.14620
-0.36435
-0.27249
-0.33079
0.22466
0.15020
0.11164
0.26211
-0.02417
-0.31365
0.27637
-0.69855
0.26878
0.05130
0.00939
0.08978
0.34639
0.17853
-0.41657
0.21758
0.20657
0.32350
0.21543
-0.35107
-0.72832
0.29723
0.36098
0.19334
-0.63592
0.24414
-1.26978
-0.60566
0.29215
0.32508
0.24363
0.37261
-0.67016
-0.59897
-2.67896
-0.52766
-2.92212
0.33745
-0.57932
0.26942
-1.13281
-0.54778
-1.06116
-0.87977
-0.46690
-1.05942
0.29438
-0.86113
-0.78563
-0.87891
-0.81920
0.33769
0.41769
-0.24494
-0.40221
0.05798
0.67774
0.02210
0.53987
0.44101
-0.43720
-0.25474
-0.10973
-0.25847
0.48964
0.48262
0.22669
0.62190
0.35875
-0.22156
0.53480
-0.46114
0.41476
0.57604
0.58548
0.65621
0.63276
0.50259
-0.33061
0.28753
0.56140
0.42182
0.57662
-0.26282
-0.75976
0.58878
0.35805
0.26569
-0.46141
0.42953
-0.52291
-0.58227
0.46633
0.42568
0.46025
0.46474
-0.44307
-0.34493
-0.27671
-0.24169
-0.30523
0.48008
-0.39796
0.44169
-0.09237
-0.45545
-0.13461
-0.50879
-0.01591
-0.53348
0.65249
-0.41118
-0.59217
-0.19340
-0.36226
0.55303
-0.44521
0.30955
0.42569
0.25912
-0.42795
0.16932
-0.12607
-0.21311
0.34218
0.49398
0.28726
0.48824
-0.54751
-0.21108
0.08795
-0.27807
-0.01686
0.38337
-0.57315
0.37091
-0.33433
-0.20006
-0.19969
-0.15978
-0.27121
-0.06020
0.30821
-0.38866
-0.12502
-0.37866
-0.25130
0.55653
0.06437
0.58629
0.41419
0.57386
-0.04517
0.78853
-0.16220
-0.10650
0.54781
0.58958
0.61517
0.65074
-0.09514
-0.20312
-0.00193
-0.11536
-0.09711
0.67936
0.13404
0.70892
0.17109
-0.16030
0.03024
-0.16029
-0.16873
-0.16760
0.51401
-0.02659
-0.06145
0.04969
-0.03067
0.81205
0.33191
-0.25620
-0.22988
-0.14270
0.23768
-0.28856
0.28107
0.27817
-0.28433
-0.60693
-0.17253
-0.34841
0.28257
0.20324
0.15928
0.37158
0.13583
-0.36981
0.15952
-0.42246
0.31451
0.19470
0.14258
0.25937
0.34709
0.18307
-0.33064
0.25057
0.49773
0.40700
0.19069
-0.29989
-0.59488
0.50190
0.48213
0.21614
-1.00179
0.37756
-1.29520
-0.54313
0.29818
0.43232
0.13228
0.34424
-0.70811
-0.97782
-2.36788
-0.66355
-3.56410
0.31143
-0.64921
0.33327
-1.15591
-0.70634
-1.49991
-0.87886
-0.63947
-1.00871
0.50126
-0.94937
-0.54735
-0.57234
-1.08807
0.44784
0.09582
-0.42371
-0.36459
-0.60652
0.28356
-0.22875
0.28637
0.37048
-0.34968
-0.28763
-0.39813
-0.47553
0.25559
0.10967
0.16416
0.29943
0.15727
-0.38488
0.20925
-0.50986
0.30551
0.23471
0.05211
0.31985
0.20355
0.23214
-0.24718
0.07997
0.19544
0.17531
0.41548
-0.49777
0.51545
-0.10061
-0.27348
-0.21753
0.34940
-0.48213
0.39902
0.35931
-0.29887
-0.46018
-0.20157
-0.44439
0.27427
0.23006
0.23272
0.42338
0.25609
-0.16545
0.31286
-0.29330
0.42211
0.42040
0.41351
0.46169
0.46325
0.19229
-0.24788
0.16977
0.31431
0.29704
0.31720
-0.44900
0.36247
-0.50784
-0.71617
-1.74191
0.27444
-1.43593
0.37049
0.42835
-0.67975
-0.61522
-1.33602
-0.80333
0.44142
0.17185
0.16195
0.38780
0.22358
-0.86887
0.46562
-0.75029
0.37703
0.31665
0.35129
0.47525
0.48840
0.40932
-1.09378
0.30027
0.31454
0.55154
0.27702
-0.96742
0.34474
-1.03160
-0.52208
-0.85409
0.22492
-0.57922
0.45260
0.45041
-0.65341
-0.54404
-0.90486
-0.53145
0.23314
0.52561
0.21000
0.26105
0.19804
-1.01871
0.23059
-0.86906
0.32512
0.40261
0.13453
0.23925
0.17317
0.37127
-0.72859
0.32100
0.41762
0.20791
0.61666
-0.78202
0.31479
-0.48040
-0.51395
-0.04192
0.38500
-0.41694
0.24979
0.26568
-0.32191
-0.20668
-0.06162
-0.35961
0.24351
0.35907
0.14828
0.40722
0.24774
-0.41422
0.30197
-0.38908
0.31736
0.34220
0.26740
0.26802
0.35631
0.40683
-0.34650
0.31186
0.33094
0.43611
0.32597
-0.31818
-0.29200
0.28648
0.08699
0.09161
-0.19535
0.04451
-0.12356
-0.09886
0.22324
0.07953
0.08757
0.17994
-0.32963
-0.53241
-0.55000
-0.19145
-0.54599
0.03562
-0.52261
0.06871
-0.29677
-0.22769
-0.38327
-0.35360
-0.28709
-0.60411
0.12239
-0.45265
-0.35130
-0.22542
-0.24853
0.19271
0.11769
0.24578
0.33423
0.42104
0.12367
0.36030
0.09669
0.06859
0.35252
0.20332
0.43192
0.21414
0.13736
0.15182
0.28142
0.15763
0.07326
0.22686
0.04914
0.26024
0.36984
0.22859
0.33211
0.28237
0.15269
0.06413
0.23594
-0.00432
0.11229
0.03701
0.09646
0.38587
-0.29540
0.35728
0.24026
0.29116
-0.34389
0.31543
-0.19993
-0.91349
0.14122
0.36375
0.35385
0.41826
-0.52877
-0.37458
-0.08156
-0.25221
-0.26781
0.33476
-0.28574
0.40130
-0.52123
-0.80702
-0.79571
-0.58057
-0.18400
-0.20439
0.26307
-0.17159
-0.41543
-0.32633
-0.27499
0.28369
-0.30362
0.10649
0.14156
0.04548
-0.61846
0.02832
-0.10800
-0.32203
0.12137
0.17607
-0.06515
0.07791
-0.27789
-0.50017
-0.24659
-0.26208
-0.46227
0.13620
-0.20664
0.14994
-0.43695
-0.33794
-0.50789
-0.61285
-0.35886
-0.23927
0.14209
-0.40631
-0.39760
-0.14171
-0.24518
0.17380
0.51999
-0.23320
-0.30878
-0.28276
0.42807
-0.19560
0.23867
0.32404
-0.55509
-0.34389
-0.39375
-0.43212
0.29437
0.50766
0.19464
0.30311
0.30573
-0.38702
0.28331
-0.36230
0.43572
0.50710
0.30351
0.50072
0.42466
0.21113
-0.15071
0.30080
0.48694
0.44098
0.54895
-0.61178
0.11053
-0.30387
-0.21484
-0.71785
0.05202
-0.56971
0.17913
-0.54799
-0.30464
-0.54538
-0.42241
-0.31277
0.00725
-0.00747
-0.16259
0.11699
-0.12802
-0.42491
0.03347
-0.58127
-0.16892
0.25088
0.13648
-0.01148
0.01827
-0.28583
-0.77422
-0.33899
0.04618
0.06281
0.07669
-0.61111
-0.04664
0.49655
0.40657
0.35472
0.01648
0.39771
-0.01068
-0.29911
0.36482
0.63517
0.27056
0.43489
-0.01177
-0.09179
0.21631
-0.12339
0.09648
0.53482
-0.12308
0.42295
0.16720
0.00147
0.11290
-0.04601
0.02554
0.10097
0.39840
-0.03091
-0.02051
-0.16356
-0.02932
0.45322
0.35018
-0.50715
-0.64165
-1.62448
0.26653
-2.06886
0.42986
0.35424
-1.02646
-0.46883
-1.76417
-0.65243
0.30375
0.34732
0.24022
0.32719
0.27295
-0.94640
0.45512
-0.45559
0.16993
0.32372
0.14140
0.38466
0.37871
0.40636
-0.90214
0.38944
0.28702
0.37148
0.34484
-1.01233
-0.43020
0.36143
0.31785
0.21656
-0.12961
0.31236
-0.57368
-0.29147
0.36104
0.29920
0.20211
0.20054
-0.43687
-0.26770
-0.65769
-0.40251
-0.27766
0.24966
-0.37752
0.40511
-0.35720
-0.24005
-0.31863
-0.24930
-0.57906
-0.28387
0.35938
-0.19067
-0.11999
-0.15735
-0.20135
0.48219
0.34005
-0.47839
-0.50591
-1.98349
0.26766
-1.89471
0.40695
0.52740
-0.80342
-0.80945
-1.68675
-0.65442
0.48361
0.43435
0.23122
0.62462
0.18465
-0.86730
0.52840
-0.69689
0.26582
0.35825
0.50767
0.22957
0.43553
0.47619
-0.87184
0.35056
0.53825
0.56941
0.40926
-0.84614
0.48148
-0.41458
-0.46086
-0.58056
0.41456
-0.27594
0.49204
0.55256
-0.36738
-0.39084
-0.58168
-0.54771
0.42792
0.66032
0.43594
0.38191
0.36763
-0.28879
0.55145
-0.45021
0.60275
0.68554
0.35510
0.39251
0.37149
0.48178
-0.50467
0.64405
0.44003
0.35591
0.43168
-0.33139
0.37637
-0.45844
-0.46922
-0.18375
0.43771
-0.55252
0.40447
0.38835
-0.55980
-0.36393
-0.27075
-0.59121
0.32780
0.10285
0.21637
0.45628
0.13346
-0.36309
0.33038
-0.57430
0.31420
0.37401
0.31403
0.37283
0.30618
0.24381
-0.34143
0.34737
0.38498
0.34915
0.26375
-0.43093
0.07593
-0.25583
-0.25573
-0.63402
0.03819
-0.79101
-0.00618
0.08834
-0.28532
-0.54954
-0.32501
-0.29907
0.06259
-0.26492
-0.03624
0.03530
0.02289
-0.59193
0.12171
-0.27941
-0.03447
-0.04235
-0.03899
0.02426
0.05720
0.08333
-0.47751
0.06627
0.07185
0.15210
0.01708
-0.38049
0.48383
-0.43226
-0.34250
-0.34619
0.46927
-0.09888
0.30062
0.51795
-0.08352
-0.12489
-0.23637
-0.37810
0.30960
0.30000
0.24525
0.34224
0.10094
-0.24227
0.32945
-0.24461
0.30701
0.27931
0.16973
0.16603
0.44581
0.29680
-0.42563
0.18937
0.49039
0.33120
0.29744
-0.36648
0.14941
-0.28868
-0.39103
-0.34480
0.13097
-0.27916
0.01778
0.30625
-0.32877
-0.36346
-0.11895
-0.35879
0.11313
0.22274
0.03162
0.33330
0.09447
-0.49485
0.27709
-0.29672
0.08743
0.10791
0.09716
0.13425
0.27026
0.23780
-0.26584
0.13080
0.17311
0.30046
0.14072
-0.40075
0.12271
-0.44794
-0.20121
-0.60646
0.17661
-0.69838
-0.08952
0.12288
-0.81435
-0.32756
-0.62597
-0.27371
0.03941
0.11466
-0.03209
0.11332
-0.08268
-0.34760
0.19262
-0.92449
0.12180
-0.02049
-0.05546
0.04046
0.10188
-0.29654
-0.48287
0.09880
0.07901
0.10452
-0.70858
-0.54124
-0.53951
0.55362
0.24751
0.55814
-0.64007
0.51357
-0.53258
-0.78913
0.38861
0.52786
0.48484
0.44424
-0.77782
-0.93042
-0.23662
-0.13255
-0.32051
0.49367
-0.71499
0.69709
-0.83309
-0.58590
-0.47342
-0.45273
-0.52776
-0.38963
0.27801
-0.45580
-0.90140
-0.53327
-0.97054
0.43668
-0.39172
0.51706
0.60778
0.29283
-0.58337
0.35651
-0.48481
-0.14497
0.46326
0.53399
0.29563
0.49194
-0.28394
-0.47479
-0.04713
-0.17603
0.04582
0.49265
-0.46162
0.66805
-0.83276
-0.73851
-0.24348
-0.33488
-0.37242
-0.29404
0.39061
-0.29215
-0.22740
-0.44626
-0.42073
0.66279
0.31769
0.07988
0.10875
0.28450
0.20924
0.28120
0.33627
0.27535
0.30420
0.16906
0.34278
0.17522
0.13044
0.23239
0.42567
0.22931
0.28798
0.15579
0.15324
0.10555
0.44586
0.24133
0.42518
0.16340
0.08889
0.36772
0.13057
0.19575
0.21150
0.06372
0.21332
0.20867
-0.23487
0.15453
0.22048
0.03978
-0.63030
0.06040
-0.33890
-0.29095
0.25052
0.18143
0.03243
0.20779
-0.26085
-0.23874
-0.15656
-0.31635
-0.38727
0.12772
-0.32401
0.20827
-0.17764
-0.51276
-0.40053
-0.38760
-0.39095
-0.15425
0.15108
-0.28293
-0.40038
-0.33866
-0.48372
0.17149
-1.06781
0.37822
0.30441
0.16892
-0.44185
0.28098
-0.46040
-0.41177
0.27123
0.55343
0.22028
0.30018
-0.21045
-0.28340
-0.13777
-0.26926
-0.14119
0.20587
-0.41409
0.29102
-0.26112
-0.42857
-0.56146
-0.43104
-0.70394
-0.45543
0.43196
-0.35858
-0.33402
-0.36817
-0.55778
0.31011
0.18789
-0.55716
-0.33042
-0.52384
0.14352
-0.60930
0.03542
0.23851
-0.47032
-0.52053
-0.49547
-0.27705
0.14763
0.04240
0.08430
0.15538
0.03164
-0.39925
0.32636
-0.24430
0.05947
0.00661
0.01459
0.12483
0.36407
0.09343
-0.36843
0.25622
0.21865
0.16621
0.25041
-0.46760
-0.52220
0.51735
0.44093
0.22938
-0.54770
0.18251
-0.23795
-0.23153
0.35898
0.52512
0.33222
0.33293
-0.16926
-0.28789
-0.21835
-0.55470
-0.07334
0.37416
-0.42074
0.54503
-0.24182
-0.39323
-0.25350
-0.27758
-0.40813
-0.22827
0.36589
-0.29253
-0.54312
-0.27199
-0.36632
0.55375
0.29931
-0.31538
-0.33643
-0.04445
0.33130
-0.35760
0.31967
0.29685
-0.54878
-0.66006
-0.08708
-0.36547
0.45584
0.49732
0.17453
0.61601
0.11810
-0.33327
0.46648
-0.25618
0.34924
0.49919
0.34123
0.36624
0.43443
0.52686
-0.33783
0.58085
0.44696
0.36539
0.34837
-0.37445
0.34313
-0.34987
-0.42563
-0.36649
0.30483
-0.18872
0.25737
0.31877
-0.08477
-0.23293
-0.14496
-0.46588
0.36953
0.23116
0.11745
0.15770
0.05504
0.05316
0.27938
-0.20416
0.17365
0.42381
0.30347
0.43150
0.40834
0.27731
-0.26331
0.21423
0.47412
0.43658
0.49174
-0.24408
0.63822
-0.33101
-0.62029
-0.47611
0.61534
-0.26312
0.54643
0.50901
-0.61774
-1.08342
-0.23168
-0.19834
0.51800
0.73229
0.42490
0.37397
0.40530
-0.67782
0.49843
-0.85965
0.51716
0.63593
0.55289
0.45120
0.51540
0.62599
-0.27979
0.52348
0.55921
0.44462
0.62034
-0.63206
0.55194
-0.51356
-0.68314
-1.83813
0.43513
-1.50509
0.38774
0.41338
-1.09588
-0.82615
-2.09499
-0.44136
0.42034
0.22511
0.22647
0.22328
0.18975
-0.66661
0.48242
-0.59647
0.35790
0.54128
0.22428
0.44871
0.43043
0.38157
-1.27942
0.35187
0.31226
0.59236
0.48308
-0.84431
-0.43675
-0.41031
-0.22141
-0.76589
0.07480
-0.58971
-0.01203
0.12864
-0.92422
-0.46588
-0.63458
-0.31519
0.05694
0.08407
-0.02619
0.07866
0.08743
-0.48333
0.14449
-0.85136
-0.03185
-0.03419
0.02709
0.04546
0.07260
0.09069
-0.33879
-0.00304
0.00609
-0.00161
0.11677
-0.74330
-0.40438
0.05082
0.17034
0.01341
-0.46651
0.10358
-0.05955
-0.28406
0.14434
0.06480
0.01375
0.10290
-0.35430
-0.45466
-0.60428
-0.20715
-0.48677
0.02529
-0.09020
0.06106
-0.39979
-0.27738
-0.69217
-0.73261
-0.18600
-0.42582
0.02626
-0.32249
-0.41770
-0.38399
-0.20204
0.11628
0.18472
-0.49349
-0.62447
-0.53921
0.28055
-0.67436
0.15029
0.35518
-1.00736
-0.44229
-0.65349
-0.64530
0.26707
0.36306
0.24744
0.23793
0.06448
-0.80794
0.33983
-0.48014
0.17333
0.56692
0.11786
0.20636
0.39802
0.42030
-0.69825
0.11693
0.41256
0.19660
0.11675
-0.71445
0.21238
-0.81170
-0.67783
-0.13956
0.33986
-0.17048
0.25296
0.49323
-0.36707
-0.63912
-0.36564
-0.55661
0.20692
0.43958
0.15278
0.23261
0.25185
-0.76059
0.21222
-0.17495
0.18952
0.31330
0.16678
0.55847
0.46574
0.25467
-0.40736
0.30867
0.37072
0.59436
0.21095
-0.57731
0.40586
-0.43990
-0.37079
-0.10367
0.36620
-0.08410
0.33779
0.37189
-0.03569
-0.58133
-0.03311
-0.20761
0.51672
0.42861
0.37280
0.12906
0.22764
-0.38230
0.64729
-0.26233
0.36909
0.44497
0.47133
0.59616
0.51929
0.39289
-0.18634
0.59584
0.56904
0.33012
0.41670
-0.29123
0.42883
-0.25908
-0.33317
-0.25333
0.42010
-0.34213
0.35256
0.21124
-0.23368
-0.30271
-0.55888
-0.25889
0.51666
0.28764
0.04130
0.20734
0.10533
-0.55111
0.38407
-0.43043
0.34457
0.19312
0.29439
0.27826
0.42090
0.29831
-0.57232
0.23766
0.28663
0.11831
0.36108
-0.47578
-0.39485
0.20070
0.37110
0.08174
-0.22507
0.16799
-0.32649
-0.38455
0.37406
0.47097
0.41802
0.15439
-0.75723
-0.49157
-0.13376
-0.22303
-0.40521
0.35848
-0.38000
0.32147
-0.28564
-0.30633
-0.18003
-0.39896
-0.59997
-0.10742
0.47540
-0.19467
-0.24325
-0.47969
-0.12843
0.30783
-0.43369
0.19350
0.40391
0.20609
-0.22010
0.14167
-0.35873
-0.42016
0.27982
0.55829
0.18118
0.17767
-0.36511
-0.45384
-0.55264
-0.29541
-0.48864
0.36657
-0.27311
0.12832
-0.46080
-0.28627
-0.16704
-0.29383
-0.54165
-0.32638
0.26541
-0.67548
-0.28195
-0.21956
-0.39647
0.36614
0.21843
-0.28530
-0.48223
-0.41861
0.26090
-0.30276
0.06946
0.21311
-0.11422
-0.51796
-0.42891
-0.37542
0.22227
0.24558
0.15341
0.18405
0.23523
-0.33256
0.31011
-0.38970
0.29896
0.20111
0.30813
0.41262
0.37348
0.15025
-0.37492
0.24911
0.43266
0.28592
0.28971
-0.20949
0.29505
-0.25873
-0.39090
-0.29519
0.37326
-0.38546
0.14359
0.34467
-0.24904
-0.35398
-0.09829
-0.43858
0.31114
0.28540
0.15682
0.35511
0.22328
-0.21094
0.42218
-0.38175
0.18155
0.40275
0.21728
0.37982
0.36354
0.28858
-0.31583
0.23743
0.31909
0.39760
0.18325
-0.33397
-0.34009
0.41679
0.34750
0.28030
-0.44715
0.29598
-0.33574
-0.59899
0.33215
0.37938
0.27534
0.27915
-0.41140
-0.18601
-0.13072
-0.11956
-0.23384
0.29726
-0.40326
0.21736
-0.46916
-0.36592
-0.42904
-0.12262
-0.26276
-0.42850
0.24605
-0.58581
-0.19005
-0.37872
-0.60400
0.32704
0.43262
-0.42683
-0.29737
-0.07120
0.54515
-0.18903
0.26240
0.44980
-0.23389
-0.30741
-0.09924
-0.47530
0.40338
0.36101
0.15175
0.60044
0.28537
-0.24568
0.52895
-0.38688
0.32434
0.45574
0.25490
0.42933
0.47161
0.28553
-0.40979
0.30377
0.37425
0.39090
0.44153
-0.39789
-0.10786
0.42674
0.22665
0.24576
-0.49519
0.31465
-0.42822
-0.41178
0.45096
0.33746
0.29602
0.35926
-0.12412
-0.22116
-0.09130
-0.23086
-0.07228
0.50764
-0.35200
0.43890
-0.25491
-0.19673
-0.22167
-0.34903
-0.28760
-0.23938
0.34310
-0.48983
-0.14021
-0.05325
-0.28272
0.48115
-1.13733
-0.29164
-0.34632
-0.44789
-1.17668
-1.11879
-1.75074
-0.66508
-1.17520
-0.11453
-0.75960
-1.86729
-0.41973
-1.06569
-0.65919
0.11069
-1.14839
-0.34882
-0.01518
-0.59219
-0.87269
-0.96619
-1.44223
-1.67343
-0.07408
-1.30282
-1.32349
-1.52424
-0.37420
0.03197
-0.79815
-1.10329
-0.39062
0.26129
0.32394
0.07758
-0.30729
0.09915
-0.25688
-0.43324
0.22476
0.29474
0.09343
0.33667
-0.33548
-0.27255
-0.05112
-0.35123
-0.41754
0.09844
-0.29504
0.29172
-0.41664
-0.37505
-0.39597
-0.20171
-0.33652
-0.28457
0.27342
-0.42873
-0.49566
-0.25967
-0.61712
0.26662
0.28988
-0.24631
-0.42906
-0.22512
0.34238
-0.07396
0.27252
0.40901
-0.17328
-0.18797
-0.44316
-0.34932
0.45586
0.27498
0.16940
0.38216
0.29100
-0.46084
0.45045
-0.18152
0.19880
0.36292
0.20961
0.39901
0.42617
0.31269
-0.33023
0.42081
0.22503
0.49361
0.21693
-0.29465
0.44858
-0.49474
-0.63842
-2.25334
0.64997
-2.37930
0.47839
0.31148
-1.05064
-0.67569
-2.39544
-0.70961
0.40190
0.35026
0.17516
0.51441
0.18527
-1.08339
0.57623
-0.55235
0.26411
0.41960
0.23370
0.52110
0.45981
0.36849
-1.11314
0.52309
0.43914
0.54835
0.39970
-0.91744
0.25660
-0.43372
-0.24447
-0.65319
0.21316
-0.43765
0.44053
0.32399
-0.39513
-0.48027
-0.46873
-0.32384
0.33997
0.20497
0.15319
0.20481
0.18315
-0.24401
0.32380
-0.45555
0.28994
0.32323
0.18042
0.23696
0.21318
0.19788
-0.18044
0.36288
0.15364
0.25585
0.27481
-0.36440
0.11471
-0.32192
-0.55699
-0.51033
0.30383
-0.31616
0.16691
0.38636
-0.71251
-0.48505
-0.30927
-0.49210
0.13057
0.19038
0.08599
0.20602
0.21652
-0.35902
0.20364
-0.40123
0.14115
0.20084
0.02456
0.24075
0.15591
0.10591
-0.57478
0.15022
0.18622
0.30441
0.35715
-0.49129
-0.18527
0.27009
0.31262
0.29334
-0.40155
0.26803
-0.17315
-0.45238
0.39935
0.39366
0.23475
0.33092
-0.42190
-0.52002
-0.28455
-0.35322
-0.56203
0.32759
-0.29505
0.25820
-0.20340
-0.41187
-0.18943
-0.36621
-0.39921
-0.27722
0.34234
-0.37873
-0.36966
-0.25415
-0.31623
0.45219
0.33423
-0.27029
-0.44040
-0.31126
0.47687
-0.33458
0.34196
0.32662
-0.42907
-0.23144
-0.48198
-0.17866
0.40924
0.38835
0.25282
0.22328
0.36125
-0.26075
0.25399
-0.36294
0.37661
0.44059
0.52015
0.32283
0.31856
0.30083
-0.32296
0.33593
0.42136
0.26370
0.41302
-0.31362
0.23578
-0.22657
-0.61532
-0.46519
0.51245
-0.14657
0.30648
0.53915
-0.16984
-0.53738
-0.34346
-0.74086
0.60018
0.33011
0.02216
0.61132
0.16756
-0.53259
0.32958
-0.23883
0.45530
0.31979
0.33831
0.32528
0.57156
0.38053
-0.48759
0.54327
0.47904
0.37176
0.34977
-0.44836
0.19753
-0.14549
-0.18831
-0.41116
0.04091
-0.53568
-0.01214
-0.08198
-0.25815
-0.36431
-0.33885
-0.22069
0.06635
0.11809
0.11867
0.05481
0.04157
-0.48217
0.11834
-0.23591
0.03571
-0.08640
-0.00331
0.03840
0.06073
0.11242
-0.22927
0.06883
-0.01146
0.17706
0.07595
-0.40071
0.39620
-0.08993
-0.01719
-0.17396
0.41332
-0.02343
0.37134
0.54482
-0.12436
-0.26740
-0.18769
-0.08604
0.47716
0.51689
0.40783
0.35663
0.08293
-0.44250
0.33929
-0.43430
0.40631
0.59821
0.32030
0.54355
0.45148
0.35284
-0.22517
0.49174
0.42062
0.43346
0.64472
-0.24086
