#ifndef WEIGHTS_H
#define WEIGHTS_H

static float weights1[] = {
    -0.327800,
    -0.232940,
    0.190850,
    0.395710,
    -0.208720,
    0.140150,
    -0.116860,
    -0.282840,
    -0.090350,
    0.616040,
    -0.403980,
    0.081540,
    0.242160,
    0.080690,
    -0.291350,
    -0.160620,
    -0.042780,
    -0.288770,
    0.131920,
    -0.028700,
    -0.058680,
    0.091330,
    -0.330570,
    0.262000,
    -0.371830,
    -0.400790,
    -0.469240,
    -0.096620,
    0.385370,
    0.078060,
    0.428600,
    -0.122160,
    -0.030710,
    -0.003180,
    -0.520290,
    -0.311660,
    0.272680,
    0.451180,
    -0.354140,
    -0.038580,
    0.081090,
    -0.231950,
    -0.017270,
    -0.463860,
    -0.555410,
    -0.315510,
    0.142190,
    -0.286860,
    -0.601930,
    0.048970,
    -0.011630,
    -0.035060,
    -0.079720,
    -0.263000,
    -0.216900,
    0.592980,
    0.303410,
    0.035330,
    0.370320,
    0.144800,
    -0.350960,
    -0.094750,
    0.277750,
    -0.451610,
    -0.240450,
    0.068490,
    0.090160,
    -0.019720,
    -0.109330,
    -0.296720,
    -0.298900,
    -0.461540,
    0.165410,
    -0.292820,
    -0.359720,
    -0.141510,
    -0.076770,
    0.293870,
    0.056790,
    -0.053440,
    0.004440,
    0.179420,
    0.331300,
    -0.401900,
    0.086880,
    0.345680,
    0.143620,
    0.006210,
    0.097030,
    0.190700,
    0.396640,
    0.138530,
    0.290970,
    0.428650,
    0.173540,
    -0.140300,
    -0.677800,
    0.310400,
    -0.277220,
    -0.355870,
    0.012950,
    -0.414230,
    0.083330,
    0.264290,
    -0.205570,
    -0.203670,
    0.561810,
    -0.379750,
    0.085500,
    -0.126490,
    0.126990,
    -0.121100,
    -0.245940,
    -0.088420,
    0.355780,
    -0.155430,
    -0.143270,
    0.251460,
    0.252100,
    -0.615950,
    -0.104650,
    -0.515110,
    0.460840,
    0.664800,
    0.162280,
    0.406200,
    -0.276660,
    0.383590,
    0.096410,
    -0.073280,
    -0.015250,
    0.110600,
    -0.478340,
    -0.190290,
    -0.042130,
    0.212730,
    0.093190,
    -0.530760,
    -0.404780,
    -0.512590,
    0.494100,
    0.036860,
    -0.284270,
    0.039730,
    0.191420,
    -0.503500,
    -0.046880,
    0.038080,
    -0.084810,
    0.113180,
    0.023180,
    0.139520,
    0.526350,
    0.116580,
    0.317410,
    0.145910,
    0.402880,
    -0.312260,
    -0.089730,
    0.210400,
    0.177930,
    0.277120,
    -0.132360,
    -0.030890,
    -0.022720,
    -0.333600,
    -0.295210,
    0.666780,
    0.024720,
    -0.018100,
    -0.069120,
    0.606840,
    0.227580,
    0.194960,
    -0.229440,
    -0.007700,
    0.293550,
    -0.363590,
    -0.920110,
    -0.470180,
    -0.095700,
    -0.749140,
    -0.246150,
    -0.235130,
    -0.183830,
    -0.209450,
    -0.007640,
    0.773950,
    -0.059630,
    -0.376560,
    0.401380,
    0.193130,
    0.457840,
    0.337350,
    -0.146180,
    -0.148530,
    0.337030,
    -0.292690,
    -0.214490,
    0.006970,
    -0.272670,
    -0.722730,
    0.458280,
    0.183950,
    0.324060,
    -0.227050,
    -0.099850,
    -0.477200,
    0.207320,
    -0.404130,
    -0.116490,
    0.047900,
    0.007030,
    0.111750,
    -0.077020,
    0.102510,
    1.257810,
    -0.309700,
    0.465070,
    -0.121510,
    0.275970,
    -0.255960,
    0.424250,
    -0.419850,
    0.142620,
    0.207230,
    0.225790,
    -0.161220,
    -0.530660,
    0.278880,
    0.210410,
    -0.188650,
    0.204430,
    -0.115890,
    -0.197090,
    0.271270,
    -0.205410,
    0.770950,
    0.067920,
    0.271720,
    0.002380,
    0.443870,
    -0.646300,
    -0.101280,
    0.253660,
    -0.393850,
    -0.059940,
    -0.553420,
    -0.255570,
    -0.450210,
    -0.417250,
    0.679590,
    -0.460170,
    -0.279560,
    0.289620,
    0.199430,
    0.253210,
    -0.116320,
    0.358630,
    0.058400,
    0.162620,
    -0.160720,
    -0.429020,
    0.125180,
    0.474780,
    -0.377830,
    -0.416360,
    -0.087680,
    0.145250,
    0.425170,
    -0.144430,
    -0.471910,
    -0.497320,
    -0.178050,
    0.597500,
    -0.067000,
    -0.283430,
    -0.423770,
    -0.600920,
    0.204230,
    0.575320,
    0.093440,
    -0.621140,
    0.022440,
    -0.331110,
    -0.342290,
    -0.702570,
    -0.053490,
    0.287060,
    -0.135500,
    0.786520,
    0.300770,
    0.979520,
    -0.553210,
    -0.195330,
    0.782500,
    0.100450,
    0.006150,
    -0.217830,
    0.339470,
    0.641770,
    -0.474430,
    -0.387230,
    0.146550,
    0.263530,
    0.124740,
    0.267210,
    -0.177580,
    -0.418160,
    0.247100,
    0.123320,
    0.766920,
    -0.806750,
    -0.076550,
    0.470670,
    -0.219080,
    -0.203430,
    0.208920,
    -0.097010,
    -0.091280,
    0.313370,
    -0.072210,
    -0.320670,
    0.002960,
    -0.112510,
    -0.281950,
    -0.013150,
    0.359160,
    -0.616590,
    -0.191440,
    -0.052600,
    0.309760,
    -0.763590,
    -0.172110,
    0.105280,
    0.181150,
    0.229160,
    0.233040,
    0.489250,
    0.186800,
    0.002510,
    0.304370,
    -0.081740,
    0.011130,
    0.538850,
    -0.125880,
    0.051190,
    -0.619830,
    -0.174500,
    -0.468380,
    0.721810,
    0.279100,
    -0.650410,
    -0.304610,
    0.739920,
    0.204190,
    0.068540,
    0.364030,
    -0.239490,
    -0.075930,
    -0.439850,
    0.160580,
    0.138020,
    0.179960,
    0.224490,
    -0.020240,
    -0.319110,
    -0.013820,
    0.098090,
    -0.304570,
    0.027650,
    0.100370,
    0.131560,
    -0.040600,
    0.451940,
    0.186770,
    -0.655410,
    0.554520,
    -0.444090,
    -0.447070,
    -0.654290,
    0.236920,
    -0.498790,
    -0.165630,
    0.174690,
    0.225810,
    0.266560,
    0.182910,
    -0.279110,
    0.289020,
    0.656290,
    -0.392640,
    0.278400,
    0.331270,
    -0.334560,
    0.482800,
    -0.112710,
    0.227370,
    0.092930,
    0.164310,
    -0.035220,
    -0.408240,
    -0.177850,
    -0.642410,
    -0.190010,
    0.143770,
    0.204150,
    0.203290,
    -0.359320,
    0.008260,
    0.156160,
    0.155900,
    -0.290460,
    -0.207680,
    -0.005190,
    0.491510,
    0.262290,
    0.462770,
    0.324040,
    0.411430,
    -0.044980,
    -0.102760,
    -0.207720,
    -0.531980,
    0.140440,
    -0.582570,
    0.090880,
    -0.090860,
    -0.395170,
    -0.413990,
    -0.230950,
    0.116080,
    -0.616670,
    0.181360,
    0.240670,
    0.311840,
    -0.007950,
    0.619910,
    0.357390,
    -0.134900,
    -0.077030,
    -0.260550,
    0.310670,
    -0.168030,
    0.145730,
    0.075580,
    -0.066470,
    0.107810,
    -0.114740,
    -0.061560,
    -0.110470,
    0.145210,
    -0.112700,
    -0.712160,
    -0.185540,
    -0.279500,
    0.152020,
    0.323540,
    0.021030,
    0.078230,
    -0.187520,
    0.073770,
    -0.483440,
    -0.251150,
    0.160900,
    0.292470,
    0.232550,
    0.067900,
    0.319040,
    0.268760,
    -0.112610,
    -0.318540,
    0.402200,
    0.140260,
    -0.192780,
    0.240550,
    0.396850,
    -0.212870,
    -0.182420,
    -0.280190,
    -0.208010,
    0.438730,
    -0.177810,
    0.666710,
    0.115910,
    0.088210,
    0.000370,
    -0.288720,
    -0.564370,
    -0.399840,
    0.028380,
    -0.131580,
    0.721180,
    0.087390,
    -0.087490,
    0.319310,
    -0.176450,
    0.303230,
    0.674000,
    0.126150,
    0.477380,
    0.140390,
    -0.040960,
    -0.305260,
    -0.271650,
    -0.473000,
    -0.519820,
    -0.873670,
    0.156050,
    -0.238970,
    -0.399800,
    -0.235450,
    -0.239530,
    0.083430,
    -0.079750,
    0.428760,
    0.257270,
    -0.696150,
    -0.220730,
    -0.000010,
    0.242520,
    -0.274440,
    -0.170600,
    0.007200,
    -0.063560,
    0.041280,
    -0.309250,
    0.130970,
    -0.316910,
    0.194830,
    -0.201220,
    -0.498580,
    -0.508070,
    -0.194650,
    0.171480,
    0.303360,
    -0.416790,
    -0.452860,
    -0.126310,
    -0.186810,
    -0.250330,
    -0.432010,
    -0.772550,
    0.041720,
    0.020970,
    0.218330,
    -0.096500,
    -0.482180,
    0.109540,
    0.296580,
    -0.061580,
    -0.176120,
    0.677740,
    -0.108440,
    -0.470780,
    -0.355610,
    0.156470,
    0.179790,
    -0.363240,
    0.093830,
    0.273200,
    -0.054190,
    -0.048820,
    0.396530,
    0.257050,
    -0.140490,
    -0.392460,
    0.555080,
    -0.490760,
    -0.123160,
    0.474970,
    -0.317640,
    0.208860,
    -0.467170,
    0.045530,
    -0.402920,
    -0.146660,
    -0.170880,
    0.012620,
    0.428870,
    -0.199660,
    -0.340080,
    0.524310,
    0.595900,
    -0.103570,
    0.209910,
    -0.369420,
    0.130110,
    0.234990,
    0.303880,
    -0.537830,
    0.663550,
    0.055340,
    0.134970,
    -0.036650,
    0.026610,
    0.171670,
    -0.011150,
    -0.012180,
    -0.166090,
    -0.213690,
    -0.135380,
    -0.304560,
    0.006490,
    0.244230,
    0.060870,
    -0.200690,
    0.071110,
    0.277550,
    -0.015030,
    -0.956920,
    0.324810,
    0.002660,
    -0.283860,
    -0.257100,
    -0.586240,
    -0.222270,
    -0.107360,
    0.232790,
    -0.100190,
    -0.034690,
    -0.486470,
    -0.423160,
    0.620170,
    -0.149370,
    0.296240,
    0.227510,
    0.486370,
    0.116880,
    0.196380,
    -0.337070,
    -0.120680,
    0.087850,
    -0.285580,
    0.143240,
    -0.519900,
    0.426280,
    -0.130830,
    -0.058730,
    0.050880,
    0.459470,
    0.055510,
    0.099360,
    0.160410,
    0.507350,
    0.215200,
    0.389950,
    0.180380,
    0.107370,
    0.028300,
    0.295920,
    0.074250,
    0.189010,
    -0.078970,
    -0.315560,
    0.022400,
    -0.526410,
    0.159940,
    -0.321190,
    -0.192920,
    0.475100,
    -0.040910,
    0.093340,
    -0.272720,
    0.381640,
    0.359980,
    -0.380140,
    -0.112320,
    -0.440580,
    -0.124670,
    -0.157740,
    0.425520,
    0.469280,
    -0.137040,
    0.554060,
    0.385930,
    0.270310,
    0.256470,
    -0.030690,
    -0.245770,
    -0.476770,
    0.292370,
    0.078860,
    0.194570,
    -0.428240,
    -0.140610,
    0.015940,
    -0.038200,
    0.100960,
    -0.249670,
    0.174280,
    0.011920,
    0.239050,
    0.320420,
    1.077020,
    0.173800,
    0.105080,
    -0.391560,
    -0.132550,
    0.173540,
    0.059230,
    0.648650,
    0.718300,
    -0.394170,
    0.576590,
    0.280000,
    0.049330,
    0.615220,
    0.273740,
    0.120710,
    0.212300,
    -0.111890,
    -0.013340,
    0.080090,
    0.218190,
    0.136190,
    0.267420,
    0.429190,
    -0.277240,
    0.342730,
    0.665870,
    -0.107450,
    0.063340,
    -0.294050,
    0.035180,
    0.020760,
    0.131040,
    -0.254440,
    0.176820,
    -0.173940,
    0.433670,
    -0.624280,
    0.201660,
    -0.723780,
    -0.067980,
    -0.230770,
    0.085070,
    -0.388770,
    -0.126110,
    -0.046180,
    0.364710,
    -0.176570,
    -0.054900,
    0.202680,
    0.397630,
    0.408180,
    -0.250990,
    0.302520,
    -0.107790,
    0.326680,
    0.555610,
    -0.120610,
    0.186820,
    0.765370,
    -0.795840,
    -0.169750,
    0.047020,
    -0.086690,
    -0.234650,
    -0.025590,
    0.040890,
    -0.286910,
    -0.223830,
    -0.349680,
    -0.393100,
    -0.172240,
    0.154530,
    -0.194850,
    0.050180,
    -0.264960,
    -0.009740,
    -0.031800,
    -0.119150,
    0.358320,
    0.084850,
    0.192840,
    -0.096030,
    -0.298760,
    0.072650,
    0.272330,
    -0.021480,
    0.155150,
    -0.097570,
    -0.044390,
    -0.024470,
    -0.019020,
    0.158550,
    -0.127800,
    0.785150,
    -0.256820,
    0.211860,
    0.182410,
    -0.188040,
    -0.143390,
    0.242330,
    -0.143270,
    0.301010,
    0.024000,
    -0.218240,
    -0.259610,
    -0.670460,
    0.272620,
    0.109810,
    -0.066810,
    -0.148990,
    0.323650,
    0.118360,
    -0.265320,
    0.173430,
    0.057040,
    -0.045110,
    -0.350580,
    0.410890,
    0.237960,
    0.218610,
    -0.308100,
    0.189670,
    0.536020,
    0.001140,
    -0.718440,
    -0.152160,
    0.361880,
    0.380330,
    0.161090,
    -0.486410,
    0.382360,
    -0.138340,
    -0.206810,
    -0.242070,
    -0.489350,
    -0.370580,
    0.009990,
    0.260180,
    -0.361210,
    -0.676050,
    0.098250,
    -0.238720,
    -0.284370,
    0.063830,
    0.780810,
    0.183320,
    0.204730,
    -0.089590,
    0.118430,
    -0.381700,
    0.423960,
    0.050530,
    -0.104750,
    -0.153550,
    0.331930,
    0.451590,
    -0.240920,
    0.329990,
    -0.281660,
    0.026550,
    -0.659200,
    -0.158250,
    -0.082320,
    -0.148180,
    -0.136810,
    0.201870,
    0.093530,
    -0.502580,
    -0.060070,
    0.035650,
    0.049440,
    -0.990300,
    -0.117630,
    -0.415410,
    -0.546840,
    0.422300,
    -0.100930,
    0.355890,
    0.255820,
    -0.565670,
    -0.178820,
    0.296380,
    -0.056690,
    -0.387790,
    -0.004030,
    0.048300,
    -0.067890,
    -0.670240,
    -0.490970,
    0.408020,
    -0.141290,
    0.178150,
    -0.264290,
    -0.137570,
    -0.227920,
    0.445490,
    -0.319310,
    -0.739770,
    0.127860,
    -0.196550,
    0.429090,
    -0.130660,
    -0.376260,
    -0.676840,
    0.010220,
    -0.343930,
    -0.249570,
    0.255400,
    -0.077830,
    0.160530,
    0.241590,
    -0.342540,
    0.292270,
    0.552880,
    0.335530,
    0.372430,
    0.289520,
    0.113860,
    0.189080,
    0.245040,
    -0.536390,
    0.262830,
    0.365700,
    -0.193220,
    -0.185690,
    0.219120,
    -0.491740,
    0.358260,
    0.498790,
    0.153300,
    0.285210,
    -0.199840,
    0.561450,
    0.567700,
    0.332370,
    0.431020,
    0.079500,
    -0.249990,
    0.065770,
    0.689110,
    -0.278620,
    -0.347540,
    -0.273590,
    0.374880,
    0.376120,
    0.077160,
    0.113130,
    0.058860,
    -0.159840,
    0.322850,
    0.034300,
    -0.085220,
    -0.430850,
    -0.366210,
    0.548650,
    -0.485280,
    0.253870,
    0.034710,
    -0.124520,
    -0.049550,
    0.234680,
    -0.123800,
    0.061670,
    -0.302950,
    -0.180450,
    0.594420,
    0.192630,
    0.342610,
    0.773530,
    -0.390550,
    0.449460,
    -0.171270,
    -0.468660,
    0.296380,
    -0.700710,
    1.034440,
    0.123120,
    -0.425430,
    0.156010,
    -0.319540,
    -0.152440,
    0.315160,
    -0.026970,
    0.030390,
    0.366630,
    0.197620,
    -0.177460,
    -0.222310,
    -0.270070,
    -0.406250,
    -0.483530,
    -0.107280,
    -0.316040,
    0.062270,
    0.053970,
    -0.086220,
    -0.098400,
    -0.160770,
    -0.600800,
    -0.143120,
    0.229150,
    -0.061830,
    -0.236940,
    0.430630,
    -0.023810,
    -0.254110,
    0.723550,
    -0.169490,
    -0.181620,
    0.158040,
    -0.015260,
    -0.370040,
    0.420160,
    -0.185860,
    0.110390,
    -0.159890,
    0.036690,
    -0.109460,
    0.124580,
    -0.392810,
    -0.037970,
    0.286480,
    0.523120,
    0.178210,
    0.791830,
    -0.482950,
    0.301360,
    -0.707340,
    -0.124660,
    0.784870,
    0.102720,
    0.334160,
    -1.150720,
    0.228480,
    -0.129750,
    -0.360070,
    -0.668980,
    1.017400,
    -0.024090,
    -0.150320,
    1.486980,
    0.572810,
    -1.609190,
    -0.773930,
    -1.460870,
    -0.460950,
    0.406300,
    0.593800,
    -0.556490,
    0.088960,
    -0.391150,
    1.336050,
    -0.262240,
    0.604010,
    -0.970580,
    -1.558790,
    0.833090,
    -1.197240,
    -0.071830,
    0.323990,
    0.392200,
    0.158460,
    -0.268790,
    -0.336420,
    0.209360,
    1.159740,
    -0.225890,
    -0.958450,
    -1.345290,
    1.218880,
    0.817830,
    -1.001410,
    -0.248230,
    0.823480,
    -0.189990,
    1.174010,
    0.178390,
    0.752250,
    0.401690,
    -0.187620,
    0.033530,
    1.104120,
    -1.037820,
    0.609120,
    -0.512820,
    -0.888130,
    0.649950,
    0.195510,
    0.799370,
    0.645510,
    1.613750,
    0.073190,
    1.789690,
    0.832080,
    1.314730,
    -1.168170,
    -1.530320,
    -0.193420,
    0.591650,
    -0.192390,
    1.499000,
    -0.624380,
    -0.878410,
    -0.041070,
    0.340360,
    -0.207180,
    0.531380,
    0.227810,
    -0.189740,
    0.517620,
    0.149080,
    -1.054150,
    -0.819860,
    -1.292360,
    1.541250,
    -0.157960,
    -1.122950,
    -0.904090,
    0.193870,
    0.044060,
    -0.506960,
    -0.643530,
    -1.244070,
    0.227130,
    -0.192570,
    -0.808510,
    1.522300,
    -0.856650,
    -0.834840,
    1.074420,
    -1.635910,
    -0.720460,
    0.097070,
    0.867120,
    -0.138800,
    0.080510,
    -0.258880,
    0.008550,
    1.163050,
    -0.156590,
    -1.130700,
    -0.315600,
    1.060970,
    0.361100,
    0.961440,
    -0.406720,
    0.154480,
    -1.059980,
    1.093790,
    -0.444120,
    0.196940,
    0.140400,
    -0.644100,
    -1.126890,
    0.021340,
    0.676360,
    -0.085720,
    0.944450,
    1.282360,
    -0.188390,
    0.924000,
    -0.863860,
    0.039330,
    0.521940,
    -0.536020,
    0.682840,
    -1.111350,
    0.596100,
    0.857170,
    1.166360,
    -0.249410,
    0.298280,
    -1.458620,
    -0.552560,
    -0.329230,
    0.771850,
    -1.243360,
    -0.872790,
    -0.491530,
    -0.213630,
    -0.285420,
    0.106090,
    -0.712720,
    0.052430,
    -0.345870,
    0.120650,
    -0.107690,
    0.155510,
    -0.470110,
    0.787710,
    -0.311970,
    1.144150,
    0.672280,
    0.587920,
    -1.448960,
    -0.183320,
    -0.923170,
    0.398740,
    1.011280,
    0.852070,
    -0.985250,
    0.285420,
    0.524540,
    0.788990,
    0.395480,
    -0.139640,
    0.211810,
    -0.468370,
    -0.164840,
    0.448430,
    -0.738850,
    0.402820,
    -1.460080,
    -0.736470,
    0.915700,
    -1.011370,
    0.662110,
    -0.187570,
    1.513740,
    1.312590,
    0.588370,
    0.214070,
    0.274060,
    -1.703230,
    -2.006860,
    -0.298480,
    0.353640,
    0.074140,
    0.185130,
    -0.904350,
    -0.225620,
    0.577470,
    0.654460,
    -1.865410,
    -0.139040,
    1.293180,
    0.492680,
    0.140480,
    0.788120,
    -0.703050,
    -1.880700,
    -0.434330,
    0.659760,
    -0.476210,
    -0.115180,
    0.048930,
    -0.821220,
    0.327310,
    0.742920,
    1.140600,
    0.315540,
    0.036490,
    0.317780,
    0.292410,
    0.673420,
    -0.629740,
    -1.146190,
    0.527920,
    -0.045350,
    -0.880900,
    0.337620,
    1.133160,
    -0.008490,
    -0.426950,
    0.767140,
    -0.388260,
    -0.669420,
    -0.160200,
    -1.840800,
    0.297920,
    -0.429860,
    0.286990,
    -0.053860,
    0.207300,
    -0.118790,
    -0.478400,
    0.765420,
    0.075240,
    0.330830,
    -0.417420,
    -1.628320,
    -0.379120,
    0.106290,
    0.762360,
    0.460770,
    -0.368600,
    0.860250,
    -0.063660,
    -0.293920,
    -0.332140,
    0.173780,
    -0.636390,
    0.053340,
    1.546900,
    0.415860,
    -1.279810,
    1.318880,
    -0.307660,
    0.142590,
    0.261110,
    -0.145560,
    0.178550,
    0.424530,
    0.411080,
    -0.517790,
    0.305550,
    -1.260010,
    1.002450,
    -0.655030,
    -0.168090,
    -0.150920,
    0.296160,
    0.763480,
    1.035060,
    -0.383170,
    -0.952500,
    -1.477520,
    -1.181580,
    -1.686610,
    -1.066950,
    0.624340,
    -0.101080,
    0.782730,
    -1.421750,
    0.595970,
    -0.411700,
    0.251730,
    -1.067930,
    -0.333580,
    0.034960,
    -1.129690,
    0.452610,
    0.091360,
    0.799880,
    -0.097080,
    -0.911450,
    -0.864450,
    0.598090,
    -0.763690,
    0.595010,
    -1.698530,
    -1.192980,
    0.654220,
    -1.800330,
    0.050440,
    0.180990,
    1.094660,
    0.994560,
    -0.720620,
    0.078770,
    0.149810,
    -0.260230,
    -1.422160,
    -0.632030,
    0.559850,
    -0.991330,
    0.528670,
    -1.025730,
    0.118370,
    -0.666810,
    0.700300,
    -0.395290,
    -0.113950,
    0.873790,
    0.289870,
    0.357390,
    0.905090,
    -0.718810,
    -1.502790,
    -1.086560,
    -0.031650,
    -0.372020,
    0.196790,
    -0.467670,
    -0.878830,
    -0.035820,
    0.037840,
    1.121180,
    0.088340,
    0.577360,
    0.000490,
    -0.790980,
    0.096060,
    -0.641330,
    -1.038330,
    -1.049410,
    -0.810790,
    -0.808730,
    -0.843580,
    0.010380,
    0.302280,
    -0.208280,
    1.043970,
    -0.410100,
    0.238870,
    0.350310,
    -0.616480,
    -1.057830,
    0.358710,
    -0.468820,
    -0.309500,
    -0.748110,
    0.824640,
    -0.164430,
    -0.024680,
    0.351490,
    0.362230,
    0.236210,
    -0.503390,
    -0.280730,
    0.006780,
    0.575340,
    -0.112150,
    -0.680310,
    0.491290,
    0.983010,
    0.840270,
    -0.440470,
    -0.691050,
    -0.567330,
    0.270830,
    0.871970,
    -0.912820,
    -0.276550,
    0.783470,
    1.082560,
    0.347650,
    -0.016770,
    -1.267340,
    0.201750,
    -0.092120,
    0.667100,
    -1.163200,
    -0.343110,
    -0.871430,
    0.889970,
    -1.383170,
    0.033700,
    0.781200,
    -0.473800,
    -0.607230,
    -0.040060,
    0.325310,
    -0.282160,
    -0.101810,
    1.437690,
    -0.037380,
    0.499800,
    -0.372300,
    0.667370,
    -0.368900,
    -0.030930,
    -0.303090,
    0.570010,
    -0.386880,
    0.241930,
    -0.203310,
    1.410310,
    -0.780370,
    -0.956890,
    -0.141540,
    0.132470,
    -0.286180,
    -0.295820,
    -1.952250,
    -0.273120,
    -0.717250,
    0.585480,
    -0.737160,
    -0.152490,
    -0.201160,
    -1.337470,
    -1.059160,
    1.353940,
    0.536040,
    1.276770,
    -0.658710,
    0.035510,
    0.604920,
    -1.981680,
    -1.009520,
    -0.767410,
    0.279240,
    -0.948900,
    0.754800,
    -0.113200,
    -0.650070,
    0.103740,
    1.639190,
    -0.097130,
    0.075380,
    -0.009250,
    0.505210,
    1.084230,
    -0.280580,
    -0.025760,
    -1.875240,
    -0.272440,
    -0.166700,
    -0.096180,
    -0.441830,
    -0.056860,
    -0.888820,
    -0.338360,
    0.666010,
    1.081820,
    0.012720,
    0.169030,
    -0.989390,
    -1.178020,
    0.623230,
    0.587290,
    -1.216210,
    0.757010,
    -1.312180,
    -1.038730,
    1.027710,
    0.802180,
    0.215370,
    0.144060,
    -0.197100,
    -0.578840,
    0.670340,
    -1.634220,
    -0.272130,
    -0.782440,
    0.087940,
    -1.283440,
    0.437160,
    -0.156080,
    0.205430,
    -0.093120,
    0.181860,
    0.438100,
    0.365000,
    0.729800,
    -0.717420,
    -0.755620,
    0.297400,
    0.434270,
    -0.194530,
    0.872950,
    0.547760,
    0.996210,
    0.091970,
    0.459310,
    -0.836630,
    -0.767710,
    0.636980,
    0.502650,
    0.137910,
    0.078210,
    1.019650,
    1.170200,
    -0.359880,
    0.779820,
    -0.880150,
    -0.075700,
    -0.289260,
    0.321260,
    -1.785640,
    0.670970,
    -0.575460,
    0.191770,
    -1.133960,
    -0.338330,
    -0.339200,
    -1.843300,
    0.978480,
    0.336180,
    -0.027810,
    -1.058210,
    -1.518480,
    -0.205130,
    1.073700,
    0.688680,
    1.779100,
    0.972040,
    0.217280,
    -0.617160,
    -0.655630,
    -0.309880,
    0.845030,
    -0.357410,
    -0.909600,
    0.611320,
    -0.453880,
    0.685780,
    0.322100,
    0.399800,
    0.494960,
    -0.834170,
    -0.884380,
    0.304480,
    -0.845260,
    0.164430,
    -0.236430,
    -0.149280,
    -0.043330,
    -1.162370,
    0.517750,
    -0.811410,
    -0.643460,
    0.542980,
    -0.103740,
    0.376320,
    1.060140,
    -1.439800,
    -1.336950,
    -0.171640,
    -0.544950,
    -0.404610,
    1.200460,
    0.438240,
    -0.107710,
    0.105780,
    -0.172150,
    -0.068430,
    -0.037760,
    0.362100,
    0.323790,
    0.553490,
    -1.459180,
    0.384190,
    -1.519700,
    -0.512520,
    0.678590,
    0.472070,
    -1.213200,
    -0.389160,
    -0.235430,
    -0.193260,
    -0.630910,
    0.615680,
    -0.050860,
    0.720080,
    0.919650,
    -0.841040,
    1.035370,
    0.008710,
    -0.835110,
    0.367840,
    -1.308300,
    -1.186300,
    0.676650,
    0.256040,
    0.152310,
    0.334430,
    1.499520,
    -0.709270,
    0.676500,
    0.130800,
    -0.214040,
    -0.816380,
    0.518900,
    -0.747730,
    0.970790,
    -1.260880,
    0.864280,
    0.551240,
    0.656350,
    -0.092250,
    -0.187110,
    -1.140690,
    0.684940,
    0.330000,
    0.060210,
    0.532540,
    -0.162550,
    -0.815330,
    0.186750,
    -0.601020,
    -0.828370,
    -0.352560,
    -0.134820,
    0.922770,
    0.922770,
    0.009060,
    0.730180,
    -0.064080,
    0.814110,
    0.012110,
    -1.144670,
    -0.081320,
    0.726240,
    -0.149550,
    1.251970,
    0.151990,
    -0.654090,
    0.429410,
    -0.036360,
    0.300330,
    -1.503260,
    -0.387540,
    -0.249550,
    -0.178820,
    -0.270710,
    0.900320,
    1.098090,
    -1.068170,
    -0.022220,
    -0.784670,
    0.036760,
    1.110600,
    0.719600,
    -0.520960,
    -0.023830,
    -1.934640,
    0.652160,
    -0.075460,
    1.420490,
    0.313260,
    -0.985790,
    0.543870,
    0.600400,
    -0.578120,
    -0.597510,
    0.129080,
    -0.846940,
    0.218250,
    -0.673450,
    0.684700,
    -1.160920,
    -0.259710,
    -0.683390,
    -0.724170,
    -0.185160,
    -0.608210,
    0.300120,
    -0.544980,
    0.041740,
    0.103650,
    -0.679430,
    -0.964420,
    0.617810,
    -0.955190,
    -0.275230,
    -1.120130,
    -0.295120,
    -0.116120,
    0.399520,
    0.240670,
    -1.376280,
    0.201300,
    1.402790,
    0.057560,
    0.330820,
    -0.457690,
    0.013710,
    0.554840,
    0.178940,
    -1.064810,
    -0.779840,
    -0.494010,
    0.796520,
    -0.221380,
    -1.166750,
    -1.406300,
    -0.603030,
    0.360980,
    0.868570,
    0.902460,
    1.215200,
    0.388360,
    -1.423870,
    -0.967920,
    0.321940,
    -0.425680,
    -1.648850,
    0.723640,
    0.174330,
    0.111650,
    -0.850590,
    1.649080,
    0.227880,
    0.140740,
    0.219820,
    -0.174430,
    1.002610,
    -1.377100,
    -1.775700,
    -0.599770,
    1.014780,
    0.191730,
    1.355420,
    -1.128830,
    -0.203690,
    -1.154540,
    0.218610,
    -0.186500,
    0.293840,
    -0.073120,
    0.836170,
    0.949040,
    -0.445480,
    0.022020,
    0.040650,
    0.675250,
    0.013560,
    0.942490,
    -1.137990,
    0.675480,
    -1.030840,
    -0.667350,
    -0.773300,
    1.034990,
    0.032910,
    -1.378140,
    -0.615580,
    1.261090,
    -0.269880,
    0.029280,
    -0.681260,
    0.258690,
    0.547600,
    0.102670,
    0.516950,
    0.232570,
    -0.628760,
    0.476530,
    0.111730,
    0.082790,
    0.020620,
    -1.828100,
    0.738030,
    0.388460,
    -0.217340,
    -1.054610,
    -1.048830,
    -0.652890,
    0.412210,
    -0.152320,
    0.724820,
    0.222800,
    -0.688960,
    -1.174430,
    1.302410,
    0.913310,
    -0.690410,
    -0.209900,
    1.062940,
    0.870940,
    1.523360,
    1.283560,
    0.344060,
    0.519960,
    -0.030600,
    -1.155330,
    -0.003320,
    -0.258910,
    0.017080,
    -0.551470,
    -0.541490,
    -1.666370,
    -0.617520,
    -0.863080,
    0.320650,
    -0.081860,
    0.311830,
    0.350410,
    0.692870,
    0.822380,
    0.261060,
    -1.286880,
    -1.341050,
    0.241860,
    0.875850,
    0.059510,
    1.406850,
    -0.520580,
    -1.723250,
    0.918160,
    -0.015400,
    -0.387710,
    0.796480,
    1.005850,
    0.595300,
    0.620240,
    0.832600,
    -1.113960,
    -0.369620,
    -1.275080,
    -0.073940,
    -0.829890,
    -0.421100,
    -1.419970,
    -0.610610,
    0.774810,
    -0.908200,
    0.478410,
    -0.938120,
    0.532360,
    -0.155270,
    0.194250,
    0.371620,
    -1.101810,
    -0.207750,
    -0.104530,
    -1.406900,
    0.250520,
    -0.631800,
    0.673730,
    -0.282210,
    -0.263830,
    1.216810,
    -0.881300,
    0.479470,
    -0.814900,
    -1.533730,
    0.050750,
    0.601580,
    -0.467850,
    0.825260,
    0.087910,
    0.098500,
    -0.833140,
    -0.875280,
    0.968420,
    -0.228740,
    0.013800,
    0.097110,
    -0.023730,
    0.596870,
    -0.395880,
    0.800830,
    -0.946460,
    0.226830,
    0.116280,
    -0.417990,
    0.650190,
    0.148610,
    0.332620,
    0.537850,
    0.140770,
    -1.110530,
    -1.207470,
    1.496100,
    0.408760,
    -0.246040,
    -0.580410,
    0.603130,
    0.331100,
    -0.834710,
    0.754830,
    -1.119910,
    -0.436240,
    0.668320,
    -1.153100,
    -0.753610,
    -0.206370,
    -0.329310,
    -0.740130,
    1.140700,
    0.199990,
    0.024520,
    -0.393670,
    0.201650,
    0.780310,
    -0.325810,
    -0.021170,
    1.741730,
    0.636620,
    -1.077180,
    -0.518110,
    0.699090,
    0.414830,
    0.200410,
    0.977920,
    0.588250,
    -0.693950,
    0.370900,
    0.564530,
    0.584280,
    0.065690,
    0.863010,
    -0.635060,
    -1.231950,
    -0.797260,
    0.109390,
    0.045470,
    -1.052810,
    -1.341330,
    -0.285890,
    -0.264280,
    0.303070,
    -0.950860,
    1.137600,
    -0.116220,
    0.432810,
    -0.922570,
    0.139660,
    -2.101300,
    -0.885780,
    -0.808270,
    0.607240,
    -0.546750,
    1.020950,
    -0.600090,
    -0.966090,
    0.664590,
    1.207240,
    0.123190,
    0.365430,
    0.586270,
    0.461970,
    0.131850,
    1.262580,
    -0.502720,
    -0.725750,
    -0.488770,
    -1.621910,
    0.005440,
    0.261420,
    -0.878700,
    -0.815380,
    0.784420,
    -0.105770,
    0.499570,
    0.325320,
    0.373630,
    -1.342290,
    -0.720280,
    1.168240,
    -0.417410,
    -1.512960,
    -0.221650,
    -0.662870,
    0.402140,
    -0.669040,
    0.158000,
    0.670130,
    0.583060,
    1.180110,
    -0.715240,
    0.454090,
    0.193870,
    -0.738960,
    -0.204470,
    -0.077140,
    -0.849320,
    1.405190,
    -0.316980,
    0.701560,
    -1.133940,
    0.793990,
    0.807890,
    0.269730,
    -0.257620,
    -0.112020,
    0.146150,
    0.499110,
    -0.112700,
    -0.020580,
    -0.113370,
    -0.684600,
    -0.348060,
    0.324220,
    -0.377230,
    -0.343060,
    0.121170,
    -0.217780,
    0.414390,
    -0.348990,
    -0.703680,
    1.479410,
    -0.581060,
    0.307350,
    -0.044560,
    -0.561240,
    0.065560,
    0.266440,
    1.028750,
    0.180000,
    0.169980,
    -0.510390,
    1.038290,
    -0.290140,
    -0.261920,
    -0.007650,
    0.129030,
    0.255810,
    -0.335300,
    0.314430,
    0.194210,
    -0.120390,
    1.495700,
    0.317750,
    -0.218610,
    0.225950,
    1.029250,
    0.008640,
    -0.159070,
    1.109240,
    -0.019660,
    0.731250,
    -1.225520,
    -0.136870,
    0.227230,
    0.307970,
    0.384810,
    -0.159400,
    -0.221710,
    -0.114350,
    0.140870,
    -0.074000,
    0.412030,
    -0.915150,
    0.608140,
    -1.141580,
    -0.764730,
    0.287660,
    -0.072240,
    -0.388760,
    0.142070,
    0.319940,
    0.334930,
    -0.521340,
    0.187560,
    0.121360,
    0.045690,
    -0.506730,
    -0.501920,
    0.971870,
    0.669430,
    -0.343330,
    0.635440,
    -1.202510,
    0.406530,
    0.054400,
    -0.381430,
    -0.071180,
    0.144620,
    -0.461930,
    -1.932960,
    0.030310,
    -0.250860,
    -0.392750,
    -0.581910,
    1.071880,
    0.478940,
    0.438430,
    0.623260,
    -1.173970,
    -0.035940,
    -0.370790,
    0.043440,
    -0.212350,
    0.381250,
    -0.158730,
    -0.032620,
    1.580410,
    -1.353700,
    -1.598180,
    -0.789180,
    0.025160,
    -0.817880,
    -0.234070,
    0.228760,
    0.498440,
    0.170180,
    -1.161020,
    0.031680,
    -0.349700,
    0.014690,
    -0.337520,
    -0.092540,
    0.485530,
    -0.280960,
    0.056960,
    -1.855450,
    -0.384510,
    0.084770,
    0.441820,
    -1.138290,
    -0.326020,
    0.099250,
    0.473120,
    -0.284030,
    -0.187010,
    -0.021640,
    -0.109920,
    0.284700,
    0.469180,
    -0.751460,
    0.541000,
    -0.728460,
    -0.227140,
    -0.643840,
    -0.276380,
    1.338390,
    -0.505560,
    0.261710,
    1.146900,
    0.067290,
    0.425060,
    0.293180,
    -1.022220,
    0.378860,
    0.901440,
    0.592920,
    -0.959530,
    0.018950,
    -0.534180,
    -1.473380,
    -0.708190,
    0.866630,
    -1.160490,
    -0.455400,
    0.335680,
    -0.150000,
    0.097150,
    -0.629660,
    -0.525170,
    0.464230,
    0.742610,
    0.130500,
    0.476830,
    0.251890,
    -1.001060,
    0.006590,
    0.369420,
    0.395670,
    0.115090,
    0.515750,
    -0.303250,
    -0.605110,
    -1.182210,
    0.460280,
    0.277930,
    0.454320,
    0.844560,
    -0.649460,
    -0.228860,
    0.728310,
    -1.220590,
    0.260300,
    0.474710,
    -0.859780,
    0.235710,
    -0.457160,
    -0.480920,
    -0.309760,
    0.180880,
    0.213050,
    -1.235240,
    -0.669320,
    0.120510,
    0.436510,
    -0.246170,
    -0.563020,
    0.682020,
    0.437940,
    -0.157960,
    -0.027000,
    -0.666250,
    1.010290,
    0.259120,
    -1.308270,
    0.501650,
    0.089230,
    0.704700,
    -0.606320,
    0.263390,
    -0.859240,
    -0.214380,
    -1.749640,
    -0.063670,
    0.013530,
    1.118060,
    -0.192190,
    -1.310480,
    -0.193620,
    0.380980,
    -1.271900,
    1.055240,
    0.245850,
    -0.208560,
    -0.044770,
    1.066710,
    -0.507840,
    0.316760,
    1.101650,
    -0.833550,
    -1.138200,
    -1.069950,
    1.137970,
    -0.040710,
    -0.794880,
    0.241580,
    -0.771640,
    -0.632180,
    -1.335620,
    -0.372030,
    0.282050,
    0.833860,
    -0.041030,
    0.020100,
    -0.838180,
    0.553630,
    -1.406580,
    1.303450,
    0.308730,
    0.214730,
    0.341840,
    -1.678060,
    -0.938680,
    -0.010250,
    0.210400,
    -0.098470,
    0.507430,
    0.623290,
    1.239110,
    -0.217410,
    -0.734410,
    0.090400,
    -0.421680,
    -0.118000,
    1.003840,
    0.122950,
    -0.360070,
    -0.151060,
    -0.038180,
    0.870210,
    0.983170,
    0.575320,
    0.540220,
    0.363340,
    -0.115710,
    -0.594850,
    0.351490,
    -2.014100,
    -0.456730,
    -0.359740,
    0.605090,
    -0.020070,
    0.356200,
    0.734330,
    -0.530510,
    0.586980,
    0.607520,
    -0.593310,
    0.910910,
    0.228190,
    0.407010,
    0.178150,
    0.919090,
    0.688940,
    -0.513640,
    -0.669420,
    0.415660,
    0.727420,
    -0.842790,
    0.225760,
    0.412530,
    -0.355570,
    0.052590,
    0.092870,
    0.629020,
    0.151740,
    -0.040860,
    -0.453100,
    -0.508380,
    -0.517430,
    1.083290,
    -0.714590,
    0.183960,
    0.687810,
    -0.261420,
    0.219520,
    0.281850,
    0.950820,
    1.114390,
    0.627220,
    0.533190,
    1.127130,
    -0.219620,
    0.109790,
    -0.364570,
    1.326390,
    -0.087020,
    -0.423780,
    -0.347930,
    -0.308330,
    -0.377070,
    -0.532870,
    0.061920,
    0.217780,
    0.552910,
    0.004510,
    1.033770,
    1.143510,
    -0.279430,
    -0.789410,
    0.567650,
    -0.396110,
    -0.496680,
    -0.026400,
    -0.114200,
    -1.154570,
    0.117930,
    0.049220,
    0.633190,
    1.139180,
    0.253480,
    -0.733220,
    0.289840,
    0.493510,
    -0.389320,
    -0.239180,
    0.371400,
    -0.055700,
    -0.576230,
    -0.743280,
    0.098950,
    0.007710,
    0.209320,
    0.023650,
    -0.517880,
    0.604580,
    0.479080,
    0.071080,
    -0.549890,
    0.861830,
    -0.176850,
    0.686890,
    -1.465940,
    1.161180,
    -0.966910,
    0.390980,
    0.707800,
    0.241320,
    -0.245630,
    -0.057990,
    -0.027930,
    0.552980,
    0.172460,
    0.132180,
    -0.576670,
    0.468920,
    0.272190,
    -0.045330,
    0.589330,
    -0.465300,
    -0.865950,
    0.927680,
    0.430630,
    -0.467670,
    -1.279580,
    0.224550,
    0.482330,
    0.411320,
    0.088140,
    -0.595860,
    -0.939590,
    1.116590,
    0.274270,
    -0.351050,
    -0.929150,
    -0.652860,
    0.742620,
    -0.662320,
    0.308150,
    0.175810,
    0.294490,
    0.223230,
    -1.275660,
    0.891370,
    -1.653060,
    -0.423980,
    0.772420,
    0.935260,
    0.332060,
    -0.586460,
    0.265580,
    0.600190,
    -0.480530,
    0.028950,
    0.234480,
    -0.607580,
    -0.419210,
    -0.973470,
    0.591250,
    -0.860750,
    -0.783810,
    -0.014420,
    -1.872500,
    0.622100,
    0.000280,
    -1.135940,
    0.826600,
    0.612120,
    0.644320,
    -0.522380,
    -0.730720,
    0.206200,
    -0.054640,
    -0.210450,
    0.609480,
    0.006810,
    -0.090340,
    -1.112630,
    -0.427580,
    -0.455190,
    0.252980,
    0.162050,
    -1.098020,
    0.126610,
    -0.492060,
    0.041990,
    0.472630,
    0.361290,
    0.434060,
    -0.643120,
    -0.450540,
    0.466890,
    0.607730,
    0.065160,
    0.215770,
    0.686410,
    -0.018940,
    -0.092090,
    0.222650,
    0.812170,
    -0.044580,
    -0.466980,
    -0.190530,
    -0.528610,
    0.243790,
    1.682580,
    0.820460,
    -0.179290,
    0.893060,
    -0.089640,
    -0.060600,
    0.342490,
    0.314830,
    -1.352460,
    -0.534620,
    -0.345880,
    -1.450190,
    0.545080,
    0.682470,
    0.603910,
    0.021050,
    0.198680,
    0.285920,
    0.664630,
    0.014870,
    0.147140,
    -0.687980,
    0.821800,
    0.140190,
    0.877510,
    -0.547220,
    0.438930,
    -0.204490,
    0.087580,
    0.515180,
    -0.168950,
    -0.738380,
    0.045540,
    -0.533240,
    -0.046170,
    1.159950,
    0.179220,
    -0.176360,
    0.661920,
    1.033860,
    0.152990,
    0.807870,
    -0.412990,
    -0.418500,
    -0.026190,
    0.527370,
    0.809910,
    -1.219500,
    0.443520,
    0.969020,
    -1.458660,
    0.398790,
    -0.290950,
    -0.419910,
    -1.080610,
    0.652560,
    0.136180,
    -0.107500,
    -0.945150,
    -0.667650,
    -0.283890,
    -0.162820,
    0.100990,
    -0.181870,
    -0.981960,
    -0.977710,
    0.687880,
    -0.215550,
    -0.274130,
    0.160110,
    0.591360,
    0.439520,
    0.801790,
    0.490900,
    1.059590,
    -0.123980,
    0.324850,
    0.118050,
    1.324060,
    -0.165130,
    -0.012760,
    1.197340,
    0.756150,
    0.889840,
    0.226910,
    -0.561930,
    0.947870,
    0.102260,
    -0.297290,
    1.000770,
    0.726610,
    0.300350,
    -0.135770,
    -0.510760,
    -0.006180,
    -1.114140,
    0.528580,
    -0.175010,
    0.531310,
    0.240590,
    -0.054890,
    1.412410,
    -0.106500,
    -0.062650,
    -0.304500,
    0.216370,
    0.719890,
    0.686480,
    0.392470,
    -0.467980,
    0.142760,
    0.163960,
    -1.520850,
    -0.086070,
    -0.080850,
    1.083540,
    0.241290,
    0.783970,
    0.225120,
    -0.771610,
    -0.846490,
    -0.507930,
    0.475290,
    0.296620,
    -0.426820,
    0.060280,
    -0.043410,
    0.007690,
    0.597580,
    -0.450940,
    0.442910,
    0.251390,
    -0.801230,
    -0.194900,
    0.126010,
    -0.378060,
    0.033990,
    0.025510,
    -0.026790,
    0.342640,
    0.058730,
    0.382780,
    0.548310,
    -0.559280,
    1.090660,
    -0.818280,
    1.195430,
    -0.100660,
    -0.052970,
    -1.491970,
    0.288550,
    0.069080,
    0.106650,
    -1.547530,
    0.707870,
    -0.446670,
    0.900790,
    0.152940,
    -0.308990,
    0.031590,
    0.402740,
    0.412270,
    0.181250,
    0.154730,
    0.396750,
    0.567680,
    -0.226040,
    -0.077730,
    -1.242100,
    1.193880,
    -0.695320,
    0.127680,
    0.515160,
    -0.326130,
    -1.284990,
    -0.624770,
    0.029090,
    0.656150,
    0.260000,
    -0.241380,
    -0.742240,
    -0.236540,
    0.137960,
    0.465870,
    -0.765310,
    0.437680,
    -0.325600,
    -0.181630,
    -0.856060,
    0.233230,
    0.056820,
    0.353940,
    -1.175100,
    -0.001010,
    -0.030790,
    -0.197420,
    -1.299330,
    0.497690,
    0.834640,
    0.353470,
    0.599770,
    -0.292970,
    -1.031880,
    0.252440,
    0.841670,
    0.088220,
    1.126340,
    0.029240,
    -0.121000,
    0.311890,
    0.442560,
    0.558080,
    0.185890,
    0.503990,
    -0.400830,
    -0.134270,
    -1.748140,
    0.249630,
    0.049820,
    0.513460,
    -0.874770,
    -0.463150,
    -0.531520,
    -0.203800,
    0.241890,
    0.153360,
    0.071900,
    -0.388700,
    -0.929880,
    0.723680,
    0.370800,
    -1.418170,
    -0.199250,
    0.118320,
    -1.640180,
    0.218660,
    -0.239710,
    0.459280,
    0.383190,
    0.584800,
    0.377670,
    -0.109010,
    0.456260,
    0.128120,
    0.283050,
    -0.229830,
    0.324300,
    -0.041170,
    0.248600,
    -0.643270,
    1.169910,
    0.068400,
    0.317180,
    -0.247410,
    -0.912410,
    -0.100970,
    0.923930,
    0.809170,
    0.978810,
    0.161100,
    -1.670550,
    -0.229790,
    0.160870,
    -0.596420,
    -0.945580,
    0.722280,
    0.028130,
    -0.443230,
    -0.115760,
    1.220140,
    0.070660,
    0.674110,
    -0.651120,
    -0.671030,
    0.172640,
    -0.782880,
    -0.369900,
    -1.687320,
    0.748530,
    -0.222250,
    1.314170,
    -0.444760,
    -0.125110,
    -1.271260,
    0.408770,
    0.392380,
    0.242510,
    -0.380820,
    1.011150,
    0.583490,
    -0.351180,
    -0.055330,
    -0.203390,
    -1.018120,
    -0.882030,
    1.012880,
    0.345410,
    -0.442860,
    0.517990,
    -0.596310,
    0.388260,
    -1.271170,
    -0.479380,
    -0.380010,
    -0.346870,
    0.262910,
    -0.460730,
    -0.195770,
    -0.289840,
    -0.115900,
    -0.258600,
    0.560850,
    -0.162130,
    0.201360,
    -1.189360,
    0.055520,
    -0.164970,
    0.366210,
    -1.058940,
    -0.112620,
    0.406600,
    0.287300,
    0.328520,
    -0.409630,
    -0.208840,
    -0.292320,
    -0.242400,
    -0.008380,
    0.592920,
    0.490500,
    0.187050,
    -0.448170,
    0.837230,
    -0.251890,
    -0.000310,
    -0.208020,
    0.045340,
    -0.781420,
    1.171560,
    1.800220,
    -0.106900,
    -0.635910,
    -0.279220,
    -0.110760,
    -1.362660,
    -0.185270,
    -0.708470,
    -0.848560,
    -0.116510,
    -0.030710,
    -0.715510,
    -0.332830,
    -0.082270,
    -0.162040,
    0.329290,
    1.316190,
    -0.228240,
    0.650840,
    0.990500,
    -0.172540,
    0.004880,
    0.487000,
    0.623640,
    -0.466480,
    -0.068870,
    -0.084000,
    -0.206540,
    1.204970,
    -0.102730,
    -0.907910,
    -0.071760,
    0.759760,
    0.485310,
    0.335080,
    0.390650,
    -0.392070,
    -0.122580,
    -0.209550,
    0.734060,
    0.757640,
    -0.615290,
    -0.727120,
    -0.272720,
    0.082890,
    0.282660,
    0.837540,
    -0.299600,
    0.173460,
    -1.532250,
    -0.481070,
    1.456200,
    -1.015680,
    -0.229520,
    0.167880,
    0.116160,
    -0.169450,
    -0.273840,
    0.478840,
    -0.350460,
    0.485720,
    1.263350,
    -1.414250,
    0.967320,
    -0.048440,
    -0.110520,
    -0.810270,
    -0.665530,
    -1.051180,
    0.420480,
    -1.612140,
    0.861010,
    0.434190,
    0.416120,
    -0.231760,
    -0.034580,
    -0.239900,
    0.197860,
    0.617410,
    0.218470,
    0.200560,
    0.394930,
    -0.430590,
    -0.589480,
    -0.165530,
    -1.444490,
    -1.170010,
    -0.422230,
    -0.442770,
    0.033390,
    -0.472210,
    -0.482540,
    -1.276110,
    -0.172740,
    0.180500,
    -0.547990,
    -0.038060,
    -0.345540,
    -1.335270,
    -0.179470,
    0.371510,
    -1.344530,
    0.524750,
    -0.029940,
    0.249560,
    -0.693810,
    0.050350,
    -0.930670,
    -0.158620,
    0.792770,
    0.269730,
    0.186370,
    -0.493160,
    -0.198310,
    0.641400,
    -0.823070,
    1.186940,
    0.863600,
    0.825560,
    -0.773660,
    -0.092610,
    0.536600,
    -0.073830,
    0.801750,
    0.639710,
    -0.185870,
    0.177030,
    0.415990,
    1.750270,
    0.421310,
    -0.180740,
    0.067560,
    0.041230,
    -1.153880,
    0.648750,
    0.284660,
    0.087690,
    -0.360220,
    -0.942320,
    0.157210,
    0.007740,
    0.338650,
    0.181110,
    0.212520,
    0.688930,
    0.694570,
    -1.555920,
    0.600630,
    0.901300,
    -0.381930,
    -0.219550,
    -1.241670,
    -0.272090,
    -1.215310,
    -1.075340,
    -1.243320,
    0.805440,
    1.035440,
    -1.942440,
    -0.016200,
    0.725870,
    0.344910,
    -0.322870,
    0.651930,
    -0.098560,
    -0.806230,
    0.057850,
    -0.900470,
    0.453090,
    -0.083280,
    -0.533280,
    -0.864880,
    0.049430,
    0.808810,
    -0.652790,
    0.263550,
    0.463250,
    -1.153440,
    -0.669600,
    1.092160,
    0.092200,
    0.068330,
    -0.564240,
    -0.053550,
    -0.914330,
    -0.345480,
    0.829130,
    0.390680,
    0.322660,
    -0.139270,
    -0.330810,
    -0.790780,
    -0.400840,
    -0.186080,
    -0.141950,
    0.437600,
    -1.092840,
    0.901540,
    -0.377880,
    0.654640,
    0.307740,
    0.654040,
    0.018420,
    0.047890,
    -0.756190,
    0.059580,
    -0.384100,
    0.188000,
    -0.293180,
    -0.022590,
    0.694050,
    0.549110,
    0.511640,
    -0.278210,
    -0.874910,
    -0.703140,
    0.596240,
    0.074920,
    0.655520,
    -0.172930,
    -0.694620,
    1.715130,
    0.236880,
    0.263890,
    0.396150,
    -0.742710,
    0.148010,
    -0.276790,
    0.603710,
    -0.071710,
    -0.179410,
    -0.634230,
    0.074980,
    0.053850,
    0.305740,
    -0.238180,
    -0.296430,
    0.041660,
    1.044780,
    0.311810,
    0.116980,
    -0.403240,
    0.200500,
    0.467370,
    -0.826880,
    0.719090,
    0.337130,
    -0.509510,
    -1.175440,
    0.204970,
    1.032100,
    0.240420,
    -1.002180,
    -0.405050,
    -0.059690,
    0.423200,
    -0.012580,
    0.381870,
    0.388440,
    -0.058230,
    0.204640,
    -0.032280,
    0.551730,
    0.021650,
    0.066290,
    -0.334050,
    -0.885880,
    -1.714040,
    -0.152000,
    -0.320870,
    0.173410,
    -0.155020,
    -0.617940,
    0.477160,
    -0.202640,
    -0.621230,
    -0.431810,
    -0.212680,
    -0.189500,
    -0.040940,
    0.312360,
    0.511830,
    0.405310,
    -0.733490,
    0.147160,
    -0.170890,
    0.444900,
    0.159010,
    0.002700,
    0.064770,
    -0.517950,
    0.309910,
    -0.858680,
    -0.507510,
    -0.314010,
    0.513290,
    0.100410,
    0.207060,
    0.376850,
    -0.349860,
    -0.008320,
    0.461730,
    0.086800,
    -0.133260,
    -0.397760,
    0.274040,
    0.046270,
    1.141930,
    -0.081460,
    -1.278550,
    0.551000,
    0.234100,
    -0.633790,
    0.177770,
    -1.114860,
    -0.101020,
    0.114030,
    0.817030,
    0.303100,
    0.702730,
    -0.678150,
    -0.143620,
    -0.037820,
    0.602800,
    -0.350270,
    -1.348120,
    -1.096670,
    0.581910,
    -0.751310,
    0.545230,
    0.325710,
    -0.580630,
    -0.561650,
    -0.099490,
    -0.386210,
    -0.228460,
    -0.520440,
    0.083730,
    0.852890,
    0.216080,
    -0.203980,
    -0.103850,
    -0.739540,
    -0.174750,
    0.195830,
    -1.122900,
    0.554970,
    -0.060860,
    0.657370,
    0.591180,
    -0.062320,
    -0.630180,
    0.151850,
    -0.144470,
    0.805260,
    0.123800,
    0.472290,
    0.304760,
    -0.444800,
    -0.363960,
    0.465640,
    -0.430980,
    -0.076970,
    -0.915940,
    -0.696310,
    0.533860,
    -0.687360,
    0.467050,
    -0.306830,
    -0.131270,
    0.384740,
    0.670850,
    -0.446220,
    0.210800,
    0.502920,
    -0.303860,
    -0.190260,
    0.854720,
    0.268050,
    0.377810,
    -0.412630,
    -0.687770,
    0.759440,
    0.098460,
    0.543870,
    0.254630,
    0.412740,
    0.410420,
    -0.199480,
    -1.069050,
    0.179630,
    -0.893760,
    0.388030,
    -0.918970,
    -1.086720,
    -0.418310,
    -0.460680,
    -0.306130,
    -0.124520,
    1.229610,
    -0.121620,
    0.061060,
    0.289690,
    0.359260,
    0.341650,
    -0.212450,
    0.110190,
    1.085440,
    0.241090,
    0.536250,
    -0.195240,
    -1.309780,
    0.100550,
    -0.802600,
    -0.365440,
    -0.133150,
    0.221950,
    0.086960,
    0.686840,
    0.061350,
    -0.912010,
    -0.887720,
    -1.170800,
    -0.610220,
    0.065100,
    0.234460,
    -0.329010,
    -0.010560,
    0.351620,
    -0.098900,
    -0.130760,
    -0.405100,
    0.795560,
    0.238850,
    0.388800,
    0.774480,
    0.109930,
    -0.042290,
    0.443070,
    -0.260090,
    0.375900,
    0.031690,
    -0.186500,
    0.112880,
    0.392250,
    0.632020,
    -0.615140,
    0.342180,
    -1.184060,
    -0.334100,
    0.170540,
    0.802500,
    -0.160970,
    0.798070,
    -0.045340,
    0.618040,
    -0.387880,
    0.182370,
    0.022750,
    -0.025960,
    0.059030,
    0.214450,
    -1.432670,
    -0.207280,
    0.660300,
    0.456190,
    0.706750,
    0.547140,
    0.725530,
    0.290110,
    -0.623780,
    0.207500,
    0.222800,
    0.079150,
    0.375560,
    -0.355110,
    -0.828550,
    0.500930,
    -0.399300,
    0.511730,
    0.118180,
    0.117750,
    -0.880790,
    -1.119270,
    -0.063790,
    -0.023300,
    0.223580,
    0.290690,
    0.431210,
    0.294910,
    0.055510,
    -0.428330,
    -0.158070,
    0.543660,
    -0.107860,
    -0.368350,
    -0.652410,
    0.319690,
    0.403030,
    0.253690,
    -0.070910,
    0.382820,
    0.894720,
    -0.083530,
    0.009960,
    -0.389490,
    -0.334520,
    0.180580,
    -1.107490,
    0.001930,
    0.536700,
    0.104860,
    -0.504860,
    0.214910,
    -0.632970,
    -0.851130,
    0.038220,
    0.130970,
    -0.027450,
    -0.937600,
    0.905480,
    -0.083260,
    -0.253560,
    -0.365430,
    -0.029100,
    -0.835260,
    0.059090,
    0.082520,
    0.924370,
    -0.246050,
    -1.144360,
    0.159250,
    -0.242080,
    -0.495990,
    -0.227890,
    0.677600,
    0.055810,
    0.259070,
    -0.339360,
    -0.750100,
    0.292230,
    -0.747070,
    -0.354690,
    -0.197350,
    1.092930,
    0.258780,
    0.740900,
    0.600070,
    -0.708580,
    0.053400,
    -1.067900,
    -0.013300,
    -0.171280,
    -0.108980,
    0.395480,
    -0.816060,
    -0.103530,
    0.453800,
    -0.294410,
    0.872250,
    0.777950,
    0.220700,
    0.304470,
    0.588230,
    -1.359000,
    0.308350,
    0.584090,
    -0.012050,
    -0.155840,
    -0.624520,
    0.850240,
    0.002610,
    -0.128960,
    -0.401910,
    -0.133320,
    -0.341450,
    -1.282190,
    -0.143300,
    -0.458280,
    0.623890,
    0.757870,
    0.234040,
    -0.045290,
    0.384980,
    0.382330,
    0.975650,
    0.044530,
    0.230010,
    0.205570,
    -1.000190,
    -0.178980,
    -0.189330,
    0.592100,
    0.354920,
    -0.227090,
    0.274140,
    0.707120,
    0.166410,
    0.445500,
    -0.866600,
    -0.948020,
    0.651750,
    -0.895500,
    -0.231510,
    0.553600,
    0.253080,
    0.954490,
    -0.964160,
    -0.516300,
    0.189980,
    -1.160070,
    -0.041480,
    -0.124910,
    -0.071710,
    -0.008020,
    -0.664480,
    0.290100,
    -0.191080,
    0.462310,
    1.036260,
    0.477790,
    0.521720,
    -0.205200,
    0.219400,
    -0.304200,
    -0.656120,
    0.152650,
    0.690090,
    0.484260,
    0.416460,
    0.436170,
    -0.793750,
    0.130710,
    -0.852930,
    0.093690,
    0.152560,
    0.474840,
    -0.787990,
    0.101210,
    -0.624760,
    0.259350,
    -0.103080,
    0.350810,
    0.404640,
    -0.422670,
    -0.448640,
    0.862240,
    -0.273900,
    0.374330,
    -0.950060,
    0.214180,
    -0.998170,
    0.184010,
    0.498760,
    -0.144630,
    -0.688040,
    0.678550,
    -0.888940,
    0.527070,
    0.083260,
    0.274650,
    0.160590,
    -0.449920,
    0.859390,
    -0.380190,
    0.076670,
    -0.144580,
    -0.631900,
    -0.040080,
    0.493760,
    -0.592810,
    0.383700,
    0.683550,
    0.326290,
    -0.813210,
    0.513200,
    -1.676450,
    0.025870,
    -0.240680,
    0.328930,
    0.899280,
    -0.241540,
    -0.653580,
    -0.495950,
    -0.110320,
    0.510060,
    0.956140,
    1.053650,
    0.469320,
    -1.016870,
    0.325680,
    0.428390,
    0.339240,
    -0.232130,
    0.269560,
    0.036170,
    -0.372020,
    -0.482840,
    0.921330,
    -0.295560,
    0.124060,
    0.165190,
    -0.772860,
    0.766030,
    -1.534620,
    -0.537860,
    -0.469810,
    -0.402070,
    0.002750,
    -0.265490,
    -0.583620,
    0.493250,
    -0.024900,
    0.446950,
    0.672910,
    0.396460,
    0.054800,
    -0.127750,
    -0.312990,
    -0.095780,
    0.010610,
    -0.161490,
    0.330050,
    0.284100,
    0.110560,
    -0.002550,
    -0.117910,
    -0.142370,
    -0.500500,
    0.355010,
    0.689790,
    -0.241040,
    -0.533330,
    0.670740,
    0.663470,
    0.158500,
    0.049570,
    -0.261460,
    0.010260,
    0.075440,
    0.123060,
    0.082470,
    0.117680,
    -1.187890,
    0.294620,
    -0.203370,
    0.183840,
    -0.274920,
    0.273690,
    -0.244960,
    -0.434950,
    0.543930,
    -0.595000,
    -0.316820,
    -0.440460,
    0.854410,
    0.907100,
    -0.580770,
    1.048520,
    -0.382580,
    -0.191140,
    0.127410,
    -0.466480,
    0.904190,
    -1.258140,
    -0.099860,
    0.550680,
    1.019810,
    -1.072090,
    0.180870,
    -0.619480,
    0.412760,
    -0.263210,
    -0.252200,
    0.357670,
    -0.090220,
    0.980580,
    -0.086130,
    -0.118010,
    0.220080,
    -0.471100,
    0.431380,
    0.090350,
    0.114690,
    -0.177670,
    -0.352910,
    -0.702770,
    -0.028640,
    0.488360,
    -0.971620,
    -0.046080,
    0.125800,
    -1.078330,
    0.331840,
    -1.202520,
    -0.491710,
    0.383900,
    0.180470,
    -0.576830,
    0.145350,
    1.172750,
    0.557610,
    0.360050,
    -0.227900,
    -0.680480,
    0.400090,
    -0.796080,
    0.375810,
    0.903760,
    0.343300,
    -0.374610,
    -0.216500,
    -0.135800,
    0.188880,
    -0.203790,
    0.461890,
    -0.397300,
    -1.041450,
    0.227510,
    0.806060,
    0.146460,
    -0.689100,
    0.108280,
    -0.400670,
    -0.572960,
    -0.345070,
    -0.123010,
    0.494490,
    0.353730,
    0.557690,
    0.357720,
    -0.476230,
    -1.445500,
    0.102690,
    0.340340,
    0.037080,
    0.139530,
    0.375180,
    -1.509030,
    0.614900,
    -0.113220,
    0.534680,
    0.664690,
    -0.437460,
    0.302730,
    -0.584000,
    0.135790,
    -0.128670,
    -0.080910,
    -0.217460,
    0.193500,
    -0.136950,
    0.387860,
    -0.921830,
    -0.271750,
    0.011360,
    0.133780,
    0.276400,
    1.202510,
    -0.587850,
    0.250210,
    -0.303060,
    0.809450,
    0.074280,
    -0.245150,
    -0.069710,
    0.375700,
    -0.033610,
    -0.713270,
    0.184030,
    0.167950,
    -0.202810,
    0.239160,
    0.653390,
    0.688680,
    0.736970,
    -0.012070,
    -0.177860,
    -0.361510,
    0.699880,
    -0.022700,
    0.318130,
    0.818530,
    0.212880,
    1.147100,
    -0.199980,
    -0.292440,
    0.045970,
    -0.086170,
    0.634230,
    0.030410,
    1.093560,
    0.498370,
    0.384920,
    0.087440,
    1.143880,
    0.236860,
    -0.172800,
    -0.743110,
    -0.631010,
    -0.902720,
    -0.979370,
    -0.017610,
    0.189040,
    0.619940,
    -0.511490,
    0.506490,
    0.081320,
    0.156500,
    -0.000670,
    0.409190,
    -0.436030,
    0.338440,
    -0.024780,
    -0.272120,
    0.696210,
    -0.266680,
    0.025930,
    -0.088870,
    -0.768810,
    -0.133420,
    0.149390,
    0.451340,
    -0.230550,
    0.838880,
    -0.269660,
    -0.765190,
    -0.147830,
    0.167390,
    -0.444370,
    1.189980,
    0.379700,
    -0.833590,
    0.120690,
    -0.528030,
    -0.368450,
    0.094510,
    -0.734430,
    -0.472630,
    -0.509810,
    -0.563700,
    0.769150,
    0.192110,
    -0.113280,
    0.036440,
    -1.274520,
    -0.748310,
    0.109260,
    0.094020,
    0.273300,
    0.520300,
    0.396980,
    0.060190,
    -0.419360,
    0.352550,
    -0.040330,
    0.167490,
    0.575390,
    -0.421950,
    0.121320,
    -1.553830,
    -0.259790,
    -0.748090,
    0.547020,
    -0.623580,
    0.588680,
    -0.282640,
    -0.598030,
    0.615450,
    0.534640,
    0.548510,
    -0.538340,
    -0.264580,
    0.626740,
    -0.024960,
    0.256280,
    0.168470,
    -0.418410,
    -0.393660,
    0.439060,
    -0.739140,
    0.036150,
    -0.113870,
    -0.469490,
    -0.175680,
    -0.300250,
    -1.154960,
    -0.434730,
    -0.064420,
    -0.326840,
    -0.935140,
    0.041020,
    -0.235150,
    0.679150,
    0.940950,
    -0.074660,
    -0.381020,
    -0.249820,
    0.506900,
    -0.356920,
    0.309120,
    -0.467220,
    0.249430,
    -0.101330,
    -0.437460,
    -0.504690,
    0.456620,
    0.006330,
    0.219270,
    -0.011180,
    1.131910,
    0.394430,
    0.995220,
    1.160150,
    0.362230,
    -0.587330,
    -0.341640,
    0.208180,
    0.090580,
    0.665680,
    -0.551610,
    -0.028590,
    -0.149190,
    1.156630,
    1.291590,
    0.294740,
    -0.647570,
    0.166900,
    -0.300490,
    -0.326860,
    0.156370,
    -0.618130,
    -0.915630,
    0.040740,
    -0.295140,
    -0.875040,
    -1.472590,
    0.451710,
    -0.305060,
    -0.112680,
    0.268510,
    -0.245110,
    0.805120,
    0.503260,
    -0.046530,
    0.107210,
    -0.623170,
    -0.032900,
    -2.229820,
    0.546010,
    0.180550,
    -0.393040,
    0.168980,
    -0.149770,
    -0.444830,
    -0.048500,
    0.585980,
    0.342840,
    0.399250,
    0.864230,
    -1.205370,
    -0.558190,
    -1.081140,
    0.629810,
    0.225870,
    -1.096970,
    0.263110,
    0.575380,
    -0.383060,
    0.035310,
    0.776100,
    -1.291300,
    -0.613830,
    -0.638750,
    -0.835820,
    -0.148110,
    -0.929460,
    -0.074080,
    0.147740,
    -0.198820,
    -0.480500,
    0.478820,
    -0.025690,
    0.185120,
    0.127320,
    0.487520,
    -0.179050,
    0.165370,
    -0.107120,
    -0.420100,
    0.391160,
    -0.001830,
    0.014110,
    -0.358360,
    -0.831470,
    -0.673330,
    -0.673530,
    0.381630,
    0.202480,
    0.050250,
    -0.448790,
    0.463810,
    0.008400,
    0.684760,
    0.506270,
    0.322390,
    0.277170,
    0.728770,
    -0.839270,
    0.281890,
    -1.696420,
    -0.190210,
    -0.094210,
    -0.151400,
    -0.465820,
    -1.147450,
    -0.063490,
    -0.114780,
    0.421690,
    0.521090,
    1.050340,
    -0.475650,
    -0.415180,
    0.799330,
    -0.148080,
    -0.301050,
    0.700720,
    -0.435740,
    0.433870,
    -0.321420,
    0.154950,
    -0.374310,
    -0.289780,
    0.644530,
    -0.106030,
    0.173610,
    -0.187960,
    -0.172270,
    0.686100,
    -0.239950,
    -0.073670,
    1.176400,
    0.212410,
    -0.446910,
    -0.698840,
    0.099660,
    -0.015970,
    -0.212450,
    0.530430,
    0.426360,
    0.025560,
    0.035680,
    0.789180,
    -0.001970,
    0.494250,
    -0.840400,
    0.212460,
    -0.370730,
    -0.004170,
    0.021310,
    -0.518110,
    0.029800,
    -0.186110,
    0.469180,
    -0.392510,
    0.076540,
    0.396450,
    -0.498220,
    0.526770,
    -0.608140,
    -0.418430,
    -0.028570,
    -0.216440,
    -0.162270,
    -1.247950,
    0.577840,
    -0.783540,
    0.134410,
    -0.111140,
    -0.748710,
    0.989310,
    0.317190,
    -0.376360,
    0.162770,
    0.212900,
    -0.023940,
    -0.123250,
    -0.328890,
    -0.882690,
    0.029800,
    -0.695920,
    0.738300,
    0.201040,
    -0.699170,
    -0.635770,
    0.137350,
    0.768770,
    -0.838860,
    -0.231810,
    -0.057050,
    0.062750,
    -0.132830,
    -0.531660,
    -0.032670,
    -0.492790,
    0.003560,
    0.926920,
    0.043730,
    0.208850,
    -0.329290,
    -0.351060,
    0.130620,
    -0.048300,
    0.868580,
    -0.412680,
    0.335090,
    -1.009650,
    0.744310,
    -1.082470,
    -1.028800,
    0.209700,
    0.417260,
    -0.054050,
    0.018180,
    0.614510,
    0.564860,
    0.143040,
    0.563150,
    -0.075430,
    -0.041700,
    -0.773740,
    -0.165930,
    -0.278870,
    -0.253040,
    -0.366030,
    0.648970,
    0.386500,
    -0.346690,
    -0.415130,
    0.039540,
    0.056300,
    -0.856340,
    0.383110,
    -0.373500,
    -0.075900,
    0.739930,
    0.002880,
    -0.244710,
    -0.064850,
    -0.221660,
    -0.282420,
    0.221320,
    0.232450,
    -0.398670,
    0.399590,
    -0.964090,
    0.055830,
    -0.455560,
    -0.313730,
    -0.042510,
    0.444900,
    0.745840,
    -1.521120,
    -0.254420,
    0.956390,
    0.010070,
    -0.348780,
    -0.452180,
    -1.471630,
    -0.196920,
    0.424550,
    -0.174940,
    -0.111840,
    -0.511510,
    0.149400,
    -0.536190,
    -0.316070,
    -0.565440,
    0.127540,
    -0.462040,
    0.455100,
    -0.209390,
    -0.130710,
    -0.039870,
    -0.464130,
    0.076290,
    0.662170,
    -0.284930,
    0.148650,
    -0.507220,
    0.456560,
    -0.583070,
    0.038690,
    -0.288660,
    0.203100,
    -0.275660,
    -1.273950,
    0.044300,
    0.516840,
    -0.500380,
    -0.389680,
    -0.189340,
    0.358950,
    0.396960,
    -0.069720,
    1.135020,
    -0.192060,
    -1.932080,
    0.313490,
    -0.065670,
    -0.353840,
    0.122300,
    0.078680,
    0.021460,
    0.051340,
    -0.060910,
    -1.210080,
    -0.301200,
    -0.456490,
    0.593700,
    0.162730,
    0.511760,
    -0.408930,
    -0.172600,
    0.394480,
    0.605330,
    -0.208830,
    -0.429560,
    0.528700,
    -0.003810,
    -0.042910,
    0.220030,
    -0.161200,
    -0.010530,
    0.828350,
    0.110210,
    0.026480,
    -0.323060,
    -0.130740,
    0.686380,
    -0.351060,
    0.316770,
    0.070130,
    0.618980,
    -0.829810,
    -0.344180,
    0.490190,
    -0.306480,
    0.381610,
    0.192240,
    -0.659750,
    -0.061080,
    -0.056700,
    0.247380,
    0.262260,
    0.158330,
    -0.339270,
    0.046760,
    -0.820510,
    0.275320,
    0.559580,
    -0.173720,
    -0.103720,
    0.209900,
    -0.369280,
    0.459940,
    -0.379630,
    -0.359120,
    0.488250,
    -0.695870,
    0.748570,
    0.195610,
    -0.461280,
    0.705080,
    -1.499210,
    0.224510,
    -0.622550,
    0.169290,
    -0.132740,
    0.020370,
    1.354850,
    -0.277580,
    0.310330,
    -0.259720,
    0.301860,
    -0.502890,
    0.208380,
    0.119630,
    0.182240,
    -0.191500,
    -0.119360,
    -0.085680,
    -0.165900,
    -0.052150,
    0.640000,
    -0.247860,
    0.195070,
    0.321570,
    0.733280,
    0.274170,
    -0.200660,
    -0.630080,
    -0.180510,
    0.317990,
    -1.078670,
    -0.209930,
    0.403810,
    0.108100,
    -0.656940,
    0.328740,
    -0.107280,
    0.138700,
    -0.699460,
    -0.556490,
    0.005050,
    -0.394040,
    0.613470,
    -0.207900,
    0.323320,
    0.071290,
    -0.449780,
    -0.278100,
    0.092870,
    -0.139620,
    -0.551910,
    0.187040,
    0.348320,
    -0.575010,
    -0.201030,
    -0.087330,
    0.138870,
    0.368210,
    0.050210,
    0.313820,
    -0.562890,
    -0.250910,
    -0.283870,
    0.228970,
    -0.908290,
    -0.001490,
    0.660890,
    0.175400,
    0.535820,
    0.253900,
    -1.642860,
    0.446760,
    -2.304970,
    -0.741550,
    -0.373210,
    -0.645840,
    -0.060770,
    -0.089730,
    -0.427380,
    0.593670,
    -0.073100,
    0.156070,
    0.145770,
    1.143480,
    0.075030,
    -0.049340,
    -0.316160,
    -0.200020,
    0.242070,
    0.058300,
    0.562260,
    1.463520,
    -0.101070,
    0.196760,
    0.115970,
    -0.280390,
    -0.652960,
    -0.613050,
    -0.728700,
    0.345810,
    -0.542110,
    -0.538180,
    0.415500,
    -0.680190,
    -0.783620,
    -0.190920,
    0.262620,
    0.118060,
    0.483990,
    -0.499640,
    -0.365550,
    -0.323920,
    -0.868270,
    -0.143210,
    0.929980,
    -0.037850,
    0.162680,
    -0.464760,
    0.892410,
    -0.007880,
    0.369700,
    -0.767020,
    0.073680,
    -0.124130,
    0.011310,
    -0.640320,
    0.071410,
    0.090700,
    0.403490,
    0.323900,
    -0.287360,
    0.098150,
    0.831010,
    -0.810480,
    -0.916120,
    0.004480,
    -0.427950,
    -0.916050,
    0.431760,
    -0.325170,
    0.398580,
    -0.555380,
    -0.036740,
    0.007080,
    -0.912840,
    -0.296210,
    -0.593440,
    -0.060450,
    0.926090,
    0.246550,
    -0.079700,
    -0.126710,
    0.144760,
    0.097110,
    -0.275910,
    0.460040,
    0.262280,
    -0.767390,
    -0.321170,
    -0.123530,
    0.238440,
    0.177070,
    0.019940,
    -0.049090,
    -0.221880,
    -0.527770,
    0.304950,
    -0.591920,
    -0.345800,
    -0.488270,
    0.853560,
    -0.526650,
    -0.198020,
    -0.135650,
    0.355460,
    0.195340,
    0.242890,
    -0.045560,
    0.781230,
    -0.305850,
    -0.772730,
    -0.393670,
    0.356170,
    -0.155980,
    -0.261610,
    0.449350,
    -0.834040,
    -0.350840,
    -0.804000,
    -0.382520,
    -0.121090,
    -0.182850,
    0.056840,
    0.381680,
    0.769980,
    -0.103690,
    0.404870,
    -0.009710,
    -0.416070,
    0.048590,
    -0.692400,
    -0.727790,
    -0.389770,
    0.126790,
    -0.526180,
    -0.535060,
    0.138270,
    -0.415760,
    0.412450,
    -0.112410,
    0.645180,
    -0.035770,
    -0.131600,
    0.241860,
    -0.471190,
    0.421580,
    0.371680,
    -0.282590,
    -0.215050,
    -0.460770,
    0.550650,
    0.167760,
    0.085860,
    0.021240,
    -0.343580,
    0.284940,
    0.459940,
    -0.137190,
    -0.047290,
    -0.568780,
    -0.749290,
    -0.425760,
    -0.531920,
    0.405440,
    0.735290,
    -0.205540,
    -0.316540,
    0.015980,
    -0.459030,
    0.059820,
    -0.576240,
    -0.296740,
    0.117590,
    0.336150,
    -1.241900,
    1.012080,
    -0.117710,
    0.827870,
    -0.134110,
    -0.388690,
    -0.260280,
    1.030350,
    0.329590,
    -0.508030,
    -0.441500,
    0.116960,
    0.581690,
    -0.379160,
    0.124820,
    -0.287230,
    -1.213300,
    0.212840,
    -0.844130,
    -0.521730,
    0.089890,
    -0.312680,
    -0.545750,
    0.078670,
    0.139340,
    0.474390,
    0.082130,
    0.588680,
    -0.244310,
    0.471730,
    -0.824380,
    -0.413350,
    -0.000680,
    0.195990,
    -0.247450,
    -0.517980,
    0.010190,
    -0.001350,
    -0.417570,
    -0.018550,
    0.030610,
    -0.242880,
    -0.416740,
    -0.923500,
    -0.325140,
    0.612610,
    -0.217590,
    0.389820,
    -0.255650,
    0.393400,
    -0.650110,
    -0.366540,
    0.298270,
    -0.073620,
    0.761370,
    0.116940,
    -0.323810,
    -0.110230,
    -0.389680,
    -0.348950,
    0.344850,
    -0.336620,
    1.036040,
    -0.945950,
    0.598570,
    -1.233450,
    0.102430,
    0.011990,
    -0.563660,
    0.120770,
    -0.509280,
    0.148940,
    -0.458980,
    -0.141400,
    0.294140,
    0.121020,
    -0.633920,
    0.632380,
    -0.080080,
    -0.609130,
    0.823790,
    -0.078480,
    -0.136390,
    -0.015980,
    -0.573950,
    0.318800,
    -0.352980,
    -0.583270,
    0.475790,
    -0.375020,
    -0.389870,
    -0.439830,
    0.540480,
    0.014060,
    0.407650,
    -0.497780,
    -0.290280,
    0.707320,
    -0.332150,
    -0.369540,
    -0.308620,
    0.171280,
    -1.083150,
    0.182030,
    0.649380,
    0.003490,
    0.714090,
    -0.509310,
    0.337490,
    -0.397040,
    0.649480,
    -0.722670,
    -0.065730,
    -0.326030,
    -0.184910,
    1.032690,
    -1.214590,
    -0.610210,
    -0.083700,
    0.610160,
    0.332380,
    -0.166620,
    -0.381840,
    -0.242130,
    -0.744240,
    0.044970,
    0.087100,
    -0.050720,
    -0.756740,
    1.161040,
    0.040860,
    -0.041760,
    -0.391860,
    0.616970,
    -0.096130,
    0.229780,
    -0.061540,
    -0.602060,
    -0.594270,
    0.026530,
    0.327760,
    -0.331490,
    -0.750380,
    -0.124590,
    1.146160,
    0.040620,
    -0.892490,
    0.081170,
    -0.314470,
    -0.735950,
    0.553460,
    -0.281230,
    0.550770,
    -1.056350,
    -0.250260,
    -0.220490,
    0.288550,
    0.191200,
    -0.216360,
    -0.478610,
    0.300400,
    0.479710,
    0.486300,
    -0.544320,
    -0.086580,
    -0.499840,
    -0.446430,
    -0.922190,
    0.545880,
    -0.015990,
    -0.246140,
    -0.340930,
    -0.335730,
    -1.031370,
    -1.178380,
    0.407300,
    -0.755740,
    0.235680,
    -0.026980,
    -0.705100,
    0.105810,
    -0.860940,
    0.052060,
    -0.678790,
    0.050420,
    0.218050,
    0.023880,
    0.328030,
    -0.687920,
    -2.049810,
    0.378300,
    0.445370,
    -0.513770,
    0.547920,
    -0.390560,
    -0.761160,
    -0.604930,
    0.245660,
    -0.808510,
    -0.316950,
    -0.258850,
    -0.244150,
    0.484290,
    -0.076620,
    -0.417080,
    -0.023060,
    -0.271260,
    0.260650,
    0.089930,
    -0.277800,
    -0.629920,
    0.384190,
    -1.478660,
    0.016700,
    0.107950,
    -0.214120,
    -0.445080,
    -0.776060,
    0.204470,
    0.112960,
    0.223090,
    0.004010,
    -0.367150,
    -0.557060,
    0.375620,
    -0.010130,
    -0.274720,
    -0.958350,
    -0.018660,
    0.194350,
    -0.426950,
    -1.066460,
    0.542480,
    0.249840,
    0.257250,
    0.002660,
    -0.323100,
    0.151150,
    -0.690450,
    -0.097070,
    -0.218140,
    -0.697060,
    0.366960,
    -0.410880,
    -0.851130,
    0.706680,
    -0.836620,
    0.302090,
    0.512320,
    -0.156100,
    0.277410,
    0.079660,
    -0.585710,
    -0.010680,
    0.233360,
    0.541410,
    -0.439550,
    0.193830,
    0.026760,
    -0.795430,
    0.300550,
    0.136030,
    0.881460,
    -0.210000,
    0.054410,
    0.165850,
    -0.266450,
    0.888910,
    0.120790,
    0.783240,
    -0.425040,
    -0.491650,
    -0.316730,
    -0.322950,
    0.476500,
    -0.441180,
    0.157360,
    0.336090,
    0.358750,
    -0.362640,
    -0.216860,
    -0.797510,
    -0.454560,
    -0.345350,
    -0.249480,
    -0.094830,
    0.186490,
    -0.270400,
    0.412010,
    -0.425880,
    0.001220,
    -0.603280,
    0.165510,
    -1.085890,
    0.074250,
    0.266640,
    0.488900,
    0.499170,
    -0.257010,
    0.121820,
    0.182060,
    0.420740,
    -0.045890,
    -0.180340,
    -0.191090,
    0.409640,
    0.205730,
    0.001830,
    -0.271060,
    -0.304970,
    0.443220,
    -0.718000,
    -0.039640,
    -0.707290,
    -0.687110,
    0.038400,
    0.106220,
    -0.036430,
    0.999500,
    0.096280,
    -0.176720,
    -0.306210,
    -0.479260,
    -0.489390,
    -0.233560,
    0.430840,
    0.316110,
    -1.407400,
    0.707870,
    -0.794420,
    -0.138410,
    0.361430,
    -0.586830,
    0.783110,
    -0.087440,
    -0.001270,
    0.429080,
    -0.346110,
    -0.928880,
    -0.136930,
    -0.315260,
    0.234300,
    -0.050990,
    -1.160290,
    0.073670,
    -0.514510,
    -0.423190,
    -0.294340,
    0.359310,
    -0.104710,
    -0.135610,
    -0.795420,
    0.039970,
    -0.304130,
    -0.125340,
    -0.527670,
    0.243460,
    -0.212330,
    -0.413550,
    -0.149400,
    0.670460,
    0.195290,
    -0.261800,
    0.613490,
    0.080160,
    -0.489130,
    -1.946480,
    0.362000,
    -0.298970,
    0.208660,
    -0.537120,
    -0.431890,
    -0.376280,
    -0.255940,
    0.794660,
    -0.272530,
    0.509510,
    0.405490,
    -0.302680,
    0.329380,
    -0.725110,
    0.618610,
    -0.023730,
    0.174410,
    -0.509380,
    0.249970,
    0.317360,
    -0.511410,
    0.107470,
    -0.186550,
    -0.658250,
    0.115370,
    0.681460,
    0.201250,
    -0.418250,
    -1.123850,
    -0.109240,
    -0.778100,
    -0.171740,
    -0.160050,
    -0.350220,
    -0.165430,
    -0.194350,
    0.003320,
    0.489910,
    -0.235960,
    0.564560,
    -0.734230,
    0.185280,
    0.225550,
    -0.916680,
    0.472300,
    0.060670,
    0.187720,
    -0.674630,
    0.037970,
    0.356130,
    0.436170,
    -0.009010,
    -0.468440,
    0.773830,
    -0.219100,
    -0.069020,
    0.367570,
    0.478840,
    -0.215410,
    -0.398960,
    0.093460,
    0.230470,
    -0.055400,
    1.059670,
    -0.175060,
    -0.097130,
    0.182070,
    -0.080560,
    -0.396120,
    -0.043960,
    -0.702890,
    -0.617740,
    -0.158150,
    0.510480,
    -0.117740,
    -0.238770,
    -0.497280,
    0.069710,
    0.541930,
    0.151220,
    0.104110,
    -0.655490,
    0.491270,
    0.793570,
    0.267770,
    -0.551870,
    -0.053390,
    0.014990,
    -0.308940,
    0.091670,
    -0.817210,
    0.097950,
    -0.640930,
    -0.225370,
    -0.075710,
    0.584120,
    0.733920,
    0.256670,
    0.709350,
    -1.277570,
    0.010270,
    -1.100730,
    -0.216240,
    -0.149320,
    -0.749120,
    -0.002980,
    -0.108690,
    0.951120,
    -0.038110,
    0.696860,
    -0.265190,
    0.007700,
    -0.155480,
    -0.015020,
    -0.307840,
    -0.436870,
    -0.129720,
    0.581800,
    0.128700,
    -1.773400,
    -0.482800,
    -0.024740,
    0.454190,
    0.030870,
    0.224030,
    0.654690,
    0.226210,
    -0.414800,
    -0.091970,
    -0.001050,
    -0.007230,
    -0.139170,
    0.049740,
    -0.745240,
    -0.873910,
    0.381810,
    0.237990,
    0.476410,
    -0.491330,
    -0.253580,
    -0.519070,
    0.023610,
    0.449220,
    -0.107330,
    0.411110,
    0.467540,
    0.244930,
    -0.298290,
    0.088300,
    0.310610,
    -0.011050,
    0.456950,
    0.467480,
    -0.695960,
    -0.669530,
    -0.478100,
    -0.949690,
    -0.831670,
    0.410530,
    -0.391310,
    -0.476310,
    0.556060,
    -0.170530,
    -0.175950,
    0.094980,
    0.703590,
    0.203710,
    -0.057260,
    -0.060360,
    -0.455200,
    -0.025570,
    -0.241100,
    0.998350,
    0.637440,
    0.409830,
    -0.292850,
    -0.476020,
    0.636910,
    1.055340,
    0.100590,
    -0.155630,
    1.061630,
    -0.790100,
    -0.008530,
    -0.180310,
    0.656480,
    -0.321450,
    0.109010,
    -0.466420,
    0.047890,
    1.069930,
    0.137360,
    0.011140,
    0.401370,
    -0.031410,
    -0.186390,
    0.049300,
    0.088430,
    0.733450,
    -0.415960,
    -0.220250,
    0.028700,
    0.495920,
    -0.288030,
    0.290960,
    0.785590,
    -0.215100,
    -0.508670,
    -0.283200,
    0.287130,
    -0.726590,
    -0.469860,
    -0.525060,
    -0.840530,
    -0.405350,
    -0.504260,
    -0.313520,
    0.344720,
    -1.308230,
    0.748750,
    0.483970,
    -0.011430,
    0.808690,
    0.284660,
    -0.208440,
    -0.081450,
    0.348330,
    -1.585680,
    -0.767050,
    -0.815930,
    -0.308860,
    0.685220,
    -0.433810,
    -0.206400,
    0.068970,
    0.691860,
    -0.539460,
    0.249160,
    -0.811430,
    0.697210,
    -0.389340,
    -0.265940,
    -0.019310,
    0.057700,
    0.037090,
    0.684200,
    -0.494280,
    0.038920,
    0.209730,
    0.268390,
    -0.153290,
    -0.472050,
    -0.467420,
    0.354930,
    -0.379030,
    -1.284750,
    -0.400960,
    0.062410,
    -0.407570,
    0.240620,
    0.163830,
    -0.200360,
    0.294560,
    0.038630,
    0.000490,
    -1.092660,
    0.024150,
    -0.373840,
    0.347270,
    -0.070580,
    0.710140,
    0.832890,
    0.015270,
    -0.652710,
    0.495700,
    0.138010,
    -0.812030,
    -0.049500,
    -0.315270,
    -0.105840,
    0.232300,
    0.429140,
    -0.628890,
    0.011850,
    -0.928870,
    0.682150,
    0.068660,
    -0.907680,
    -1.049780,
    -0.032560,
    0.544350,
    -0.894840,
    0.218990,
    -0.244720,
    -0.053430,
    0.455920,
    -1.143190,
    0.297940,
    -0.177610,
    -0.232150,
    0.272570,
    0.070240,
    0.449850,
    0.059930,
    -0.777180,
    -0.645400,
    -0.293700,
    -1.251850,
    0.321780,
    0.222680,
    0.227960,
    -0.840250,
    -0.836170,
    0.733610,
    -0.178820,
    -0.175470,
    0.308610,
    -0.076690,
    -0.841730,
    0.574340,
    0.523940,
    -0.381280,
    -0.435170,
    -0.113450,
    -0.492450,
    0.171580,
    -0.072400,
    -0.379500,
    -0.290320,
    -0.657920,
    0.311160,
    0.264730,
    0.500530,
    0.109320,
    -0.381600,
    -0.357370,
    -0.201980,
    -0.119440,
    0.334500,
    -0.578040,
    -0.395960,
    0.436780,
    0.746060,
    -0.486960,
    1.022850,
    0.174960,
    -2.164650,
    0.256310,
    0.011260,
    -0.177330,
    -0.108070,
    -0.269830,
    0.461190,
    0.155950,
    0.457570,
    -1.318690,
    -0.091090,
    -0.113710,
    0.054800,
    0.119300,
    0.264380,
    0.194670,
    0.247190,
    0.167850,
    -0.435700,
    -0.341170,
    0.538270,
    0.219280,
    -0.506960,
    -0.191810,
    0.359390,
    -0.124690,
    -0.140640,
    0.792930,
    0.457060,
    0.453040,
    -0.081620,
    0.007030,
    0.568120,
    0.295630,
    0.369510,
    0.158400,
    0.866320,
    -1.515290,
    -0.393020,
    0.194670,
    0.375880,
    0.047200,
    -0.056050,
    -0.761010,
    0.052740,
    0.216630,
    -0.145560,
    0.376910,
    -0.063590,
    -0.272110,
    0.549550,
    -0.412740,
    0.203750,
    0.208200,
    0.249000,
    -0.744850,
    0.730840,
    -0.247160,
    0.390830,
    -0.661790,
    -0.301350,
    -0.665410,
    -0.613280,
    0.187330,
    -0.440540,
    -0.540390,
    -0.236760,
    0.704210,
    -0.297850,
    -0.510990,
    -0.620200,
    0.494490,
    0.534090,
    0.483940,
    -0.570930,
    -0.173950,
    0.366450,
    0.522570,
    0.138940,
    -0.109740,
    -0.369050,
    -0.541780,
    -0.060090,
    -0.231600,
    0.010060,
    0.008130,
    -0.622280,
    -0.340560,
    -0.002460,
    -0.027980,
    -0.033710,
    0.799900,
    -0.644570,
    -0.347280,
    0.321460,
    0.152210,
    -0.875630,
    -0.329570,
    -0.972630,
    0.490100,
    0.416240,
    0.300860,
    -0.453080,
    0.268590,
    0.572950,
    0.224310,
    -0.137340,
    -0.514130,
    -0.479830,
    -0.762300,
    -0.172420,
    -0.829290,
    -0.671560,
    -0.631850,
    -0.027000,
    -0.239380,
    0.082940,
    -0.211400,
    -0.649230,
    0.012840,
    0.100300,
    -0.087330,
    -0.085890,
    0.176100,
    0.232460,
    0.394520,
    0.020040,
    -0.416640,
    -0.814810,
    0.032450,
    0.010140,
    0.438800,
    0.398950,
    0.183520,
    0.174010,
    0.121220,
    0.574020,
    -1.411560,
    -0.565670,
    -1.733840,
    -1.236530,
    0.222680,
    0.323830,
    0.841760,
    -0.420630,
    -0.079700,
    -0.355950,
    0.821310,
    -0.438540,
    0.199120,
    -0.233260,
    0.001340,
    -0.517980,
    0.390020,
    0.283570,
    -0.299710,
    -0.068080,
    0.332300,
    -1.554750,
    -0.018860,
    0.022410,
    -0.313700,
    -0.496130,
    -0.471610,
    -0.415020,
    -0.785030,
    -0.520580,
    -0.792520,
    -0.193030,
    -0.077110,
    0.202340,
    0.475550,
    0.753300,
    0.826140,
    -0.049250,
    -0.842690,
    0.151760,
    -0.975430,
    -0.268280,
    -0.758830,
    0.274540,
    0.684590,
    0.071070,
    0.096770,
    0.471590,
    -0.549340,
    -0.537660,
    -0.085070,
    0.398870,
    -0.915060,
    0.041650,
    0.666610,
    -0.368110,
    0.075720,
    -0.892890,
    -0.456710,
    -0.253920,
    -1.230170,
    -0.090730,
    -0.077530,
    -0.274110,
    -0.231270,
    0.001950,
    0.857770,
    -0.638660,
    0.447260,
    -0.106500,
    -0.200530,
    -0.190700,
    -0.445380,
    0.167340,
    -0.472750,
    0.451980,
    -0.117150,
    0.457680,
    0.102400,
    0.092860,
    0.383670,
    -0.212120,
    -0.284120,
    -0.195340,
    0.054350,
    -0.051510,
    0.391400,
    0.329490,
    -0.463540,
    0.153000,
    -0.225000,
    0.248840,
    -0.456970,
    0.078270,
    -0.626540,
    -0.131980,
    0.627940,
    -0.230260,
    -0.124860,
    0.173350,
    0.771630,
    0.102480,
    -0.599240,
    0.300510,
    0.309770,
    -0.246550,
    0.039150,
    0.423270,
    -0.485700,
    0.350600,
    -1.145640,
    0.020840,
    -0.218280,
    -0.285380,
    0.787980,
    0.296550,
    -0.357020,
    0.867250,
    -0.597130,
    -1.100160,
    0.339080,
    0.593580,
    0.321350,
    0.608720,
    0.528330,
    -0.270270,
    -0.077940,
    0.496020,
    -0.815610,
    0.617480,
    -0.817440,
    -0.307670,
    -0.295240,
    -0.454580,
    -0.297590,
    0.390850,
    0.489080,
    0.209770,
    0.313090,
    -0.133230,
    0.462240,
    0.280230,
    -0.088960,
    0.195850,
    0.056920,
    -0.339780,
    0.227710,
    -0.274640,
    0.246710,
    -0.539800,
    0.668120,
    -0.080380,
    -0.310360,
    -0.290140,
    -0.210700,
    0.316170,
    -1.260000,
    0.134490,
    -0.524400,
    0.360890,
    -0.801830,
    0.546800,
    -0.989350,
    -0.159790,
    -0.425830,
    0.412410,
    -0.064210,
    0.250300,
    -0.229670,
    -0.849790,
    -0.552500,
    0.204780,
    0.676600,
    0.728270,
    -1.010990,
    1.151430,
    0.292410,
    -0.147450,
    0.174130,
    -0.497720,
    0.045720,
    0.440910,
    -0.201950,
    -0.402080,
    -0.369240,
    -0.172480,
    0.114780,
    0.379100,
    -0.374850,
    -0.280070,
    -0.456740,
    -1.009610,
    -1.178390,
    -0.391350,
    0.354710,
    -0.157830,
    -0.832660,
    0.737080,
    -0.126810,
    0.460290,
    0.747810,
    0.192100,
    -0.268200,
    0.173440,
    -0.324990,
    -0.929520,
    -0.044210,
    0.743150,
    -0.448070,
    -0.673590,
    0.423500,
    -1.078250,
    -0.078170,
    0.441260,
    0.186020,
    -0.702590,
    -0.000240,
    -0.308210,
    -0.131560,
    0.051040,
    -0.913670,
    0.166650,
    -0.258040,
    0.141400,
    -0.188220,
    -0.281330,
    -0.548770,
    0.030730,
    -0.247970,
    0.217370,
    -0.092790,
    -1.090670,
    -0.075840,
    -0.283000,
    -0.344170,
    -0.594900,
    -0.838410,
    -0.518470,
    -0.572000,
    0.597600,
    0.363500,
    0.316610,
    0.050480,
    0.692360,
    0.142610,
    -0.206040,
    0.333610,
    -0.228190,
    0.112570,
    -0.359110,
    -0.629720,
    -0.121800,
    -0.338440,
    -0.142290,
    -0.074230,
    0.230250,
    -0.643190,
    0.105130,
    -0.777740,
    -0.002820,
    0.031540,
    0.026090,
    -0.201970,
    -0.546780,
    0.411580,
    -0.000660,
    -0.303330,
    -1.142840,
    0.561870,
    0.019070,
    -0.874720,
    0.000830,
    -0.332460,
    -0.025060,
    -0.985430,
    -0.219070,
    -0.011820,
    -0.388820,
    0.137810,
    0.951360,
    0.144550,
    -0.061770,
    -0.212090,
    -0.745970,
    -0.304520,
    -0.216370,
    -0.681010,
    0.351150,
    0.074670,
    0.147810,
    -0.824740,
    0.082670,
    0.556090,
    0.296180,
    0.038970,
    0.174500,
    0.284070,
    -0.490640,
    -0.275670,
    -0.173090,
    -0.582750,
    0.365420,
    -0.377600,
    0.142290,
    0.203660,
    -0.642600,
    -0.076740,
    -0.077410,
    -0.591590,
    0.388390,
    -1.481520,
    -1.085250,
    -0.653760,
    0.188000,
    -0.270670,
    0.037890,
    -0.583950,
    -0.818550,
    0.289180,
    -0.770620,
    0.077660,
    0.017960,
    -0.458070,
    -0.157510,
    -0.108680,
    -0.892260,
    0.632060,
    -0.428200,
    0.324160,
    -0.373570,
    -0.003640,
    0.677330,
    -0.906500,
    0.429900,
    0.475210,
    0.260290,
    -0.127890,
    -0.241440,
    0.015800,
    0.908420,
    0.101070,
    -0.661630,
    0.236720,
    0.065590,
    -0.100970,
    -0.123940,
    -0.490520,
    0.179680,
    -0.165150,
    0.145430,
    -1.222690,
    0.566420,
    -0.168210,
    0.465020,
    -0.541890,
    0.291780,
    0.082980,
    -0.377960,
    0.188440,
    0.339990,
    -0.567730,
    -0.362120,
    -0.031960,
    -1.121580,
    -0.865790,
    -0.360810,
    -0.139820,
    -1.110420,
    -0.562210,
    0.229730,
    -0.387820,
    0.140290,
    1.026480,
    0.012440,
    0.217560,
    -1.558250,
    0.434090,
    0.012710,
    0.562450,
    0.727280,
    -0.378200,
    0.693690,
    -0.263180,
    0.130710,
    -1.225910,
    0.284120,
    -0.768330,
    -0.019440,
    0.397090,
    -0.744410,
    -0.636690,
    -1.059660,
    0.246460,
    0.326010,
    0.051000,
    -0.416210,
    0.211070,
    -0.268520,
    -0.077090,
    0.233160,
    -0.475090,
    -0.031040,
    0.456400,
    -0.356570,
    -0.003900,
    -1.375370,
    -0.150490,
    0.484220,
    0.223520,
    0.289900,
    0.411850,
    0.163330,
    0.621320,
    -0.511410,
    0.083310,
    -1.231270,
    -0.201010,
    0.380800,
    -1.398390,
    -0.280800,
    -1.201790,
    0.270230,
    0.865030,
    0.483230,
    -0.587820,
    -0.095020,
    -1.082840,
    -0.181140,
    -0.135970,
    -0.355480,
    -0.070890,
    0.291630,
    -0.642510,
    -0.076240,
    -0.071050,
    -0.101920,
    -1.042460,
    -1.422520,
    -0.164730,
    0.142660,
    -0.036300,
    -0.022890,
    0.847800,
    -0.181410,
    0.036450,
    -0.742440,
    -1.440700,
    -1.038330,
    -0.788080,
    -0.689090,
    0.449480,
    -0.054130,
    0.544350,
    -0.555530,
    0.086910,
    0.162070,
    -0.538110,
    -0.043580,
    0.121540,
    0.085570,
    0.198430,
    -0.802440,
    0.137440,
    -0.196190,
    -0.403390,
    -0.085630,
    -0.453370,
    -0.440870,
    -0.192270,
    -0.129850,
    -0.253210,
    -1.007310,
    -0.324550,
    -0.192780,
    -1.528890,
    0.308960,
    -0.169310,
    -0.095410,
    -0.187050,
    -0.151840,
    -0.138850,
    -0.461820,
    -0.123880,
    -0.190900,
    -0.081100,
    0.237570,
    -0.082410,
    -0.274930,
    0.051490,
    -0.361160,
    0.719880,
    -0.151740,
    0.113690,
    -0.266180,
    -0.897390,
    -0.895830,
    -0.031400,
    0.229200,
    -0.661440,
    0.856230,
    0.170670,
    0.376620,
    0.216630,
    -0.922880,
    0.808210,
    0.090670,
    0.042040,
    -0.106610,
    0.413920,
    0.057260,
    0.164200,
    1.276650,
    -0.847840,
    0.188430,
    -0.792720,
    0.244160,
    -0.501470,
    -0.304080,
    0.031660,
    0.467660,
    0.111140,
    0.254850,
    -1.092490,
    -0.837630,
    -0.493510,
    -0.424910,
    -0.176210,
    0.099000,
    -0.075420,
    -0.114720,
    -0.112560,
    0.644490,
    0.310900,
    0.060250,
    -0.139930,
    0.116820,
    -0.063990,
    -0.480170,
    -0.125160,
    0.097290,
    -1.048590,
    -0.668850,
    -0.467420,
    -0.039670,
    0.438270,
    0.019850,
    -0.606610,
    0.588600,
    0.115930,
    0.111420,
    0.259990,
    -0.327710,
    -0.403530,
    -0.638820,
    -0.532390,
    0.068260,
    -0.419380,
    -0.100640,
    0.368630,
    0.162250,
    -0.116480,
    0.289990,
    -0.082420,
    -0.248350,
    -0.202610,
    -0.058680,
    -0.125810,
    0.179330,
    -0.456900,
    0.268060,
    0.634550,
    0.049110,
    -0.439720,
    -0.745410,
    -0.912010,
    0.123960,
    -0.818050,
    -0.025760,
    0.392460,
    -0.028550,
    0.516960,
    -0.412240,
    -0.155460,
    -0.177300,
    -0.623340,
    0.223020,
    -0.484440,
    0.044850,
    0.305540,
    -0.420610,
    -1.282090,
    0.276230,
    -0.868870,
    0.984300,
    -0.302400,
    -0.718780,
    -0.364350,
    0.177090,
    0.590040,
    0.662280,
    -0.006350,
    -0.577560,
    0.091310,
    0.125260,
    0.608010,
    0.174600,
    -0.580690,
    -0.915570,
    -0.833390,
    0.120770,
    0.173970,
    0.211340,
    0.062280,
    -0.255110,
    0.150700,
    0.179880,
    -0.033780,
    -0.196350,
    -0.122010,
    -0.214260,
    -0.743100,
    0.755120,
    -0.048520,
    0.363330,
    0.271540,
    -0.303070,
    -0.156160,
    0.468910,
    0.387690,
    -0.656180,
    0.166610,
    -1.095940,
    0.604050,
    -0.523490,
    0.634300,
    0.606900,
    0.361040,
    -0.447330,
    0.082140,
    -0.561530,
    -0.990070,
    -0.672420,
    -0.868780,
    0.295130,
    0.257920,
    -0.254790,
    -0.257960,
    -0.520690,
    -0.018580,
    0.627590,
    0.440300,
    -0.298730,
    -0.113080,
    -0.131000,
    0.296250,
    0.304040,
    -0.180580,
    0.207620,
    0.537300,
    -0.226390,
    -0.979730,
    -0.256720,
    0.425830,
    0.146040,
    -0.307470,
    -0.568520,
    -0.085630,
    -1.041760,
    -0.814350,
    -0.614960,
    0.229510,
    0.712460,
    0.403900,
    -0.097010,
    -0.833510,
    0.024290,
    -0.633120,
    0.408180,
    0.325570,
    -0.069110,
    -0.645340,
    0.558680,
    -0.403840,
    0.161610,
    0.792240,
    0.293990,
    0.287270,
    0.769340,
    -0.215550,
    0.284070,
    0.307630,
    -0.176280,
    0.739400,
    0.315380,
    0.386400,
    -0.215140,
    0.505050,
    -0.642320,
    0.393880,
    -0.057930,
    -0.383310,
    -1.120320,
    0.360700,
    -0.516590,
    0.315430,
    -0.104010,
    0.080550,
    0.268810,
    0.501140,
    -0.432010,
    0.474190,
    0.598390,
    -0.317200,
    0.269670,
    -0.295950,
    0.320210,
    0.530360,
    0.201150,
    -0.241280,
    -0.008150,
    -0.267450,
    0.191280,
    0.391170,
    -0.604830,
    -0.560700,
    -0.277600,
    0.465290,
    0.434170,
    -0.438370,
    0.158790,
    0.177020,
    0.640540,
    -0.356830,
    -0.078750,
    -0.252660,
    -0.106770,
    -0.178070,
    -0.696580,
    -0.241900,
    -0.205630,
    0.193660,
    -0.053300,
    0.283740,
    -0.000490,
    -0.566430,
    0.333090,
    0.842330,
    0.089180,
    -0.043000,
    -0.944380,
    0.378190,
    -0.115840,
    -0.147480,
    0.153390,
    -0.701040,
    -0.463830,
    0.195950,
    0.224420,
    0.196030,
    -1.067900,
    -0.360330,
    -0.394410,
    -0.018570,
    -0.026100,
    0.191370,
    -0.702940,
    -0.257200,
    -0.133160,
    -0.766120,
    -0.292070,
    0.379520,
    -0.258590,
    -0.123760,
    -0.475310,
    -0.045840,
    -0.164880,
    -0.026770,
    0.047980,
    0.404170,
    0.099030,
    -0.632940,
    -0.289720,
    0.447280,
    0.378600,
    -0.473310,
    0.213060,
    0.237600,
    0.118850,
    -0.721330,
    0.317030,
    0.549380,
    0.034630,
    0.393320,
    -0.340280,
    -0.642150,
    -0.840710,
    -0.277660,
    -0.380400,
    0.281560,
    -0.458150,
    0.111840,
    -0.622630,
    -0.016300,
    0.713540,
    0.368880,
    0.708210,
    -0.192420,
    0.451050,
    -0.666160,
    0.422330,
    -0.686400,
    -0.089330,
    0.435560,
    0.213310,
    -0.533140,
    0.083180,
    -0.053460,
    -0.308340,
    -0.455100,
    -0.184090,
    0.072870,
    -0.292050,
    0.185850,
    -0.744550,
    -0.800940,
    0.241110,
    -0.106330,
    -0.885850,
    0.453330,
    0.036420,
    0.140600,
    -0.589450,
    0.047810,
    -0.255870,
    0.091870,
    -0.554830,
    1.178200,
    -0.378980,
    0.581530,
    -0.370900,
    -0.591240,
    0.226560,
    -0.421010,
    -0.605040,
    0.147680,
    -0.159280,
    -0.750000,
    0.010280,
    -0.294550,
    0.616560,
    0.238430,
    0.172940,
    -0.287680,
    -0.001820,
    0.157690,
    -1.511980,
    -0.941340,
    -0.246920,
    0.759390,
    0.101170,
    -0.085840,
    0.559290,
    0.190860,
    -0.458890,
    0.293390,
    0.064430,
    0.548290,
    -0.422750,
    -0.427410,
    -0.566690,
    -0.197340,
    0.125960,
    0.201000,
    -0.220950,
    -0.026810,
    -0.760480,
    -0.700570,
    0.346600,
    -0.338050,
    0.771150,
    -0.683300,
    -0.391170,
    0.110980,
    -0.164150,
    -0.926040,
    0.356580,
    -0.316340,
    -0.577080,
    0.180980,
    -0.613580,
    -0.385170,
    0.107540,
    -0.917810,
    0.012450,
    0.534640,
    -0.064060,
    -0.716340,
    0.357000,
    -0.643010,
    -0.833130,
    0.097240,
    0.270850,
    -0.298600,
    -0.271220,
    0.180090,
    0.110190,
    0.005530,
    -0.553590,
    -0.371780,
    -0.006140,
    -0.269860,
    -0.002820,
    -0.401170,
    -0.425030,
    -0.157080,
    -0.249360,
    -0.111670,
    0.187150,
    0.327910,
    0.222520,
    0.737370,
    -0.009600,
    0.228630,
    0.481840,
    -1.191230,
    0.099020,
    0.655720,
    -0.375660,
    0.545330,
    -0.914300,
    -0.310980,
    0.181250,
    -0.098200,
    0.503030,
    0.348020,
    0.288910,
    -0.515190,
    0.278650,
    -0.615070,
    -0.104610,
    0.294300,
    0.395390,
    0.464010,
    0.913910,
    -0.733830,
    -0.390390,
    -1.206180,
    -0.189040,
    -1.123370,
    -0.249170,
    -0.187320,
    -0.294980,
    -0.246630,
    0.229420,
    0.821660,
    0.445950,
    0.152140,
    -0.540340,
    -0.215130,
    -1.040380,
    -0.154380,
    -0.175410,
    0.192760,
    -0.632020,
    -0.407690,
    -0.217270,
    0.395890,
    -0.486360,
    0.012030,
    0.641030,
    -0.469440,
    -0.438100,
    0.211420,
    -0.628280,
    0.823520,
    0.112610,
    -0.177940,
    -0.098560,
    0.416680,
    -0.686490,
    0.563920,
    0.480460,
    0.022190,
    0.015140,
    -0.693710,
    -0.225180,
    -0.003200,
    0.113300,
    0.175280,
    0.501730,
    -0.324230,
    -0.046870,
    -0.642810,
    -0.051300,
    -0.026110,
    -0.834850,
    -0.416090,
    -0.350220,
    -0.292890,
    0.080460,
    -0.455190,
    0.120080,
    -0.159570,
    -0.226840,
    -0.229000,
    -0.329850,
    0.057130,
    -0.462300,
    -0.289880,
    0.028650,
    0.249810,
    0.342240,
    -1.123080,
    0.391540,
    -0.229890,
    -0.461950,
    0.030370,
    -0.243100,
    -0.793860,
    -0.397210,
    0.554420,
    0.601660,
    0.052920,
    -0.376350,
    -0.479480,
    -0.289800,
    -1.194540,
    0.098980,
    -0.559250,
    -0.099960,
    -0.320330,
    -0.453320,
    -0.169930,
    0.045110,
    -0.123470,
    -0.911930,
    0.133930,
    -0.328690,
    0.553560,
    -0.863870,
    -0.191640,
    -0.220290,
    -0.943940,
    0.023900,
    -0.624460,
    -0.157840,
    0.277070,
    0.387750,
    0.709100,
    0.782970,
    -0.238450,
    0.397340,
    -1.460020,
    -0.327280,
    -0.567080,
    -0.355840,
    -0.481650,
    -0.106650,
    -0.847490,
    0.078060,
    -0.131190,
    0.725480,
    0.008380,
    -0.050140,
    -0.095310,
    0.075440,
    -0.795300,
    0.382720,
    -0.228890,
    -0.432000,
    0.124620,
    0.410750,
    0.282930,
    -0.102580,
    -0.100790,
    0.167080,
    -0.572690,
    -0.599100,
    0.183850,
    -1.432940,
    -0.669760,
    -0.324400,
    -0.220440,
    0.633020,
    -1.027110,
    -0.046810,
    -0.176960,
    -0.571040,
    -0.609640,
    -0.740770,
    -0.060920,
    -0.277140,
    0.061430,
    0.007690,
    -0.015020,
    -0.482700,
    0.057580,
    1.271650,
    -0.630120,
    -0.210570,
    -0.337240,
    -0.254040,
    0.364400,
    0.222400,
    0.274970,
    -0.106380,
    -0.619100,
    0.115440,
    0.240550,
    -0.001870,
    0.037700,
    0.453580,
    -0.940400,
    0.820210,
    0.343450,
    -0.033000,
    0.226900,
    0.698260,
    -0.058880,
    -0.496050,
    -0.331970,
    -1.261630,
    0.010030,
    -0.006590,
    -1.119420,
    -1.116190,
    0.239010,
    0.089610,
    -0.807400,
    -0.046340,
    -0.202240,
    -0.392950,
    -0.451080,
    0.082020,
    -0.945320,
    0.399150,
    -0.309520,
    0.154560,
    -0.381880,
    0.695510,
    -0.126770,
    -0.121190,
    -0.515670,
    -1.248900,
    -0.090710,
    -0.245670,
    -0.523410,
    0.335570,
    0.008800,
    -0.536010,
    0.438500,
    -0.562080,
    -0.738120,
    -0.334530,
    -0.115480,
    -0.469640,
    0.288100,
    -0.024460,
    -0.053520,
    -0.248450,
    -0.268160,
    0.167280,
    0.512510,
    -0.288920,
    -0.275760,
    -0.224270,
    -0.736450,
    0.401940,
    -0.019670,
    -0.030800,
    0.166030,
    -0.390660,
    -0.239840,
    -0.282430,
    -0.112330,
    -0.008100,
    0.162070,
    0.163950,
    0.004960,
    0.426980,
    -0.726640,
    0.429230,
    -0.060880,
    -0.396380,
    -0.132160,
    0.373260,
    -0.669000,
    0.010190,
    -0.137210,
    -0.448890,
    -0.108990,
    0.521010,
    -0.897280,
    -0.189600,
    -0.618320,
    0.367260,
    0.523770,
    -0.193870,
    0.228580,
    -1.297000,
    -0.088190,
    -0.983860,
    -0.286720,
    -0.191100,
    -1.444220,
    0.033820,
    -0.327630,
    -0.554730,
    0.083060,
    -0.453560,
    -1.773050,
    0.484560,
    0.326300,
    -0.711430,
    -0.460720,
    0.651090,
    -0.672090,
    -0.105120,
    0.537250,
    -0.666660,
    -0.658530,
    -0.019380,
    -0.140870,
    -0.924650,
    -0.172100,
    0.290540,
    -0.205280,
    -0.648750,
    -0.485790,
    -0.665880,
    -0.916780,
    -0.064790,
    0.126670,
    0.790070,
    0.352020,
    0.410080,
    0.506140,
    1.022730,
    -0.607060,
    0.011370,
    -0.092890,
    -0.993740,
    0.911750,
    0.886300,
    -0.075810,
    0.366570,
    -0.965920,
    -0.517130,
    0.092470,
    -0.823970,
    0.441980,
    0.058320,
    -1.305780,
    0.356870,
    -0.067110,
    0.299420,
    0.273430,
    0.203200,
    -0.160760,
    -0.622990,
    -1.012790,
    -0.145300,
    -1.244130,
    -0.418430,
    0.288480,
    0.497860,
    -0.136470,
    -0.606380,
    -0.810270,
    0.149940,
    0.168620,
    0.078270,
    -0.365100,
    -0.309170,
    -0.013770,
    0.238010,
    -0.644970,
    0.177950,
    0.630670,
    -0.443860,
    0.594470,
    0.167600,
    1.179610,
    0.215750,
    0.309300,
    -1.212990,
    -0.386530,
    0.860420,
    0.176410,
    -1.641610,
    -0.123550,
    -0.003850,
    -0.103480,
    0.239850,
    -0.312620,
    0.479620,
    -0.332940,
    0.189790,
    -1.262450,
    -0.064680,
    -0.849080,
    -0.183820,
    -1.037150,
    0.314500,
    -0.031040,
    0.033200,
    -0.535340,
    -0.535750,
    1.052530,
    -0.363650,
    -0.027830,
    0.143210,
    -0.705430,
    0.264360,
    0.071690,
    0.830120,
    -0.249420,
    -0.888950,
    0.625570,
    0.470280,
    0.260530,
    -0.748170,
    0.977030,
    0.236260,
    0.329870,
    0.932290,
    -0.068140,
    0.082520,
    -0.488440,
    -0.267910,
    0.045480,
    0.359380,
    -0.938440,
    0.525820,
    -0.090170,
    0.297090,
    -0.528980,
    -0.627860,
    0.736100,
    -0.206650,
    -0.972800,
    0.185640,
    -0.398190,
    -1.101580,
    -0.998660,
    0.708210,
    0.142380,
    -0.368030,
    0.229890,
    -0.862560,
    0.223200,
    -0.190480,
    -0.181090,
    0.318490,
    0.404780,
    0.380250,
    -0.530560,
    0.512250,
    -0.620410,
    -0.451770,
    -0.276450,
    -0.819150,
    -0.514760,
    -1.056230,
    -0.439130,
    0.045420,
    -0.024470,
    -0.164110,
    0.635150,
    0.604090,
    -0.900110,
    -0.731300,
    -0.413870,
    -0.016320,
    -0.946170,
    -0.738210,
    0.725670,
    0.221820,
    -0.117520,
    -0.307020,
    0.497540,
    -0.181790,
    0.395340,
    0.565400,
    -0.236160,
    -0.153510,
    -0.916830,
    -0.306220,
    1.052400,
    -2.136160,
    -0.022430,
    -0.891010,
    -0.423480,
    -0.574090,
    0.084980,
    -0.409210,
    -2.125480,
    0.767980,
    -0.331080,
    -0.223780,
    0.090230,
    -1.140050,
    -0.170970,
    0.448640,
    0.439540,
    -0.197920,
    0.902560,
    0.630950,
    -0.899170,
    -0.265580,
    -0.400230,
    0.324960,
    0.257880,
    -1.197890,
    0.115420,
    -0.193020,
    0.619080,
    0.193330,
    -0.734260,
    -1.095890,
    -0.314220,
    -0.601950,
    -1.037850,
    0.316780,
    0.436020,
    0.224360,
    0.065000,
    -0.650850,
    -1.195470,
    -0.491590,
    -0.136290,
    0.268430,
    -0.115510,
    -0.120440,
    0.655200,
    1.053670,
    -0.443260,
    0.041370,
    -0.839890,
    0.780870,
    -0.195320,
    -0.438200,
    -1.010610,
    0.189130,
    -0.535480,
    0.475980,
    0.184780,
    0.344670,
    -0.362810,
    -0.802950,
    0.152690,
    0.426450,
    -0.223350,
    -0.043800,
    -0.945120,
    0.386430,
    -0.153860,
    -0.120260,
    -0.605980,
    -0.096830,
    0.111030,
    -0.095710,
    0.164900,
    0.005670,
    0.294270,
    0.140320,
    -0.218380,
    0.637070,
    -0.912640,
    0.043810,
    -1.266570,
    -0.313240,
    -0.444020,
    -0.615250,
    0.208530,
    0.086100,
    0.325690,
    0.457460,
    0.998710,
    -0.305360,
    -0.448690,
    0.109010,
    -0.352350,
    0.186810,
    -0.646080,
    -1.348160,
    -0.279480,
    0.764310,
    -0.330300,
    -0.353510,
    -0.637950,
    -0.759620,
    0.719290,
    -0.388790,
    0.271060,
    0.427990,
    -0.244590,
    -0.849980,
    0.020910,
    0.564190,
    -0.071480,
    0.404910,
    -1.257170,
    -0.269740,
    -0.265400,
    0.077240,
    -0.262400,
    -0.380090,
    -0.543900,
    0.364100,
    -0.444880,
    -0.873280,
    -0.084480,
    -0.141120,
    -0.116780,
    -0.530480,
    0.576550,
    -0.851220,
    -0.295060,
    0.244630,
    0.278760,
    0.368790,
    -0.572150,
    1.012330,
    0.436120,
    0.069660,
    -0.163660,
    -0.755100,
    0.152570,
    -0.624270,
    -0.146890,
    0.101070,
    0.343100,
    -0.219170,
    -1.243530,
    -0.532680,
    -1.546410,
    -0.051170,
    -1.154780,
    0.492600,
    -0.189690,
    -0.182730,
    -0.507820,
    -0.138900,
    -0.449330,
    0.327110,
    -0.157850,
    0.301200,
    0.009310,
