0.66360
-2.57126
-1.25381
-2.17101
-1.81634
-1.08097
-2.48448
0.39782
-1.45427
0.31759
0.15751
-0.17753
-1.58960
0.18795
0.11330
-0.84861
0.41901
-1.32329
0.19405
-2.11740
-0.05806
0.65985
0.64137
0.29024
0.39801
0.20968
0.60299
0.56300
-1.23242
-0.94797
-0.03362
-1.62538
0.82419
-0.68210
0.42420
-0.70780
-0.18533
-0.27808
0.36936
0.19366
-0.23317
0.37485
0.45307
0.60520
0.03855
0.60111
1.19879
-0.65755
0.57500
0.13210
0.28773
-0.73534
0.18231
-0.11032
0.89513
0.03468
0.10277
0.08954
0.32359
-0.04527
-0.82543
-0.32022
-0.02194
-0.40761
-0.02960
-0.84425
-0.04108
-0.23909
-1.39488
-0.36920
-0.28554
0.89187
-0.05661
0.68239
0.41467
0.11629
-1.26541
0.25641
0.54576
-0.52005
0.28591
-0.10630
0.31349
-0.65724
0.79756
0.79126
0.44681
0.38536
0.24988
0.39721
0.60734
0.51458
-1.21955
-0.07281
0.45424
-0.53956
-0.19358
0.15586
0.55135
0.24610
1.10243
0.45937
0.40141
-0.14907
0.28492
0.05555
0.06147
-0.94388
0.63467
-0.21138
-0.96874
-0.01419
-0.67981
0.34858
0.09150
0.38847
0.39166
-0.84656
0.12905
0.22648
-0.15160
-1.08804
0.05062
-0.80070
-0.19334
0.34908
-0.33419
0.26386
-0.11518
0.82638
0.10847
-0.38908
0.45699
-0.06963
0.06033
-0.29805
0.14518
-0.45182
-0.20002
-1.03666
-0.09451
-0.69184
-0.35199
0.40936
-0.91687
0.14929
-0.55828
0.53879
-0.98305
-0.03236
-0.56911
0.31484
0.71145
-0.52539
-0.01965
-0.81332
0.60934
1.13318
-0.67325
0.69318
-0.56534
0.08197
-0.45575
-0.21291
0.32308
0.36472
0.19688
-0.65667
0.74667
-0.74882
-0.92030
-0.58727
0.24354
-1.73924
-0.20933
0.46693
-0.38300
-0.27452
-1.22500
0.54995
0.39650
-0.85891
-0.86827
-1.00114
-2.23872
-0.08685
-0.84606
-0.17686
0.15836
0.34208
-1.15708
-0.52082
-0.13321
0.47731
0.88312
0.52848
1.03716
1.02776
0.06544
-0.76851
1.20065
0.11546
-0.77344
-0.80958
0.58425
-0.45073
-1.07499
1.06041
-0.19379
0.57155
-0.74081
1.30380
-0.21108
-0.77889
-0.60366
0.16955
-0.06248
-0.80475
-0.36371
-0.05771
1.07444
0.13600
-0.21409
1.11077
-0.22620
0.65083
0.96177
0.19073
0.59931
0.20931
0.45057
0.42862
0.88648
0.01587
-0.41821
-0.16691
0.64674
0.01023
0.01541
0.25913
-0.89037
0.30965
0.25212
0.84410
-0.22209
-0.73993
-0.62910
-0.68030
0.00217
-1.56424
-0.46149
-0.44772
0.76764
0.65150
0.16043
0.50573
0.76073
-0.04838
-0.36101
-0.85957
-0.73115
-0.42577
-1.04760
0.66635
-0.66049
0.89289
1.08154
0.17498
-1.36311
0.27951
0.20041
-0.20130
0.55820
-0.50947
0.52933
-0.75551
0.53221
0.82597
0.61399
0.81881
-0.40169
0.53357
0.48814
-0.26844
-0.40166
-0.45274
-0.54695
-0.18817
-2.09343
0.66637
0.38415
0.37177
0.25907
0.15544
-0.52639
-1.11690
0.48038
-2.43256
-1.83344
-1.44010
0.38658
-2.09642
-0.60101
0.37223
-0.40166
0.04958
-1.57102
0.15490
-1.13683
-2.09917
-0.86117
-1.34136
-0.36129
-2.29867
-0.80064
-0.16714
0.63857
-0.13520
-1.33900
0.06251
-0.77171
0.19677
0.22801
0.10811
-0.56602
0.11051
0.26890
-0.81975
0.24118
-0.37170
-0.67805
-0.00773
0.34538
-0.90011
-0.28917
0.22050
-0.39373
-0.18265
-1.46982
0.16877
0.02026
-0.61146
-0.23328
-0.62699
-0.42674
-0.61096
0.02490
-0.21700
-0.14977
0.17667
-0.93304
0.23807
0.62331
-0.70624
0.21571
-1.04280
-0.59800
-1.58509
-0.83278
0.32744
-0.19892
0.52901
0.74272
0.68134
-0.70845
0.15375
0.13979
-0.77153
0.20962
-0.60749
0.37690
-0.31908
0.92998
0.64173
0.70630
0.38241
-0.00043
0.98598
0.04584
0.72307
-1.03840
-0.58471
0.15243
-0.53880
0.72310
-0.24520
-0.05808
-0.46417
-0.07067
-1.07204
-0.17819
0.38800
0.27501
0.66024
0.36562
0.52997
-0.61932
0.12261
0.57048
-0.91172
0.63054
-0.37050
0.50076
-0.67043
0.39252
0.94234
0.63624
0.76781
0.25424
0.13113
0.73239
0.49674
0.33685
-0.11022
0.21780
-0.60905
-0.82047
0.21529
0.78836
0.70612
0.34618
0.35869
0.14515
-0.26716
0.38411
-0.44374
0.08017
0.51707
0.60150
-0.31825
-0.58061
0.43369
-0.74756
0.91077
-0.75050
0.17664
0.23538
-0.30695
-0.41333
-0.77437
-0.36115
-0.75722
-0.63473
-0.84458
0.69783
0.37952
-0.11300
-0.01620
-0.21523
0.78355
0.39534
0.42823
-0.01924
0.16819
0.46590
-0.46876
0.66964
-0.94853
-0.34688
-0.99947
0.27353
-0.40514
0.21497
0.89551
-0.85975
0.36767
-0.00743
0.29806
-0.35980
-0.96901
-1.00953
-0.84840
-0.23566
-0.65676
-0.17985
0.17220
0.65456
0.66008
-0.16746
-0.17708
-1.09960
0.05607
-0.12402
0.01849
0.13855
0.31578
-0.49114
-0.19520
0.11637
-0.29812
-0.70678
-0.24425
-0.20074
-0.18610
-0.13344
0.22867
-1.29943
0.18718
-0.64216
0.05102
-0.79929
-0.67059
0.16904
-0.16076
0.10333
-0.39757
-0.30124
-0.03884
-0.02808
0.03853
-0.94772
-0.28920
-1.54123
0.79910
1.46489
1.73606
1.38135
1.13897
0.43226
-1.21704
0.74346
-1.23960
-0.96523
-1.43959
0.58137
-0.62946
-1.12000
1.17390
-0.51310
0.66909
-0.94695
0.92447
-2.35778
-0.59780
-0.65230
-0.91431
0.08288
-0.01021
-1.26950
-2.46801
1.05084
1.79685
-1.27677
0.85213
-0.90405
0.44051
0.31920
0.73764
0.91358
0.44560
0.97850
-0.79209
1.23423
0.09152
-0.93257
-0.09093
0.66189
-0.28987
-0.39542
0.79910
-0.51591
0.88007
-0.83846
0.52464
-0.67399
-0.45089
0.11013
-0.54692
-0.75493
-1.12696
-0.21333
-0.25302
0.75647
0.30878
-0.62356
-0.35638
0.16035
0.79143
0.76560
0.79606
0.29551
1.04787
0.39538
-0.67024
1.02364
-0.79357
-0.00529
-0.45415
0.87714
-1.41110
-0.29816
0.48515
0.27730
0.78626
-0.44052
0.06934
0.03828
0.05476
-0.37223
-0.30014
-0.07819
0.33507
-0.21381
-0.57958
1.15398
1.04488
0.32425
0.78285
-1.19250
1.52930
-0.21413
0.11049
1.20347
0.60814
0.96181
-0.08007
0.29404
-0.60695
-0.58630
-0.89129
0.46900
-1.01024
0.01964
0.37899
-0.93863
-0.07482
-1.24452
0.64193
-0.39916
-0.63290
-1.00850
-0.62370
-3.04697
-0.43310
-0.24013
-0.22846
0.31228
0.17947
-2.07808
-0.05486
0.57224
-0.84443
-0.60592
-0.04085
-0.60434
-0.86060
-0.54995
0.02248
-0.61672
-0.06217
0.32383
0.19201
0.03270
0.79677
0.16465
-0.48560
1.49740
-0.55412
-0.03033
-0.55030
0.45401
-0.09713
0.27021
0.20800
-0.20585
0.59360
0.58160
-0.23376
-0.99136
-1.36384
0.42602
-0.33695
-0.89904
0.16580
-0.16390
-0.31923
0.28708
0.30246
-0.20248
-1.51034
-0.46534
-0.72774
-1.25593
-0.94643
-0.07314
-1.27185
-0.37090
-0.28657
-1.62788
-0.05820
-0.68028
0.14408
-0.52807
-1.22142
-1.52573
-0.98434
-0.44106
-0.74034
-1.46600
-0.49028
-0.34324
0.08158
-0.42096
0.01830
-0.25703
-0.44670
-0.61986
-0.57105
-0.91988
-0.02434
-0.17099
-0.30095
-0.49446
0.11233
-0.40576
0.12442
-0.81361
0.41222
-0.10773
-0.52813
0.09084
-0.92089
-0.33161
-0.48666
0.23575
0.18649
0.04405
0.07642
0.23549
-0.05619
-0.29320
0.20139
-0.61076
-0.15172
0.20921
-0.92255
-0.81538
0.57982
0.62154
0.20159
0.67350
0.12713
0.40474
-0.27256
0.41930
-0.50606
-0.02175
-0.49495
-0.11279
-0.78281
-0.83663
-0.02169
-1.34357
0.06767
-1.68550
0.84360
-0.86166
-0.14845
-0.52213
-1.19655
-2.15855
-0.50779
-1.04500
-0.00066
0.35795
-0.11399
-3.27211
0.72613
0.45487
-1.03028
-4.17219
-1.63265
-1.33821
-0.89833
-1.57080
0.73040
-1.29768
0.09977
0.36652
0.17493
-0.63174
1.01556
0.19673
-0.16672
0.22312
-1.00152
0.63261
-0.32073
0.62402
-0.09139
0.36966
0.78913
0.71623
0.62426
0.63166
0.22724
-0.89530
-0.55029
-0.22961
-3.27110
-0.50628
0.85603
0.53742
0.08180
0.53299
0.65338
0.51871
-0.17756
-0.04851
-0.04161
-0.11267
0.74156
0.20131
0.05150
0.09280
0.55396
-0.46712
-0.01518
-0.39541
0.40419
-0.28262
-1.08761
-1.19785
-0.89820
-0.08256
-0.51355
-0.07299
-0.38943
0.52537
0.55448
-0.74252
0.82348
-0.66023
0.37572
0.49271
0.34038
0.79386
0.88201
0.18696
-0.73477
0.24146
-0.95711
-1.04897
-0.71412
0.47938
-0.95231
-0.46562
0.19548
-0.69462
0.58031
-1.73038
0.40376
-1.08221
-0.68758
-0.36715
-2.29146
-4.32432
-0.62399
-0.62490
-0.78392
0.60980
0.55589
-6.36257
0.11093
0.14870
-0.88545
-0.73233
-0.55953
-0.29605
-1.81021
-0.08640
0.36281
-0.88732
0.51498
0.75514
-0.04227
-0.43737
1.03303
0.42942
-0.42370
0.25686
-0.35966
0.16156
-0.73199
0.15906
0.42975
0.86563
0.36370
0.57225
0.48871
0.66339
-0.03415
-0.39862
-0.81679
-0.09117
-0.22421
0.77848
-2.81088
-1.52197
-2.86721
-2.29992
-0.88453
-1.08884
0.15102
-1.69484
0.79796
0.73454
0.51205
-1.63405
0.12591
0.43813
-1.54549
0.33507
-2.90857
0.76958
-2.26191
0.41619
0.51210
0.03882
1.17104
1.12509
0.21398
-0.06243
0.43084
-1.46297
-2.01135
0.49894
-2.53867
-1.07181
-0.97018
-0.11730
-0.94185
-0.35166
-0.13494
-0.72688
0.98960
-1.03046
-0.21073
0.74438
0.75767
-0.83323
0.05508
-0.09746
-0.39609
0.18387
-0.73224
-0.11452
-0.41488
0.14296
-0.00267
-0.06353
-0.00535
0.61255
0.48318
-0.33084
0.51285
-0.49543
0.01241
0.45136
-0.41811
-0.52718
0.28042
0.12473
0.41394
0.17633
0.18150
0.38154
-0.46563
0.50076
-0.62343
-0.53227
-0.59463
0.37619
-0.11593
-0.85966
0.71887
0.13155
-0.01252
-0.22777
-0.03186
-0.28073
0.09292
-1.28437
-0.11353
-1.05703
-0.55999
-0.18979
-0.42229
0.98931
0.61745
-0.25101
-0.70691
-0.21269
0.40558
0.11728
0.04740
1.10213
0.72642
0.16822
-0.60381
0.40979
-0.69850
-0.80109
-0.75902
0.18750
0.06994
-1.11802
0.46806
-0.00891
0.74172
-0.58132
-0.11187
-0.89918
-0.45396
-0.86323
0.41611
-0.21019
-0.92467
0.00267
-0.59059
-0.30331
-0.00203
-0.13201
0.13766
0.62101
-0.78423
-0.89631
-0.64449
-1.28576
-0.21160
-0.40448
0.98929
-0.29736
0.83787
0.72790
0.61049
-0.25098
0.64227
0.50479
-0.67752
1.14162
-1.15701
1.34712
-1.12235
1.12782
0.44236
0.61860
0.21900
0.59582
-0.11283
0.63415
-0.04367
-1.00330
-0.65310
0.14981
-0.54766
0.06319
-1.52708
-0.48714
-0.72192
-0.68849
-0.40847
-0.50727
0.17457
-1.24234
1.13344
0.33284
0.55662
0.08085
0.35387
0.17494
-0.14124
1.28367
-0.06362
-0.17553
-0.43897
0.73345
0.11009
0.57870
0.99840
0.00474
-0.08040
0.94820
0.57433
-0.74563
-0.44213
0.69547
-0.36539
-0.12497
-1.33805
-0.38050
-1.89752
-0.87908
-0.88781
-0.53003
0.39273
-0.09116
0.20588
0.60312
0.79077
-0.67207
0.09381
0.34207
-1.12312
0.36127
-1.25941
0.58368
-1.21273
0.51035
0.32959
0.85681
0.38033
0.13758
0.14109
0.25278
0.56492
-0.56189
-0.85596
-0.23549
-0.80095
0.58075
-0.56861
-0.60531
-0.11024
-1.11120
-0.89287
-0.22607
0.24578
0.30600
0.52294
0.04978
0.57092
-0.28321
-0.04747
0.17065
-0.46290
0.12530
-0.20492
0.16207
-0.49103
0.53095
0.16380
0.94545
0.50154
0.32861
0.79636
0.34692
-0.16247
0.02536
-0.99558
-0.18456
-0.75982
0.72881
-0.59956
0.08490
0.08565
-0.90185
-0.25301
0.23704
0.18032
-0.44319
0.62736
0.46834
0.44368
-0.15917
0.70798
0.51350
-0.65541
0.89120
0.17233
0.25741
-0.60107
0.11796
0.61310
0.51276
0.64138
0.10168
0.01011
-0.12535
0.50724
-0.48223
-0.41224
-0.24844
-0.31130
0.02151
0.89532
0.36991
-0.05426
0.38663
0.48597
0.33005
-0.64925
0.33236
-1.16362
-0.85624
-1.34810
0.24483
-1.42747
-0.41286
1.18250
-0.48209
0.64789
-0.54258
0.29365
-1.87403
-0.28924
-0.97826
0.00067
-0.39531
-0.50111
-0.76742
-0.21384
0.55617
0.65923
-0.02518
0.40691
-0.51130
-0.27772
-0.05897
0.46979
1.00017
0.68578
-0.08364
-0.58862
-0.20209
-0.94113
-0.42921
-0.66589
-0.12484
-0.89396
-0.64757
0.90406
-1.22040
0.65982
-2.68793
0.52900
-0.43082
0.02168
-1.00906
-1.05617
-4.43275
-0.10005
-0.72385
0.15220
-0.50685
0.53601
-5.26764
0.34546
1.16269
-0.87842
-1.23519
-1.03864
-0.46436
-0.74525
-0.66966
0.40278
-1.39937
-0.10528
0.15593
0.42901
-0.67985
-0.09933
0.23836
-0.98762
-0.06028
-1.45805
0.41878
-0.53570
0.44899
-0.14229
0.22128
-0.03799
-0.12609
0.34379
0.14055
0.47707
-0.74488
-0.83531
-0.07633
-0.86935
1.03765
-0.30909
-1.24546
-0.23535
-0.86873
-0.82224
-0.67710
0.29615
-0.29300
0.25702
1.24873
0.37619
-0.20911
0.38652
0.63329
-1.13068
0.43255
-0.23778
0.38101
-0.99759
0.60222
0.09717
0.31979
0.38432
0.68190
0.55313
0.52509
0.43790
0.10562
-0.85038
-0.22624
-0.46336
0.60411
-0.41612
0.25526
-0.92166
-1.29635
-1.57660
-0.56171
1.09425
-0.35589
0.90381
0.78532
0.91721
-0.75872
0.26630
0.29753
-1.32386
1.03272
-1.05160
1.03591
-0.52172
0.11377
0.82865
1.10298
0.04696
0.62039
0.51018
1.23156
0.33904
-1.03512
-1.36349
0.07975
-0.89052
-0.58345
0.33822
0.53537
0.26534
0.02546
0.37479
0.13924
-0.56375
-0.07510
-0.34068
-0.02135
-0.56602
0.64477
-0.09934
0.33945
0.05052
-0.42548
0.81111
-0.10368
0.41947
0.55434
-0.57705
0.02270
0.11837
-0.05780
0.10567
0.23678
-0.03284
0.63294
0.31910
-0.69386
0.65673
0.01021
1.07066
0.86627
0.91987
-0.05077
1.39279
1.58418
-0.37403
0.13787
-1.08390
-0.37617
0.18232
0.81039
-0.17419
-0.62670
0.80744
-0.26625
0.38284
0.08489
-0.06713
-0.18477
-0.69261
-0.57139
-0.17204
-0.16577
-0.63983
-0.31186
-0.81995
0.49782
1.05826
-0.10209
0.18952
0.74217
-0.39405
-0.99396
-0.38327
-0.17145
-0.20358
-0.34771
0.69089
-0.72243
-0.04596
0.36117
-0.20952
-0.16872
-0.01604
0.18821
-1.23518
0.79977
0.20933
-0.19510
-0.27899
1.13823
0.62478
0.54519
0.52394
-0.19646
0.13653
0.58398
-0.46828
-0.92512
0.05041
-0.34998
-0.31160
0.19101
-0.44040
-0.30043
-0.92664
-1.04061
-1.21182
-0.82855
0.49736
-0.87324
0.30946
0.47202
0.02950
-1.31602
0.78348
0.86668
-0.89623
0.82451
-0.61166
0.87481
-0.87654
0.46212
-0.01813
0.27152
-0.48545
0.31590
0.31655
1.02682
0.33339
-0.78976
-0.19385
0.46744
-0.56378
1.03310
-0.74193
-0.68878
-0.46693
-1.23378
-0.92102
-0.54631
0.26650
-0.29204
0.59749
0.53412
0.55580
-0.37067
0.64998
0.37400
-0.70514
0.77463
-0.38117
0.61622
-0.66758
0.27893
1.22698
0.64562
0.93110
0.49254
0.45435
0.72681
0.51996
-0.86550
-0.98869
0.29683
-0.48162
-0.13449
-0.97380
-2.45429
-1.44032
-0.94058
-1.22108
-0.73194
0.19539
-0.87889
0.50884
0.32598
-0.03880
-0.84277
0.23270
0.35619
-1.05019
0.56465
-0.21705
0.24972
-0.89690
0.11241
0.37989
0.42207
-0.37455
0.61289
0.23310
0.35061
0.26811
-1.08455
-1.46314
0.16521
-1.97845
-0.57122
0.25696
0.11401
0.15239
0.42614
0.28172
0.58317
-0.14046
0.28499
0.12850
-0.68477
0.16153
0.56336
-0.33412
-0.85969
0.72688
0.07472
0.44201
-0.42768
0.35187
-0.40386
-0.45251
-0.00777
-0.11594
-0.58990
-0.52474
-1.31137
0.42389
0.24942
0.60859
-0.16955
0.16651
-0.99959
0.90604
0.45100
0.33417
0.65195
1.12510
0.41117
-0.82431
0.01669
-0.66199
-0.22152
-0.57463
0.96399
-0.59571
-0.11027
0.43069
-0.55078
0.98905
-0.22174
1.13782
-0.30126
-0.09263
-0.15584
-0.80051
0.39835
-0.92281
-0.58513
-0.63599
0.27015
0.68723
0.58765
0.49005
-0.85973
-0.28949
0.81466
0.49468
0.68998
0.62284
0.16893
-0.53587
0.45086
-0.39529
-0.71831
-0.51952
0.00829
-0.69202
-1.00607
1.10238
0.10370
-0.03592
-1.53471
0.18224
-0.63352
-0.55809
-1.01638
-2.55483
-3.55807
-0.67310
-1.15811
-0.85085
0.62443
0.56273
-4.20385
0.30928
-0.61816
0.00190
0.17505
0.70278
0.63590
0.77427
0.77067
-0.75093
0.03737
-0.47920
-0.67886
-0.71197
0.31881
-0.77281
-0.12392
0.26995
0.58304
0.71904
-0.91215
0.69596
0.41628
-0.35122
-0.82766
-0.54419
-0.37130
-0.42700
-0.71476
-0.83307
0.93457
0.51373
-0.76873
0.20135
0.21121
-0.84559
-0.68077
-0.22987
-0.72830
-0.79529
-0.59357
-0.30257
-0.96250
-0.48989
0.21393
0.05156
-0.12438
-0.31105
0.28768
-0.57856
-0.26871
-0.55122
0.39615
-1.04551
0.60174
-0.03436
-0.44155
-0.31496
-0.30765
-0.34114
0.38891
0.67387
-0.57042
-0.62490
-0.35191
-0.88193
-0.46131
-0.27421
0.03632
-0.17555
-0.13842
0.49401
0.68120
-0.68028
0.60018
-0.89012
-0.72843
-0.56530
-0.37455
-0.59224
-0.51219
0.32732
-0.52605
0.54756
-0.48765
0.01466
-0.73319
-0.16092
-0.31680
-0.18967
-0.64794
-0.61370
-0.19015
-0.90781
0.04507
-0.67583
-0.31601
0.11192
0.00384
-1.17432
-0.40262
-0.69775
-0.66382
-1.38036
-0.15013
-0.07049
-1.42674
0.54690
0.47223
0.16683
-0.35020
0.37099
0.29331
-1.37866
1.04600
-0.76976
1.05759
-0.10880
0.43296
0.21739
0.71602
0.96039
0.14601
0.77931
0.60143
0.52969
-0.80686
-0.55891
0.60110
0.09468
-0.37681
-0.43592
0.22342
-0.21581
0.05484
-0.04938
-0.15318
-0.20445
0.65997
-0.72172
-0.06587
-0.82226
0.27928
-0.73714
0.04417
0.41907
-0.37355
0.36242
-1.12187
0.30755
-1.09797
-0.52924
-0.32256
-0.43178
-1.43784
0.14090
-0.52543
-0.26013
0.58234
-0.21957
0.12369
0.23780
-1.09217
0.35494
0.13589
0.12185
0.45797
0.28530
-0.26723
-0.30364
-0.48375
-0.18393
-0.05635
-0.22422
0.48910
-1.14294
-0.16704
0.69074
-0.32274
0.35647
-1.08595
0.45874
-1.06110
-1.11222
-0.49553
-0.59212
-1.29911
-0.30937
-0.83634
-0.91478
0.62509
0.73022
-1.61242
0.25657
-0.19264
0.70607
0.41086
0.16756
0.87789
0.82569
0.43732
-1.19770
0.25886
0.25818
-0.53747
-0.73059
-0.01440
-1.09865
-0.51591
0.03457
-0.90266
0.86046
0.25764
0.02910
-0.52952
-0.21496
-0.91793
-0.50322
-0.26400
-0.64726
-0.43274
-0.16091
1.11448
-0.02663
-0.52824
-0.36544
0.06673
0.10417
0.47955
0.45436
0.99872
0.45027
0.48790
-0.49311
0.81280
-0.00775
-0.76576
-0.74168
0.66706
0.18477
-0.62432
0.15048
0.35404
0.55915
0.16686
0.24043
-0.44622
-0.85863
-0.38032
-0.09855
-0.46129
-1.39803
0.61321
-0.27027
0.36808
0.22504
-0.78764
0.79787
-0.80237
0.26460
0.37788
0.00066
1.01313
0.35345
0.51150
-0.67549
0.13372
-0.41194
-0.42134
-0.68771
0.58665
-0.09261
-0.05138
0.56029
-0.27057
0.22520
0.24052
0.72668
-0.62974
-0.68450
-0.33235
0.25148
0.09069
-0.15637
-0.51509
0.02564
0.31656
0.92830
-0.47924
0.25339
-0.63116
0.62848
0.54724
-0.17498
0.30305
0.53681
0.23044
-0.71899
0.46564
-1.03072
-0.26835
-0.48584
0.47393
0.35110
-0.87577
1.18786
-0.47057
0.86186
-0.15913
0.71866
-0.80629
-0.27104
-1.36557
0.12847
-0.17374
-0.50451
0.04056
0.14100
0.13854
0.57340
-0.21402
0.90176
1.35691
-1.39522
-0.47306
-1.85440
-0.59250
-1.88226
-1.64974
1.31690
-0.50134
1.02302
0.86878
0.61346
-0.64372
0.90020
0.62483
-1.41359
0.67513
-1.27359
0.89238
-0.25195
0.60317
0.86372
0.62826
1.09873
0.58077
1.28493
0.59162
0.75709
-1.38208
-1.58031
-0.50237
-0.98623
1.10062
-1.69561
-0.52669
-1.32387
-0.48302
-1.28329
-1.74852
1.54376
-1.22527
1.00608
0.55225
1.16010
-1.77627
0.35007
0.91548
-2.52226
0.71321
-1.21315
0.44840
-1.09860
0.86980
0.07114
0.70291
0.49074
0.33325
0.72490
1.13525
0.90118
-1.42191
-1.03292
0.11843
-1.29419
-0.23714
0.46989
-0.14658
-0.25429
0.65263
0.41211
0.01436
-0.86277
0.54494
0.22489
-0.16181
-0.47721
0.71544
-0.26497
-0.23547
0.63188
-0.27754
0.12612
-0.02764
0.69532
-0.51160
-0.18097
-0.47816
0.11650
-0.19221
-0.37265
-0.38512
-0.44726
0.25136
0.68713
-0.65189
0.34515
-0.16235
0.16583
0.53871
0.28074
0.48482
0.72628
-0.22295
-0.49343
0.35981
-0.39886
-0.24063
-0.27144
0.69705
-0.33366
-0.07572
0.50612
-0.73441
0.26300
0.16347
-0.05645
-1.30945
-0.23064
-0.48063
-0.56209
-0.25848
0.20015
-0.40937
-1.13576
0.61731
0.18959
-0.36680
0.16737
0.73709
-1.13479
-0.58448
-0.97938
-0.76696
-1.19294
-0.99205
0.60151
-0.69782
0.91504
0.10136
0.06783
-0.20852
0.52083
0.72965
-0.74150
0.23608
-1.35404
0.60079
-1.65631
0.61616
0.16098
0.84844
-0.06164
0.56780
0.63890
0.45467
0.42887
-1.57694
-1.27530
0.30763
-0.69206
-0.15913
0.25194
0.13714
0.42059
0.34829
0.16349
1.08707
-0.36185
0.16077
-0.46855
-0.29078
-0.42691
-0.25398
-0.32129
-0.09484
0.03909
-0.19579
0.55393
-0.39016
0.20914
-0.76796
-0.26118
-0.48594
-0.06475
-0.30190
-0.78914
-0.41330
-0.33392
0.52295
1.13105
-0.33437
-0.53048
-1.05517
0.03332
-0.24184
-0.28781
0.15785
0.46226
0.58908
-0.45945
-0.11327
-1.00853
-0.93838
-0.87922
0.24750
-0.37552
-0.16500
0.87717
-1.76164
-0.17731
-2.15713
0.40875
-0.79521
-0.30446
-0.42148
-1.08110
-3.50889
-0.35258
-1.38478
-1.31656
0.50206
0.67571
-5.21133
0.09523
-0.20202
0.24450
0.22958
0.47378
0.34022
1.07396
0.26654
-1.00228
0.86371
-0.61302
-0.47186
-0.26452
0.23181
-0.43912
-0.92353
-0.01134
0.10444
0.34794
-0.70080
0.65908
-0.06131
-0.98734
-0.56485
-0.73886
0.18254
-0.44261
-1.09262
-0.62861
0.58215
0.93103
-0.23843
0.97500
-0.04205
0.66885
-0.13352
0.31285
0.00057
-0.14144
0.30316
0.98784
0.48371
0.02490
-0.09118
0.07161
0.80409
0.18523
0.38930
0.24101
-0.07605
0.23226
0.59483
-0.05637
0.16665
0.25816
0.04756
0.12317
0.59864
0.60115
-0.19324
0.05633
0.76813
0.08296
-0.16168
0.28834
-1.70033
0.38218
0.25501
0.35788
0.63906
0.69092
0.75358
-0.62527
0.43011
-1.13903
-0.82279
-2.02155
0.56849
-1.46787
-0.78228
0.48672
-1.85608
0.79433
-1.34663
0.45298
-1.21788
-1.67309
-0.66306
-1.01281
-0.36355
-1.54804
-0.73399
-0.47031
0.01352
0.41707
-0.82579
0.95072
0.31857
-0.63519
0.49297
0.13378
-0.93567
0.04574
-0.15702
-0.14313
-0.63959
-0.28750
0.44959
-0.40303
-0.18165
-0.10809
0.75946
0.35751
0.60285
-0.12116
0.67690
0.08818
0.37495
0.63153
0.15951
1.01593
0.24335
0.60466
0.03871
0.71370
-0.34167
-0.79555
0.47549
0.09734
-0.31577
0.53096
0.51099
0.51859
0.96289
0.85524
0.00127
-0.64587
0.27079
-0.62236
-0.91296
0.10602
0.19367
0.09570
-0.59120
0.56906
0.10166
0.80118
-0.15507
0.67130
-0.42462
0.18412
-0.98660
-0.32460
-0.23158
-0.59895
-0.62222
-0.61189
0.87256
0.51025
-0.38987
0.09683
-2.48543
-1.42511
-0.89502
0.15698
0.24268
0.38507
-1.73106
0.46938
-1.89499
-2.11752
-1.32261
-0.95172
-1.64057
-1.30892
-0.06704
-0.64629
-1.47436
-0.88970
-1.80649
-0.74965
0.16650
-1.96195
-0.74248
-2.32877
-1.20006
-0.52020
-2.35988
-0.18353
-0.87189
-0.47255
-0.94322
-0.33267
0.27551
-0.31041
0.23839
-0.71622
-0.16657
-0.30681
0.01447
0.09738
0.36147
0.70619
0.48603
0.28360
-0.15506
0.70745
0.45989
-0.46684
0.13428
-0.61149
-0.07049
-0.79989
0.77228
0.97697
0.85075
0.10187
0.18443
0.77494
0.08050
0.02983
-0.24212
-0.60766
0.05923
-0.08439
-0.20394
-1.15240
-1.15341
-0.61604
-1.41431
-1.40329
-1.01656
0.30194
-0.59426
0.97324
0.82530
0.67195
-0.86604
0.79818
0.66136
-1.73089
0.54531
0.12451
0.67097
-0.72372
0.80083
0.90784
0.19627
0.81746
0.55625
0.36361
1.18503
0.48749
-0.34890
-0.73825
0.38865
-1.30195
-0.52421
0.07517
-0.00468
-0.44316
0.36248
0.33819
-0.71450
-1.00027
-0.56832
0.13308
-0.39333
-0.51810
-0.35976
-0.38893
-0.70591
0.11984
-0.62021
0.17776
-0.65541
0.22043
-0.03505
-0.56727
0.07048
-0.88594
-1.13743
-0.37495
-0.78435
-0.97076
0.16328
-0.13682
-0.21694
-0.21091
-0.20589
-0.95899
-2.57214
-1.23325
-1.18794
-0.66265
-1.49954
-0.07858
-1.40433
0.30528
0.10609
0.49107
-0.70219
-0.37966
0.78551
-0.79351
0.08337
0.27697
0.34765
-0.25488
0.69964
0.52186
-0.01623
-0.48208
0.29642
-0.07184
0.19142
0.26655
-1.28595
-0.61068
0.41200
-3.31800
0.08584
0.01600
-0.59850
0.10528
-1.72396
-0.48238
-0.37111
0.18544
-0.76354
0.27352
0.23858
-0.01375
-0.87718
-0.47326
0.15666
-0.65785
0.09682
-0.31438
-0.07404
0.21224
0.04038
-0.24839
0.33026
-0.11950
0.26525
0.05514
-0.00071
-0.17970
-0.31868
-0.47740
0.33427
0.00802
0.97357
-0.49310
-4.38178
-1.65502
-0.65237
-0.73971
-0.68987
1.00233
-1.65815
0.16291
0.29505
0.67894
-0.83460
1.15748
0.09043
-0.91614
0.37443
-0.71008
0.32371
-1.47341
0.51417
0.57205
0.24221
0.30519
0.44264
0.47157
0.56503
0.28419
-1.65815
-1.24051
0.71569
-3.12697
0.46011
-1.19384
0.03532
-1.24243
-0.51684
-0.52505
-0.59757
0.80005
-0.18419
0.53934
0.23058
0.94475
-0.79391
0.44444
0.78025
-0.48304
0.24940
-0.48487
0.61926
-0.93188
0.89737
0.54415
0.24832
1.01515
-0.09340
0.65963
0.67078
0.61650
-0.65348
-0.31354
0.35671
-0.04305
0.35287
-0.38104
-0.10627
-0.50337
-0.28738
-1.20327
-0.78450
0.62804
-1.32390
0.71705
0.41544
0.37245
-0.80362
0.48437
0.45852
-0.69859
0.66863
-0.00021
0.14144
0.22931
0.60875
0.53120
0.45613
-0.40111
-0.00651
0.24136
0.57766
0.97979
-0.42157
-1.03083
0.59605
-0.42894
-2.08257
-1.77466
-0.37067
-1.81373
-0.42116
-0.42062
-2.76285
0.12514
-1.18791
-2.21824
-1.07921
-0.48182
-2.07667
-1.52358
-0.70666
-0.40892
-2.27757
-0.95817
-1.27438
-1.81071
-0.57865
-2.41516
-1.28011
-1.73268
-0.92014
-1.77322
-2.59107
-0.49311
-0.91150
-1.24908
-1.44459
-1.25366
-0.81617
0.52359
-0.03446
0.66760
0.50294
0.30325
0.10270
-0.77556
0.24220
-0.41651
-0.67673
-0.90046
0.22724
-0.81691
-1.08220
0.27860
-1.86070
0.41225
-1.87715
0.96291
-0.65387
-0.18990
-1.17583
-2.20752
-4.07497
-1.03751
-0.21942
-0.70433
0.44783
0.75027
-4.27168
-0.78097
-3.22772
-1.90956
-0.88568
-0.99168
-0.27735
-0.20671
-2.05876
0.17997
-1.74604
-3.01418
-1.11772
-0.87693
-2.47047
-1.42786
-0.66587
-0.19391
-1.47216
-0.78293
-0.72682
-1.92348
0.32403
-1.75187
-0.99863
-1.87800
-1.47261
-1.86830
-2.07092
-0.23148
-0.84900
-1.08111
-1.13240
-1.03160
0.61481
-1.55803
-0.73127
-0.55455
-0.75880
-1.13087
-1.03990
0.43254
-0.09348
0.92161
0.57430
0.07792
-0.87811
0.35578
0.39570
-0.55739
-0.23939
-1.58358
-0.24369
-0.87943
-0.12932
0.15208
0.59434
0.33222
0.05166
0.70385
0.30845
0.25051
-1.00889
-0.55894
0.16410
-0.93928
0.21650
-0.53892
-1.17831
-0.62570
-0.26246
-1.07864
-0.04555
0.23283
-0.92100
0.56084
-0.35589
0.45475
-0.64572
0.27409
0.09547
-0.69963
0.11602
-0.11912
0.34824
-0.31649
0.74544
-0.39400
0.05805
-0.14108
-0.34513
0.65556
0.48502
0.62265
-0.67599
-0.52026
0.53364
-1.20353
-0.20141
0.85354
0.97577
0.48373
0.64446
0.61941
0.97451
-1.50954
0.41263
-0.96317
-0.91928
-0.33440
0.55903
-1.69135
-1.14283
0.53902
-0.63555
1.04368
0.03679
0.56194
-0.72980
-1.30174
-1.28803
-0.50511
-0.78860
-0.51520
0.05134
-0.48673
0.54565
0.66385
-1.06160
0.41596
-0.52655
0.33123
0.22810
0.23685
0.50008
0.16229
0.62755
-0.49380
-0.30092
-0.46762
-0.79320
-0.58811
0.44178
-1.13087
-1.03113
0.72191
-0.61824
0.36062
-1.68258
-0.32332
-0.53636
-0.43844
-0.70668
-1.93872
-2.63828
-0.58523
-0.04177
-0.21792
-0.03775
0.60414
-3.49828
-0.34087
-0.80835
0.03304
-0.08900
0.34942
0.49876
-0.02789
0.54038
-0.79318
-1.00740
-0.36471
-0.12063
-0.37952
0.55703
-0.97268
0.06004
-0.02592
-0.99469
0.25322
-0.25281
-0.26394
0.28886
-0.91517
-0.24176
-0.79775
-0.25469
-1.02487
-0.28350
0.13337
0.37807
0.27249
-0.24615
0.36692
0.37495
-0.25748
-2.05041
-0.57836
-0.82052
-0.27147
-0.48139
-0.04968
-0.89946
0.14366
0.60947
0.15647
-0.99625
0.13591
0.73489
-0.21611
0.47460
-0.15836
0.40727
-0.52424
0.08745
0.54931
-0.22433
0.28396
0.09502
-0.06461
-0.09024
0.30873
-0.47254
-0.82807
0.03129
-2.39078
0.71937
-0.95517
-0.65973
-0.65732
-0.00343
-1.23602
-0.92343
1.13031
-0.26426
0.24041
0.50043
0.36213
-1.10458
-0.00899
0.64141
-0.47724
0.34720
-0.71254
-0.13390
-0.68536
0.10996
0.89152
1.10193
0.69025
-0.25561
0.43395
0.50282
1.25922
-1.26545
-1.12348
1.03237
-0.14327
-0.15021
0.47281
0.75680
0.68730
0.14781
0.60854
-0.23242
0.03398
0.67163
0.07087
0.57866
0.24692
0.89265
-0.20840
0.04171
0.44906
-0.52885
0.78853
-0.17682
-0.01273
0.54734
0.04699
0.18137
0.44880
0.05957
-0.53160
0.15864
-0.07458
0.71864
0.39925
0.38760
0.65317
-0.34208
-2.16025
-0.85178
-1.78495
-0.69778
-0.09916
-1.92385
-0.43877
-2.45065
-0.05716
-0.14426
-0.51888
-2.43815
-0.49379
0.12158
-1.72604
-0.63211
-2.36397
-0.22656
-1.91891
-1.43237
0.27476
-0.36389
0.28278
-0.31733
0.15371
-1.50896
0.24533
-1.83524
-1.65925
-0.29924
-0.91151
0.52383
-0.85256
-0.26761
-0.53078
-0.61025
-0.70738
-0.66000
0.51203
0.33703
0.43410
0.02876
0.29869
-0.86334
0.25237
0.48790
-0.98468
0.26187
-0.26890
0.11592
-0.84906
0.48697
0.59051
0.72409
-0.11255
-0.23411
0.42441
0.39492
1.20913
-0.52927
-0.76046
0.71746
-0.65888
-0.66065
0.28313
0.03628
0.46530
0.27364
-0.01777
0.93089
0.67264
-0.52193
-0.24191
-0.37513
-0.17173
0.21613
-0.68693
-0.66995
0.70482
-0.64522
0.18930
-1.24815
0.33873
-0.26366
-0.43055
0.18494
-0.04796
-0.60492
-0.23845
-0.15691
0.20816
0.05200
0.16883
0.10265
-0.19262
-0.38274
0.66796
0.64054
0.36164
0.46079
0.95837
0.36007
0.07508
0.64064
-0.62796
0.37562
-0.64614
0.48244
-1.34579
-0.24066
0.79625
-0.15098
0.18442
-0.86965
0.00817
-0.19214
-0.76566
-1.23769
-0.28273
-0.50121
0.06979
-0.92559
-0.22166
0.30823
0.75342
0.14988
0.96541
0.15202
-0.63502
-0.07747
-0.62076
-0.95986
-0.14758
-1.18464
0.49413
-0.43283
0.68475
0.64014
0.66275
-0.45422
0.74264
0.81724
-0.36880
0.09017
-0.78104
0.26905
-0.13121
-0.32099
0.09346
1.16686
0.82188
0.38679
0.54212
1.04814
0.57451
-0.85169
-0.33330
0.78293
-0.27980
-0.01731
-0.36718
0.19392
-0.27816
0.22183
0.09095
-0.01356
-0.29954
0.39940
-0.86028
-1.17336
-0.22997
0.54544
-0.52234
-0.60106
0.03647
0.13343
-0.41405
-0.49545
0.37469
-0.31570
-0.00322
-0.68191
-1.16223
-0.39131
-0.45014
0.14517
-0.40193
-0.15509
-0.00487
-1.01793
0.57479
-0.88204
0.22679
0.18023
-0.09288
-0.20433
0.49128
0.03387
-0.05877
0.20054
-0.09229
-1.06812
-0.76733
-0.05674
-0.78948
-0.27829
-0.39591
-0.76938
-0.54922
-1.15984
-0.16085
-0.39560
-0.77893
-0.39723
-0.10970
-0.49109
-0.92895
-0.42272
0.03012
-0.22500
-0.28417
-0.27496
0.26057
-0.01793
-1.01280
-0.62358
-0.26143
-0.89854
-0.38518
-1.46294
0.63307
0.08678
0.70394
0.78587
0.54587
-1.07162
0.60818
-0.12587
-0.50218
0.35832
-0.32653
0.13904
-0.25655
0.92107
0.18957
0.55358
0.26021
-0.10789
0.01853
-0.11704
0.22595
-0.56270
-1.06416
-0.12599
-0.89264
-0.80603
-0.04854
0.43691
0.06626
0.64661
0.16404
0.57623
-1.20067
0.70358
-0.99623
-0.96943
-0.18403
0.45156
-1.00260
-0.50461
0.72561
-1.09048
0.64941
-1.40555
-0.26594
-0.48740
-0.71322
-0.48228
-0.53009
-4.37914
-1.04694
-0.43992
-0.74434
0.66570
-0.14056
-4.42641
-0.18200
-0.42420
0.63784
0.12900
0.72635
0.88054
1.11328
0.39395
-0.13255
0.71128
0.05170
-0.04231
-0.04962
1.00846
-0.05254
-0.06722
0.50294
-0.47722
0.71961
-0.22421
0.34579
-0.52408
-0.13397
-0.01724
-0.30974
0.13138
0.03201
-0.57628
-1.05927
1.10040
0.05774
-0.18269
0.97861
-0.59289
0.36033
0.58822
0.69155
1.03195
0.37699
0.61651
-0.85779
0.43969
-1.29895
-1.23040
-0.99495
0.40418
-1.08687
-1.03090
0.61841
-1.00529
0.45635
-0.92861
0.25484
-1.11615
-1.06467
-1.17692
-1.09164
-0.51825
-1.41735
-0.24270
-0.41078
0.03504
1.18879
-0.23765
0.29948
0.42745
-0.64828
-0.28686
0.23333
-0.72665
-0.31055
-0.93400
0.64349
-0.37171
0.32217
0.21599
0.20884
-1.28814
-0.25133
1.23764
-0.90320
0.06881
-1.10589
-0.15205
0.03729
-0.15312
0.52068
0.69346
0.19637
-0.15797
0.32132
0.48986
0.59485
-0.78560
-0.53627
-0.34704
0.06299
0.40696
-0.55301
-2.97515
-1.75730
-0.31280
-0.23861
-0.89495
0.35148
-1.96300
0.39716
0.57462
-0.00230
-0.69425
0.35532
0.54346
-0.22089
0.24770
-0.35416
0.37744
-0.87020
0.70886
0.42732
0.85559
0.65700
0.35873
0.95354
0.73100
0.01744
-0.93121
-0.78666
0.10946
-2.36454
0.03296
-0.40707
-2.20816
-0.96180
-0.75410
-0.59790
-0.90743
0.20557
-1.95855
-0.17088
0.51922
1.08295
-0.78556
0.21893
0.88122
-0.97941
0.52008
-0.65563
0.89191
-0.56187
0.25833
-0.10372
0.91781
0.11428
0.38266
-0.05803
-0.64902
0.36573
-0.97338
-1.30492
0.72427
-2.99061
-0.00702
-0.69169
-0.14834
-0.40146
-0.53005
-0.62853
-0.47030
0.78692
-0.25557
0.22024
1.07954
0.13293
0.12467
0.20195
0.08417
-1.03865
0.16662
0.65095
0.76874
-0.25699
0.21684
0.18432
0.36208
0.68055
-0.05866
-0.27596
0.47729
-0.06090
-0.09113
-0.50054
0.86231
0.21593
-0.99890
0.77777
0.32016
0.08336
0.40312
0.57154
-0.02810
-0.71920
0.22983
-0.16567
-1.23639
-0.56591
-0.15155
-0.73108
-0.35904
0.35325
-0.86558
-0.21431
-0.17555
0.25984
-0.51757
-0.51995
0.05309
-0.05870
-0.59852
-0.43477
-0.19668
-0.32075
0.84554
0.32958
-0.83629
0.11062
0.73446
-0.36632
-0.23480
-0.58115
0.08244
-0.23931
-0.17529
0.47602
-0.13301
0.32926
0.27442
0.14649
-0.85776
0.70931
0.39433
-0.24356
0.44932
-0.06290
-0.37838
-0.62064
0.06654
-0.04845
1.15521
1.20619
0.06544
0.21697
1.25520
0.29846
-0.78965
-0.15170
0.56472
-0.55847
-1.42890
-2.62539
-1.10296
-1.26606
-0.03067
-1.34930
-1.88958
-0.31872
-2.19870
-1.84706
-0.58294
-0.46393
-2.45262
-1.56495
0.03100
-0.55176
-1.66014
-1.88965
-0.77281
-2.31304
-0.26914
-1.98108
-1.34299
-1.47963
-1.57817
-1.23381
-2.19038
-0.47312
-1.70185
-1.19433
-1.14539
-1.27019
-0.44443
0.71368
0.13201
0.32501
0.78011
0.30239
0.70480
-0.36573
0.21385
-1.19856
-0.43232
-0.84294
0.46500
-0.59046
-0.08843
0.96134
-0.25564
0.07685
-2.11609
0.54589
-0.58239
-0.42216
-1.06026
-1.78621
-4.22345
-1.01500
-1.27749
-0.60149
-0.13448
0.72128
-4.72219
0.49551
-0.57392
0.46324
-0.28156
0.62650
1.24869
0.52089
-0.01856
-0.52056
0.22611
-1.26561
-0.88820
-0.43324
0.62316
-0.11046
-0.17525
0.25299
-0.59643
0.82145
-0.05383
0.15374
0.00275
0.00796
-0.09720
-0.60200
0.17901
-0.73991
-0.78549
-0.18136
0.61129
0.66757
-0.56697
0.53378
0.26901
-1.53235
-1.26497
-1.37664
-0.74610
-0.65922
-0.62313
0.12718
-0.39372
-0.25754
0.27442
0.17354
-1.05589
0.66251
0.35661
-1.67053
0.33850
-1.38462
0.14278
-2.41720
0.54038
0.48370
0.27532
0.39613
0.14865
-0.13262
0.75371
0.04807
-0.33928
-1.22778
-0.11628
-0.59781
-0.26883
0.34659
0.26936
0.53395
0.99463
-0.03038
0.50773
-0.31418
1.14843
-0.99810
0.47889
-0.03477
0.47952
-0.31205
-0.59667
1.07293
-0.50611
0.46764
-0.02972
1.10448
-0.32467
0.72973
0.20112
0.18958
0.19262
-0.53196
-0.55613
-1.26018
0.53850
0.68491
-0.05896
0.65728
0.55278
0.13399
-0.43895
-0.53308
-0.63483
-1.04080
-0.13614
0.19704
-0.07737
0.11695
0.35670
0.72668
-0.56036
0.03686
0.98103
-0.67814
0.53118
-0.89317
0.35294
-0.91245
0.32627
-0.13281
0.66428
0.44500
0.21669
0.98828
0.96104
-0.36470
-0.63163
-0.31227
0.84705
-0.14090
-2.13396
0.45470
0.84538
0.79886
0.62885
0.42698
0.70378
-0.84034
0.61653
-3.42075
-1.13085
-1.02482
0.10579
-1.44852
-0.38759
0.17603
-1.36999
0.38676
-1.63015
0.91584
-0.37107
-2.37284
-0.80960
-1.30864
-1.98310
-1.31490
-1.80091
-0.66483
0.44073
0.35652
-1.71297
0.71526
0.34878
-0.70643
-1.02795
-0.89513
-0.30637
0.02417
-0.80755
0.22118
-0.78532
0.80259
0.76427
-0.15323
-1.22039
0.53106
0.02609
-1.22486
0.59928
-0.32114
-0.11280
0.04845
0.31913
0.22512
0.60427
0.22834
0.12351
-0.27081
1.08645
0.48873
-0.52560
-0.69091
0.58102
-0.66584
0.19969
0.72473
-0.32916
0.82923
0.75019
0.95829
0.86107
-0.15647
-0.06295
-0.63203
-0.85698
-0.95104
0.14700
-0.19937
-0.80229
0.07354
-0.74479
0.28007
-0.86101
0.37026
-1.10192
-0.42631
-1.01951
-0.80119
-0.83772
-0.24805
-0.25819
-0.41431
0.07790
0.56608
-0.48469
-0.15102
0.11292
-0.61309
-0.41284
-0.64790
-0.67041
-0.56202
-0.81651
0.33536
-1.33304
0.48725
0.20342
0.47350
-0.75751
0.27263
0.74140
-0.32346
0.09380
-0.28738
0.73873
-0.84716
0.37971
0.07239
0.27599
-0.05057
0.20105
0.30498
0.24522
0.68223
-0.53439
-0.60146
-0.04512
-1.39884
0.74470
-0.03249
0.03801
-0.65039
-0.62089
-0.27367
-0.04027
0.09938
-0.00217
0.85732
0.14548
0.86847
0.42318
0.48068
0.23270
-0.78109
0.26093
-0.76007
0.04433
-0.33877
0.51758
0.53732
0.08707
0.02803
0.19276
1.02769
0.33681
0.35023
-0.88378
-0.12422
-0.53603
-0.30621
-0.06960
-0.51869
-3.83920
-1.64236
-0.17129
-0.67300
-1.62984
-0.28668
-1.82797
0.91481
1.22010
0.58665
-0.51419
0.20789
0.33216
-0.41456
0.32580
-0.86845
0.34229
-0.94046
0.46507
0.03624
0.66509
-0.06258
0.56367
0.41874
0.74493
0.33767
-1.15532
-0.79659
0.44784
-3.75437
0.06496
0.66485
0.04854
0.42515
0.75346
0.55232
0.36018
-0.40958
0.23281
-0.31702
-0.51659
-0.93504
0.39933
-0.18793
-0.20171
0.01088
-0.49173
0.28567
-1.11290
0.75682
-0.11865
-0.32589
-0.20956
0.52711
-0.82116
-0.44121
-0.80073
-0.33184
-0.30968
-0.18364
-0.49468
0.18385
0.15079
0.17980
0.99029
0.48388
0.36330
1.10025
0.05203
-0.19410
0.93916
-0.21343
-0.51833
-1.07058
0.58371
-0.35227
0.19765
-0.26339
-0.24071
0.59368
-0.32653
0.31891
-0.93559
-0.43671
-1.35077
0.05847
-0.11014
-0.94637
-0.53835
-0.23656
1.02621
-0.19702
-0.19196
0.04563
-1.84671
0.65891
0.58474
0.88149
0.32660
0.42487
0.89032
-0.66021
0.14691
-1.60057
-1.53571
-1.94786
0.54667
-1.73803
-0.15576
-0.07549
-1.70879
1.00776
-1.08339
1.06120
-2.38936
-0.93160
-1.88924
-2.03652
-0.41184
-1.55921
-0.29847
-0.94691
0.58283
0.73502
-1.05677
0.17125
-0.18776
-1.12591
-3.79363
-1.51232
-0.41446
-1.34888
-1.09878
0.72515
-0.91910
0.89957
0.37459
-0.04174
-1.13816
-0.05901
0.12568
-0.56288
0.39374
-0.18385
0.16281
-1.27696
-0.06891
0.74032
-0.13423
-0.22895
0.33564
0.75474
0.67807
0.49062
-0.60873
-1.12488
-0.05258
-3.99850
0.00177
-0.61097
-3.11276
-1.72383
-0.37704
-0.85627
-1.37093
0.37565
-1.59246
0.10594
-0.09547
-0.20854
-0.42501
-0.27176
0.59005
-1.21751
0.68291
-1.08315
0.33861
-0.51380
-0.18791
0.68631
0.26327
0.53032
0.22599
0.54397
0.48166
0.69901
-0.53046
-0.64913
0.21543
-3.04733
0.32282
-1.17161
-3.62649
-0.87015
-0.69857
-0.92038
-1.06167
0.30190
-0.99977
0.31100
0.52709
0.36888
-0.80493
0.31224
-0.12085
-0.57267
0.57479
-0.67404
0.17035
-1.15838
0.88974
0.30271
0.38916
0.02992
0.05385
0.46186
0.09192
0.61972
-0.76061
-1.06482
0.17151
-3.70272
