-3.33871
-0.12684
-0.54271
0.06368
0.31349
0.46139
-0.08607
-1.66066
-0.02475
-2.62221
-2.76681
0.15834
-2.27550
0.50446
-0.39488
-2.19402
-0.54785
0.17970
-0.10250
-0.61817
0.03233
-1.76748
0.34729
-0.50029
-0.54281
0.30284
0.16295
-2.42642
-0.17418
-0.12699
-0.22831
0.30194
0.15362
-2.16274
0.02976
-1.89863
-1.72109
-2.46960
-3.36188
0.37912
-2.50458
-0.29333
0.45102
-2.81261
0.66020
-2.87481
0.18302
0.36885
0.33565
-3.03623
-3.48302
0.08025
-2.88375
0.47319
-2.31289
0.65472
-1.49831
-2.24938
-3.96619
-0.03124
-0.46045
-0.75036
0.20431
-4.24297
0.05770
-3.22836
0.49300
-4.60127
-3.32712
-1.84748
-3.82715
0.28033
-2.42882
0.18481
0.24850
-3.69455
0.16656
-3.54091
0.79428
0.63364
0.57567
-3.91823
-3.79431
0.28930
-3.70958
0.10261
-3.37602
0.75008
-2.70219
-2.77544
-4.10396
0.88087
-1.12319
-1.66820
0.30623
-3.95079
0.20689
-2.37251
0.35974
-3.06553
-3.38230
-0.43467
-4.43661
0.29927
-2.46376
-0.07624
-0.23062
-3.31588
0.45928
-4.86821
0.63699
-0.00613
0.57493
-3.66181
-4.65038
0.29672
-3.61000
-0.22845
-3.80899
0.62729
-2.48037
-3.71470
-4.82363
0.53554
-0.43258
-1.33873
-0.23341
-4.51087
0.26350
-1.02829
0.43916
-0.53271
-0.06674
0.07303
-4.82067
0.04376
0.46382
-0.39222
-0.60897
-1.90506
-0.04610
-5.12209
-0.34572
-0.04598
0.10576
-3.28352
-0.52486
-0.17072
-2.82840
-0.01039
-1.84605
-0.02950
-0.38403
-2.13912
-2.71365
-0.19378
0.13919
-0.18099
0.05495
-4.13717
-0.01624
-0.56003
-0.25414
-0.73794
-0.80964
-0.19988
-4.47097
0.01728
-0.42126
0.21862
-0.27467
-3.09628
-0.06455
-5.13800
-0.28540
0.17483
-0.06006
-4.88232
-1.43957
-0.34045
-5.03495
0.03460
-0.99784
-0.13079
-0.93698
-3.78991
-2.86476
0.51773
0.65709
-0.41813
-0.21453
-3.30051
-0.39383
-3.46469
0.21897
-1.61444
-1.74547
-1.71141
-5.08722
0.01557
-2.20361
0.23165
0.68229
-4.16865
0.11954
-5.29554
0.21121
-0.01221
0.07546
-3.89821
-4.13423
0.17233
-3.68155
0.47245
-4.49126
0.22162
-1.72593
-4.29055
-4.33906
0.67902
-1.31701
-1.14921
-0.04188
-4.72316
-1.00172
-0.38604
-0.42802
-0.33787
0.17601
0.12640
0.11922
-0.27269
-0.12147
-1.79303
-1.52560
0.04717
-2.64737
0.44250
-0.25684
-2.43381
-0.73482
0.04546
-0.25045
0.23192
-0.10020
-1.17959
1.09284
-1.82010
0.25032
-0.01258
0.01953
-2.58512
-0.12795
-0.07806
-0.54925
-0.08371
0.62140
-0.34191
0.09759
0.53181
0.02638
0.38699
-0.54031
-0.20252
-0.00800
0.14073
0.54577
-0.12025
0.02388
-1.30191
-0.20073
0.71651
0.57627
-0.25336
-0.32506
0.33110
-0.82807
0.45591
-0.35477
0.29864
-0.06435
-1.19010
-0.59949
0.23457
0.27615
0.24372
0.14312
-0.60547
-2.83970
-0.04941
-0.56634
-0.08646
0.15186
0.09877
-0.53672
-0.81047
-0.43108
-1.72250
-3.22525
-0.01553
-2.45380
-0.38066
-0.30287
-3.70542
-0.65473
-0.15316
0.62351
-0.92667
0.41380
-4.42768
0.32473
-3.71336
-0.47404
0.27127
-0.35540
-3.43289
-0.06710
-0.21013
-0.62400
-0.63281
-3.45816
0.12724
-0.15621
-0.26848
0.42061
0.32161
-0.03156
-0.35135
-0.15808
-3.95446
-2.10235
-4.21191
-2.99624
-0.12327
-0.07021
-1.98643
-0.07636
-0.07656
-0.69357
-0.20485
-0.01625
-3.33229
0.46675
-2.76600
0.60672
-0.23161
0.33085
-3.22733
-0.13492
-0.11459
-0.59362
-0.40146
-1.59333
0.34916
-0.33642
-0.62746
0.35659
0.18760
-0.58017
-0.18449
0.25032
-0.64657
-2.59300
0.48334
-4.07606
-0.05386
-0.43678
-1.25387
-0.61845
-0.24189
-0.02713
-0.25573
0.03440
-2.57299
0.25091
-3.67124
-0.09554
-0.41486
-0.00391
-2.75256
0.20756
0.01848
-0.25668
0.04334
0.14780
-1.56287
0.14747
-1.33801
-0.76084
-0.51906
-3.41248
0.26574
-1.26436
0.12641
0.08552
-2.10982
-0.49878
-2.37243
-0.01312
0.03872
0.27157
-2.32537
-2.32464
0.55010
-2.37406
-0.59866
-2.04341
0.11774
-1.71706
-2.99965
-2.44824
-0.31584
-0.21872
-0.77546
-0.22208
-2.83156
-1.81524
0.67166
-0.43809
-0.41345
0.37554
0.04094
0.25140
-0.58910
0.20226
-3.02895
-2.43104
0.52903
-1.41906
0.11653
-0.91285
-2.43950
-1.13096
0.15248
0.42925
-0.31869
0.03017
-1.92807
-0.18118
-3.08853
0.65506
-0.05207
0.05438
-2.37980
0.61799
-0.12077
-0.57788
0.22976
-0.60819
-0.50100
0.03821
-0.14663
0.35183
0.08658
0.21942
0.45616
0.22711
-0.54025
0.21469
0.34747
-3.12093
-0.13926
-0.42077
-0.91797
0.06252
0.10884
0.01557
0.23946
0.46253
-1.06459
-0.15046
-2.54941
-0.57020
-0.25292
0.04721
-0.74282
0.11171
-0.06316
-0.38310
-0.34945
0.04779
-1.22952
0.65969
-0.80547
-0.80285
-0.79790
-5.17508
-0.31940
-0.11414
-0.57772
0.49584
-2.65849
0.25977
-3.54652
0.32074
0.07316
0.44664
-3.33866
-3.60813
0.08517
-3.73277
0.47264
-1.93692
0.00193
-0.35041
-3.30223
-3.73414
-0.04560
0.08644
-1.08468
0.57217
-4.65983
-1.76348
0.14579
-0.69860
0.36062
0.05739
-0.39027
-0.37899
-0.60313
0.27176
-3.25241
-1.85155
-0.01697
-2.48683
-0.00958
-0.30932
-3.35320
-0.13041
0.94846
-0.20289
-0.44595
0.05444
-2.07075
0.42011
-2.35781
-0.03833
0.07903
0.14471
-1.81113
0.10933
0.42073
-0.75243
-0.32316
0.31915
-1.53356
0.04806
-1.74367
-0.79769
-1.20140
-4.41596
-0.06832
-0.84987
0.13514
0.04272
-3.16418
0.55995
-4.31055
-0.20849
0.38181
0.05487
-2.99508
-2.05949
0.03811
-3.04657
-0.05499
-2.76571
-0.24978
-1.02200
-3.32808
-3.09495
0.00473
-0.24264
-1.07636
0.64102
-3.81899
0.48397
0.44591
0.45987
0.22871
0.37002
0.12157
0.68117
-0.53333
0.25257
-1.21979
-0.73025
-0.12244
-0.67390
0.08636
0.10824
-2.05597
-0.23159
0.61842
0.25644
-0.72095
0.02435
-0.14779
0.43215
-1.35667
-0.16185
0.35775
0.17314
-0.70018
0.67356
0.73197
-0.28910
-0.30515
-0.21734
-1.70786
0.11425
0.03533
-0.35326
-0.24157
-3.20747
0.56544
-0.41598
0.50936
0.29494
-1.44637
-0.43562
-1.65722
0.07464
0.45645
-0.25702
-1.61544
-2.28776
0.17237
-1.40591
0.20650
-0.91529
0.27501
-0.07481
-1.79574
-2.53096
0.71766
-0.40350
0.07138
0.24826
-2.64533
-2.35487
-0.54716
-0.10451
0.74642
0.62822
0.24946
0.20581
-0.29891
0.06235
-0.48050
-0.30910
0.37441
-3.67365
0.47050
-0.31758
-1.04331
-0.47425
0.05876
0.06585
0.14203
0.14912
-3.52112
0.50705
-3.56403
0.25659
-0.28997
-0.20766
-2.94756
-0.15670
0.58006
0.02742
0.42215
-1.89353
0.58292
-0.37674
0.07030
-0.29160
-0.00064
-0.10035
-0.26422
-0.39674
-4.30223
-2.32365
-0.15911
-2.79851
-0.32432
-0.29436
-2.40032
-0.15709
-0.04924
-0.12975
-0.00827
0.32916
-2.17095
0.27774
-2.42368
0.86562
-0.34812
0.16134
-2.27951
-0.49710
-0.14960
-0.24216
-0.12050
-2.71847
0.04108
-0.06105
0.51884
0.29872
0.05122
0.00373
-0.62413
-0.07268
-2.71273
-2.89521
0.11220
-2.53374
-0.01201
-1.02316
-2.28098
-0.38962
0.12758
-0.06569
-0.72426
-3.62753
-3.46810
0.24240
-3.38505
-0.49198
-0.05579
0.56529
-2.81458
-0.43091
-2.81404
-0.64003
0.19902
-0.95577
0.21346
-0.10035
0.03826
-0.26467
0.39150
0.37196
-0.10507
0.23778
-3.56285
-2.64740
0.22395
-2.72312
0.56102
-0.36879
-3.84145
-0.07580
-0.03613
0.44235
-0.62529
0.17014
-2.69796
0.15500
-1.47650
0.62149
0.11482
-0.52855
-3.42487
0.56907
-0.26077
-0.36374
0.26371
0.06067
0.10825
0.21061
0.56524
-0.38472
0.09862
0.42803
0.17959
0.47106
0.28582
0.25557
0.07847
0.56098
0.68602
0.12461
0.01379
-0.65951
0.03915
0.31073
0.26234
-0.27389
-0.68474
0.37780
-1.53034
0.63516
0.37989
1.01801
-2.45009
0.52432
0.08136
-0.46202
-0.72572
-0.20100
0.23772
0.63969
0.43808
0.22741
0.29091
-0.46149
-0.40690
-0.47238
-1.07756
-0.46160
0.74474
-2.25083
-0.19761
-0.34902
-1.98158
-0.47234
0.10410
0.38546
0.51128
-0.09675
-3.49267
0.19894
-2.35608
0.28522
0.28007
0.50247
-3.24359
0.38755
0.07397
-0.42623
0.00472
-0.81014
-0.17072
-0.29673
0.50412
-0.20275
-0.21164
-0.10635
-0.05482
-0.03996
-1.87574
-1.44824
-0.26039
-3.36590
-0.07775
-0.75688
-1.32901
-0.97920
0.13942
0.59521
-0.25204
-0.14428
-3.71070
-0.65364
-0.76268
0.15166
-0.37675
0.20371
-3.12905
-0.07796
0.21931
-0.38157
0.28078
-0.95962
0.16186
-0.10331
-0.72107
0.19036
0.28332
0.47014
0.05950
0.57237
-0.91329
-0.47161
-0.04307
-3.34746
0.09495
0.14928
-0.41441
-0.40959
-0.21706
0.48920
-0.14403
-0.35931
-0.21700
-0.11617
-2.30234
0.27707
0.13559
-0.20230
-3.86140
-0.13720
0.13690
-0.07880
-0.10085
0.84346
-0.67363
-0.65794
-0.57676
-0.47730
-0.43142
-4.94598
0.57271
-0.84224
-0.27996
0.38324
-2.99205
-0.04404
-4.88684
-0.15221
-0.27454
0.08989
-3.86782
-1.90547
0.37011
-3.25524
1.24370
-2.49850
0.26368
-0.08330
-3.36567
-2.06232
0.49516
-0.28740
0.12785
0.21819
-5.28234
0.33232
-0.82897
0.49122
-1.13503
-0.55215
-0.35696
-4.86916
0.35196
-0.98832
0.10795
0.21693
-1.10166
0.30255
-3.23965
0.32125
0.20279
-0.27540
-2.40660
-2.06841
-0.30527
-1.13956
-7.00597
-1.36682
0.27803
-1.35597
-2.47562
-3.05083
0.12542
-0.48715
-0.66866
0.33990
-3.69394
-0.98801
-0.22267
-0.01179
0.73688
0.15467
0.13838
-0.16432
-0.99648
0.60082
-0.39736
0.03669
0.47665
-0.99470
0.61606
-0.91343
-1.46560
-0.52994
0.28460
0.31593
-1.03421
0.06285
-1.34705
0.06893
-1.68589
0.29831
0.24453
0.61850
-1.12615
0.46448
0.72558
-0.59962
-0.21297
0.66817
0.00335
0.17970
-0.73700
-0.32700
-0.11733
-1.02785
0.74520
-0.51702
0.21969
0.95937
-0.22658
0.28970
-0.58756
0.63071
0.00863
0.20580
-0.20999
-0.50507
0.46880
-0.85592
0.71708
-0.25927
-0.11676
-0.16250
-0.65499
-0.70770
-0.38615
-0.20606
-0.97266
0.39795
-1.46327
