0.40354
-2.16554
-1.25767
-1.93346
-1.25754
-0.86993
-2.09080
0.39121
-1.47892
0.27230
0.29865
0.45319
-1.58735
0.32920
0.25507
-0.82097
0.13396
-1.75693
0.24879
-1.92861
-0.02068
0.36272
0.25312
0.21109
0.09967
0.36326
0.13414
0.29781
-1.19100
-1.20020
0.10232
-1.37265
0.20935
-0.70438
-0.10474
-0.52613
-0.38527
-0.52937
-0.11795
0.27489
-0.36527
0.34370
0.42874
0.23124
-0.39375
0.39311
0.29238
-0.45949
0.39455
-0.20541
0.38897
-0.61891
0.36670
0.24603
0.36537
0.27652
0.20047
0.23297
0.43160
0.44251
-0.52513
-0.43572
0.10288
-0.20072
0.31117
-0.66341
-0.34221
-0.37000
-0.70727
-0.65060
-0.70063
0.45040
-0.40161
0.30691
0.50555
0.42211
-0.75321
0.23228
0.52722
-0.56549
0.46183
-0.46861
0.55715
-0.28942
0.48593
0.44396
0.63445
0.37162
0.24336
0.49783
0.54091
0.56114
-1.12012
-0.32055
0.28859
-0.42971
-0.45111
0.22220
0.19384
0.11645
0.41252
0.45574
0.26165
-0.77672
0.28321
-0.32664
-0.51727
-0.54595
0.36896
-0.36307
-0.61370
0.38502
-0.49977
0.27863
-0.26751
0.38823
-0.41809
-0.42452
-0.41369
-0.12562
-0.35748
-0.82001
-0.31515
-0.30939
0.43791
0.45932
-0.38530
0.07126
-0.30926
0.41205
0.14644
0.41537
0.39424
0.49192
0.30904
-0.45557
0.27992
-0.38843
-0.76638
-0.58686
0.49705
-0.76868
-0.39824
0.52527
-0.76012
0.51833
-0.49638
0.33774
-1.13964
-0.48269
-0.55332
-0.23691
-0.15376
-0.55630
-0.24053
-0.56099
0.42011
0.44850
-0.56034
0.23842
-0.46568
0.29220
0.24957
0.31234
0.41034
0.35719
0.28568
-0.37449
0.08358
-0.68798
-0.46041
-0.50978
0.25297
-0.94561
-0.33211
0.36340
-0.60127
0.16865
-1.26658
0.20550
-0.24251
-0.57550
-0.77357
-0.83009
-1.81475
-0.40719
-0.45691
-0.37727
0.38764
0.37215
-1.28146
0.08791
-0.21482
0.52504
0.52326
0.65362
0.71233
0.60925
0.67114
-0.49249
0.74507
-0.17319
-0.51270
-0.52342
0.65792
-0.43809
-0.77143
0.81866
-0.00397
0.60934
-0.34305
0.56810
-0.46529
-0.76715
-0.56216
-0.15018
-0.26319
-0.81028
-0.42215
-0.70569
0.61570
0.71630
-0.15719
0.53831
-0.16031
0.51030
0.44677
0.59027
0.54558
0.46616
0.51370
-0.19842
0.52760
-0.25212
-0.47655
-0.43161
0.40586
-0.34486
-0.22875
0.42377
-0.76963
0.42532
-0.19066
0.59026
-0.74631
-0.28984
-0.49030
-0.08644
-0.01073
-1.23421
-0.75116
-0.47554
0.68199
0.58249
-0.12728
0.56525
0.57034
-0.46326
-0.48015
-0.75959
-0.77625
-0.53413
-0.43962
0.65675
-0.49486
0.55963
0.50982
0.54978
-0.64014
0.51196
0.58787
-0.58724
0.14645
-0.73373
0.14858
-0.71252
0.42267
0.59904
0.56591
0.51351
0.21062
0.68099
0.27201
0.36811
-0.50098
-0.74507
0.07192
-0.41406
-2.00721
0.37991
0.48004
0.41266
0.35086
0.42454
0.40951
-0.91212
0.41794
-1.51072
-1.58882
-1.08312
0.29178
-2.00673
-0.38418
0.40220
-1.29079
0.36523
-1.39945
0.26596
-1.42105
-1.89171
-1.07899
-1.40219
-0.56919
-1.66758
-1.38035
-0.58285
0.33624
0.29765
-1.38792
0.44067
-0.45244
0.00304
-0.02299
0.00416
0.07523
0.05296
0.08311
-0.59002
0.14834
-0.38296
-0.49724
-0.44391
0.06722
-0.62958
-0.31727
0.17552
-0.47210
-0.05980
-0.90775
0.07735
-0.14360
-0.66988
-0.47841
-0.17198
-0.71817
-0.19022
-0.20063
-0.18174
0.05701
0.03891
-0.41678
0.00703
0.65427
-0.85684
-0.47056
-0.69707
-0.89948
-1.01121
-0.84857
0.62317
-0.68462
0.38729
0.70639
0.70634
-0.93689
0.56071
0.48124
-0.91237
0.47313
-0.92993
0.37002
-0.73749
0.75513
0.47932
0.52087
0.38062
-0.00901
0.50994
0.43976
0.65684
-1.03768
-0.72114
0.22714
-0.52891
0.61078
-0.18083
-0.25015
-0.28684
-0.26833
-0.57868
-0.39077
0.52221
0.02556
0.50669
0.53947
0.66188
-0.37808
0.48935
0.52715
-0.67431
0.57512
-0.43965
0.51793
-0.42476
0.59118
0.54573
0.52573
0.38943
0.36245
0.43386
0.55003
0.48194
-0.45468
-0.47220
0.14634
-0.40411
-0.43780
0.48684
0.28916
0.30283
0.50262
0.33787
0.35789
-0.30401
0.37310
-0.32084
-0.36282
-0.39699
0.40988
-0.35729
-0.62809
0.48708
-0.53466
0.38376
-0.66218
0.32273
-0.39345
-0.21038
-0.33143
-0.12962
-0.22043
-0.56094
-0.40630
-0.32600
0.50608
0.34438
-0.18423
0.13645
-0.53672
0.45378
0.42014
0.45322
0.50256
0.40230
0.50081
-0.50293
0.52177
-0.49643
-0.75633
-1.05240
0.51112
-0.73728
-0.41597
0.40575
-0.75964
0.46501
-0.64430
0.43745
-0.42241
-0.83340
-0.89277
-0.51625
-0.34787
-0.73686
-0.60005
-0.45983
0.48604
0.56058
-0.21466
0.31495
-0.57019
0.20097
0.14209
0.06945
0.46063
0.29030
0.03866
-0.54340
0.22231
-0.40365
-0.56188
-0.23996
0.23468
-0.32123
-0.27436
0.41859
-0.40314
0.20960
-0.24664
0.15701
-0.52148
-0.38592
-0.26471
-0.34952
-0.46180
-0.50156
-0.37645
-0.32813
0.37061
0.45311
-0.27653
0.20087
-1.35637
0.88338
0.99339
1.14014
0.86762
0.82948
0.59386
-1.46606
0.93216
-1.19915
-1.26947
-1.14762
0.86867
-0.95577
-0.75178
0.89569
-1.17781
0.77135
-1.02867
0.91613
-2.17500
-0.51210
-0.88943
-0.86345
-0.44000
-0.43526
-1.33654
-2.32228
0.98960
1.09699
-0.76921
0.96948
-0.65677
0.57569
0.54456
0.67614
0.70211
0.78380
0.67406
-0.69769
0.54784
-0.34780
-0.94361
-0.16419
0.62622
-0.47635
-0.52049
0.61676
-0.26510
0.66865
-0.37599
0.55256
-0.69614
-0.58925
-0.43033
-0.64469
-0.32256
-0.72606
-0.09097
-0.36732
0.82506
0.77917
-0.42344
0.29619
-0.17666
0.63383
0.71005
0.72050
0.61481
0.76802
0.52295
-0.10594
0.80358
-0.12844
-0.22516
-0.25941
0.69758
-0.02253
-0.17327
0.67880
-0.16296
0.75884
0.01611
0.74699
0.04487
-0.12232
-0.23644
0.00958
0.07168
-0.24481
-0.21612
-0.11670
0.73040
0.60611
0.07570
0.65469
-0.62248
0.47868
0.33370
0.37588
0.41947
0.24969
0.30403
-0.40171
0.25028
-0.63109
-0.46612
-0.57196
0.22250
-1.00728
-0.33040
0.39183
-1.25945
0.43244
-1.28302
0.29601
-0.50369
-0.81506
-0.61675
-1.01411
-2.91636
-0.60871
-0.60879
-0.51988
0.57074
0.31221
-1.57584
0.21937
0.40273
-0.58583
-0.75824
-0.45232
-0.49196
-0.74777
-0.38591
0.39333
-0.71732
0.14329
0.39046
0.29373
-0.45950
0.29077
0.34826
-0.56488
0.25647
-0.52341
0.37451
-0.47472
0.31326
0.32451
0.31267
0.26169
0.15161
0.35739
0.37459
0.34499
-0.36171
-0.56888
0.15757
-0.20018
-0.98177
0.14023
0.11732
0.11617
0.01017
-0.00077
0.07643
-1.44619
-0.16637
-0.65645
-0.84863
-0.64499
-0.25927
-1.17947
-0.17929
0.02723
-0.87414
-0.06126
-0.96939
-0.25598
-0.22782
-1.45522
-0.92892
-1.08914
-0.80247
-0.76924
-1.11298
-0.38924
0.01139
-0.02133
-0.50127
-0.07395
0.08852
-0.50822
-0.53984
-0.40105
-0.39640
-0.37457
-0.37276
0.06268
-0.62301
-0.16800
0.08205
0.05164
-0.51023
-0.05470
0.15050
-0.40877
0.05308
-0.41334
-0.14647
-0.31701
0.14280
0.06483
0.02729
0.04800
0.08328
-0.05435
0.11545
0.13742
-0.45209
-0.43540
0.03670
-0.23941
-0.59479
0.33813
0.10583
0.18920
0.44438
0.37610
0.22988
-0.57339
0.26800
-0.68509
-0.58162
-0.51677
0.25436
-0.75556
-0.42286
0.43614
-1.17938
0.34989
-1.83372
0.36239
-0.58720
-0.45266
-0.63554
-1.37126
-2.41669
-0.54832
-0.68137
-0.39985
0.28507
0.26379
-3.36612
0.18090
0.45682
-0.64683
-4.02828
-1.65922
-0.73429
-1.01338
-0.78316
0.41813
-1.76269
0.21931
0.39937
0.29667
-0.76598
0.31273
0.31510
-0.68898
0.26278
-0.58176
0.20182
-0.65985
0.42447
0.34544
0.49027
0.37549
0.22426
0.49887
0.23692
0.45321
-0.94267
-0.80730
0.14338
-3.58632
-0.15664
0.42982
0.22085
0.38819
0.61133
0.39821
0.48955
-0.37571
0.36124
-0.32562
-0.24635
-0.31956
0.57682
-0.03039
-0.23286
0.52169
-0.53368
0.62177
-0.09096
0.43236
-0.29124
-0.40335
-0.74036
-0.68590
-0.13105
-0.52695
-0.24861
-0.50053
0.49909
0.54888
-0.61063
0.27314
-0.49708
0.41143
0.24375
0.41746
0.64035
0.38265
0.31427
-0.72125
0.36657
-1.07621
-1.08377
-0.40092
0.47407
-1.11856
-0.45905
0.47807
-0.99237
0.41727
-2.06966
0.26757
-0.54236
-0.59171
-0.62254
-2.30530
-4.24633
-0.28476
-0.62648
-0.64213
0.63009
0.54634
-5.98601
0.33102
0.35156
-0.86087
-0.30340
-0.82888
-0.73729
-1.03712
-0.64198
0.31830
-0.54040
0.31278
0.45059
0.46800
-0.55567
0.35944
0.36949
-0.56240
0.50912
-0.74077
0.27907
-0.91925
0.43127
0.37467
0.48930
0.38922
0.31776
0.41589
0.35962
0.19288
-0.72342
-0.54033
0.17277
-0.70134
0.39893
-2.42185
-1.74138
-2.73013
-2.44974
-0.80569
-1.44925
0.57675
-1.87915
0.57028
0.53201
0.41247
-1.79614
0.57997
0.31371
-1.68865
0.71381
-2.70369
0.73206
-2.42283
0.56335
0.54241
0.59655
0.54956
0.79237
0.50638
0.36274
0.44045
-0.85012
-2.00104
0.72726
-1.85635
-0.64099
-0.44085
-0.53503
-0.54547
-0.21461
-0.34618
-0.47139
0.21600
-0.65862
0.16171
0.20495
0.22438
-0.52993
-0.03747
0.16278
-0.48118
0.16598
-0.47779
0.16042
-0.47072
0.19769
0.16981
0.22390
0.14971
0.11088
0.13272
0.19610
0.30315
-0.31632
-0.42336
-0.10501
-0.42084
-0.42647
0.36653
0.16400
0.26063
0.65221
0.52362
0.18329
-0.27924
0.37089
-0.42224
-0.40257
-0.33710
0.33703
-0.25408
-0.52431
0.52692
-0.17411
0.29384
-0.10072
0.42714
-0.53013
-0.52343
-0.63541
-0.45455
-0.29011
-0.62825
-0.11188
-0.39942
0.72324
0.48262
-0.72652
0.14603
-0.68000
0.25753
0.13889
0.24005
0.28905
0.50037
0.17317
-0.37995
0.22397
-0.35159
-0.82066
-0.61250
0.27945
-0.39053
-0.46852
0.33914
-0.53004
0.24746
-0.42687
0.39772
-0.71636
-0.81248
-0.31375
-0.20997
-0.35277
-0.50706
-0.33703
-0.33262
0.36237
0.43094
-0.28603
0.16958
0.69097
-0.50322
-0.56065
-0.84363
-0.97720
-0.67648
-0.50469
0.79926
-0.51261
0.39508
0.57039
0.69128
-0.50057
0.49924
0.60911
-0.90718
0.82094
-0.95294
0.69626
-0.63230
0.72617
0.50000
0.81553
0.55960
0.26260
0.45281
0.69710
0.52052
-0.97417
-0.84474
0.41224
-0.54573
0.49954
-1.13383
-0.67917
-0.48618
-0.40013
-0.42764
-0.65067
0.52481
-0.69891
0.65513
0.38862
0.47052
-0.64616
0.43031
0.44057
-0.44048
0.50047
-0.35659
0.39373
-0.32123
0.20610
0.28087
0.37684
0.30782
0.30093
0.46471
0.48771
0.45620
-0.54653
-0.73325
0.18949
-0.28250
0.35977
-0.67933
-0.61036
-1.20012
-0.60917
-0.98695
-0.59688
0.29382
-0.48302
0.32465
0.59466
0.41559
-0.81810
0.21834
0.36332
-0.81733
0.52122
-1.26849
0.41864
-0.70883
0.42405
0.32494
0.62424
0.63191
0.24817
0.38514
0.37450
0.29357
-0.41389
-0.65638
0.22058
-0.61759
0.39387
-0.46848
-0.54819
-0.42623
-0.47381
-0.45235
-0.68054
0.30153
-0.33924
0.41501
0.39588
0.52888
-0.44545
0.55859
0.47175
-0.80574
0.35050
-0.42525
0.55040
-0.43309
0.54814
0.43044
0.65052
0.40400
0.36553
0.45255
0.44165
0.34767
-0.28325
-0.75570
0.28448
-0.70449
0.40252
-0.19853
-0.08367
-0.05201
-0.66629
-0.26937
-0.21170
0.43541
-0.25985
0.55396
0.64510
0.49643
-0.47937
0.25933
0.45120
-0.58890
0.48935
-0.04119
0.39777
-0.61447
0.36536
0.45866
0.39911
0.10467
0.17805
0.63940
0.34480
0.23548
-0.49829
-0.37530
0.12983
-0.30915
-0.46915
0.48798
0.33015
0.48071
0.57997
0.73645
0.34341
-0.47522
0.56874
-0.66680
-0.90890
-0.93121
0.50674
-0.91413
-0.40164
0.75627
-0.69306
0.30349
-0.27534
0.43265
-1.53812
-0.87631
-1.15607
-0.36108
-0.33925
-0.85264
-0.66169
-0.75172
0.52081
0.47097
-0.35632
0.31162
-0.63945
0.29606
0.09853
0.37163
0.72601
0.47754
0.27801
-0.70751
0.22954
-0.91008
-0.41294
-0.49946
0.40435
-0.79480
-0.31284
0.49656
-1.06896
0.32160
-2.51335
0.30255
-0.48208
-0.66471
-0.85347
-1.73104
-4.42239
-0.24896
-0.76778
-0.35435
0.40446
0.36937
-5.22051
0.17454
0.39231
-0.99996
-0.94502
-0.85086
-0.88021
-1.48494
-0.47221
0.29537
-0.90407
0.28034
0.44021
0.06360
-0.84021
0.19613
0.16020
-0.64258
0.43621
-1.01432
0.45310
-0.44688
0.27980
0.19565
0.41186
0.31008
0.22830
0.27850
0.22911
0.43833
-0.36249
-0.92835
0.01662
-0.60900
0.31478
-0.38513
-0.40882
-0.73125
-0.98766
-0.69826
-0.69955
0.39540
-0.29423
0.35187
0.49422
0.32576
-0.44796
0.25999
0.51199
-0.70875
0.26701
-0.49658
0.14440
-0.61051
0.50929
0.32513
0.47137
0.44926
0.11928
0.27895
0.36743
0.31708
-0.63287
-0.47616
0.21841
-0.34431
0.50780
-0.77042
-0.61414
-0.63170
-1.07177
-1.02973
-0.70954
0.78362
-0.39662
0.64278
0.52506
0.67451
-0.78061
0.62459
0.51769
-0.67750
0.40247
-0.87767
0.62949
-0.69316
0.61695
0.74248
0.84204
0.46252
0.15503
0.54125
0.75471
0.55488
-1.25160
-0.75325
0.37341
-0.61695
-0.25294
0.51306
0.36002
0.65816
0.52789
0.82311
0.59707
-0.18183
0.26491
-0.35861
-0.21950
-0.45288
0.71071
-0.35356
-0.02410
0.53138
-0.36255
0.57608
-0.32706
0.43602
0.06003
-0.52871
-0.11769
-0.14607
-0.33263
-0.29802
-0.17113
0.01751
0.56822
0.46518
-0.44740
0.36360
-0.40831
0.62883
0.49378
0.59106
0.65832
0.74782
0.82047
-0.21586
0.42192
-0.53899
-0.48078
-0.31590
0.72309
0.09992
-0.37397
0.51967
-0.39431
0.56524
-0.12517
0.58188
-0.25860
-0.15648
-0.25229
0.01547
-0.04273
-0.48157
-0.32409
-0.20688
0.59149
0.61948
-0.33027
0.47864
0.33036
-0.33815
-0.33876
-0.19342
-0.45349
-0.36532
-0.34278
0.53037
-0.26895
0.57063
0.50883
0.29099
-0.50055
0.32475
0.18437
-0.86197
0.65513
-0.27607
0.33512
-0.38298
0.54820
0.51023
0.53456
0.56378
0.22788
0.39004
0.43518
0.38156
-0.86608
-0.34580
0.07763
-0.14227
0.33093
-0.62559
-0.28814
-0.72280
-0.82767
-0.68540
-0.59660
0.39077
-0.89062
0.56448
0.54724
0.21284
-0.86093
0.31446
0.41898
-0.82162
0.41380
-0.99136
0.40196
-0.70484
0.61317
0.56406
0.42577
0.28913
0.17770
0.50460
0.44267
0.45493
-0.58347
-0.70291
0.20829
-0.35379
0.62265
-0.72044
-0.62898
-0.44468
-1.30467
-0.53242
-0.66685
0.49004
-0.13565
0.64543
0.48048
0.56318
-0.48022
0.82385
0.58499
-0.89359
0.65092
-0.41128
0.50197
-0.47922
0.73055
0.68595
0.71407
0.70830
0.34137
0.45746
0.62615
0.40833
-0.70956
-0.85034
0.42708
-0.32091
0.12230
-0.75657
-2.34216
-1.30710
-0.80850
-0.50362
-0.86532
0.46624
-1.22524
0.38429
0.29481
0.35483
-0.71719
0.31709
0.43251
-0.64038
0.21334
-0.58533
0.27897
-0.98632
0.42111
0.38539
0.36350
0.34989
0.15650
0.41392
0.41790
0.59874
-0.76846
-0.94432
0.17919
-2.48273
-0.27300
0.26868
0.32568
0.47410
0.31903
0.36495
0.40470
-0.26711
0.32201
-0.28854
-0.55827
-0.21209
0.51067
-0.38539
-0.33708
0.35339
-0.09105
0.43457
-0.11567
0.47153
-0.39090
-0.21745
-0.35915
-0.34811
-0.22754
-0.59384
-0.56097
-0.31854
0.57438
0.46477
-0.12019
0.37990
-0.68411
0.51966
0.32383
0.63967
0.73803
0.75579
0.55148
-0.60723
0.36401
-0.70178
-0.63723
-0.67764
0.57121
-0.34814
-0.26509
0.86340
-0.46360
0.89332
-0.12065
0.56856
-0.66747
-0.20229
-0.43800
-0.49345
-0.22249
-0.32886
-0.56831
-0.28398
0.62513
0.75883
-0.29108
0.42064
-0.42943
0.35554
0.30753
0.43298
0.45758
0.61516
0.37333
-0.88952
0.37413
-0.86870
-0.61442
-0.53680
0.36517
-1.22266
-0.52707
0.45302
-0.93923
0.35587
-1.75937
0.36990
-0.38534
-0.62427
-0.90373
-2.02516
-2.69729
-0.37920
-0.74027
-0.39826
0.37097
0.34772
-4.28279
0.24643
-0.50959
0.53587
0.29677
0.56106
0.56344
0.72173
0.41236
-0.57715
0.36340
-0.47875
-0.78258
-0.83968
0.45022
-0.40444
-0.32744
0.54335
-0.14428
0.51226
-0.63807
0.41554
-0.43263
-0.30387
-0.86968
-1.17377
-0.55042
-0.46257
-0.38120
-0.55986
0.63550
0.46447
-0.53034
0.18514
0.07590
-0.51243
-0.58788
-0.31580
-0.37789
-0.72293
-0.50994
0.09261
-0.92707
0.09037
0.00059
0.05953
-0.53490
0.07269
0.19383
-0.72284
0.07278
-0.72792
0.09378
-1.02018
0.21597
-0.23551
0.03012
-0.39951
-0.25211
0.16684
0.15354
0.02519
-0.70011
-0.67281
0.04167
-0.85219
-0.31285
0.04621
-0.03294
-0.02325
0.33353
0.32031
0.21072
-0.43833
0.21740
-0.39726
-0.83862
-0.82812
0.21465
-0.43360
-0.43455
0.23757
-0.38453
0.21282
-0.37672
0.20309
-0.34985
-0.40347
-0.45355
-0.38923
-0.41072
-0.24450
-0.50607
-0.42906
0.26169
0.24148
-0.22932
-0.00503
0.25517
-1.24621
-0.55739
-1.21088
-0.37429
-1.35061
-0.56554
0.57867
-1.15061
0.48415
0.77835
0.49824
-0.48181
0.59273
0.47174
-1.06792
0.77977
-0.89275
0.72869
-0.28095
0.46483
0.32560
0.65552
0.72620
0.52600
0.57766
0.46081
0.35521
-0.73244
-0.75249
0.31336
-0.48376
-0.32976
-0.00928
-0.03903
0.06969
0.21099
0.14690
0.13339
-0.51257
0.24487
-0.62641
-0.40231
-0.52144
0.10671
-0.67896
-0.23759
0.20512
-0.44905
0.18501
-0.35767
0.22205
-0.34639
-0.82488
-0.26635
-0.85615
-0.83413
-0.42469
-0.11830
-0.38326
0.20320
0.05410
-0.22607
0.09189
-0.52600
0.41913
0.27322
0.22208
0.62608
0.50306
0.32699
-0.37562
0.32514
-0.57015
-0.54526
-0.35609
0.38387
-0.73969
-0.49408
0.54125
-0.64856
0.41539
-0.86341
0.38494
-0.80582
-0.94445
-0.58726
-0.95371
-0.89777
-0.49608
-0.74081
-0.25132
0.49628
0.46788
-1.70928
0.31535
-0.15436
0.50632
0.33130
0.51452
0.54501
0.58130
0.47408
-1.29122
0.31697
-0.11211
-0.51391
-0.92902
0.50695
-0.97916
-0.47446
0.60862
-0.41142
0.59479
-0.54252
0.50909
-0.76731
-0.59189
-0.88489
-0.18790
-0.38453
-0.25948
-0.68578
-0.58742
0.67336
0.52821
-0.54067
0.30846
-0.31468
0.46469
0.37499
0.43263
0.42689
0.51200
0.52974
-0.51864
0.66191
-0.11898
-0.45340
-0.47233
0.45143
-0.56762
-0.28009
0.55910
-0.28998
0.57080
0.02361
0.43334
-0.79302
-0.05078
-0.33846
-0.48889
-0.42406
-0.45594
-0.03057
-0.30298
0.60983
0.62290
-0.34833
0.40336
-0.71100
0.42136
0.30509
0.25130
0.60485
0.53006
0.32796
-0.41057
0.20914
-0.34445
-0.22192
-0.25250
0.41858
-0.28509
-0.27475
0.41248
-0.15237
0.42602
-0.31626
0.36739
-0.38241
-0.29896
-0.38913
-0.31154
-0.28215
-0.47885
-0.29304
-0.26398
0.47912
0.68317
-0.22564
0.33799
-0.58990
0.38412
0.20997
0.00131
0.44960
0.70449
0.39211
-0.29309
0.41828
-0.40869
-0.20990
-0.64990
0.55014
-0.38902
-0.57346
0.57363
-0.24168
0.49888
-0.16217
0.38789
-0.63887
-0.44685
-0.48425
-0.08347
-0.36558
-0.59395
-0.17117
-0.56047
0.45492
0.33422
-0.19911
0.32923
1.07083
-1.21634
-0.57125
-1.20355
-1.06053
-1.53046
-1.62318
1.04050
-0.60825
0.90188
1.16492
1.02801
-0.69502
1.23012
0.75250
-1.33289
0.58493
-1.11138
0.76553
-0.64562
1.05924
0.87275
0.93224
0.79323
0.59736
1.04285
0.96615
0.74818
-1.35789
-1.33152
0.46560
-0.68549
0.69210
-1.35229
-0.91299
-1.18634
-1.15525
-1.50520
-1.34334
0.93480
-1.37524
0.93756
0.73940
0.86305
-1.66981
0.41348
0.61282
-1.84663
0.73818
-1.51419
0.42089
-1.32069
0.98094
0.65726
0.93576
0.34916
0.47746
0.77158
0.62916
0.80038
-1.21916
-1.33491
0.28812
-1.02172
-0.44716
0.20090
0.14875
0.34510
0.48476
0.54217
0.19385
-0.23988
0.24728
-0.29776
-0.13092
-0.32591
0.25400
-0.38225
-0.63577
0.43878
-0.13795
0.47080
-0.15208
0.34448
-0.51421
-0.44047
-0.44052
-0.17651
-0.16674
-0.52598
-0.24873
-0.37760
0.39650
0.50601
-0.01054
0.41714
-0.57653
0.23565
0.56530
0.36660
0.50078
0.53877
0.19812
-0.50081
0.39990
-0.62679
-0.33349
-0.21341
0.28717
-0.63681
-0.22783
0.54139
-0.10628
0.30171
-0.08677
0.43799
-0.74463
-0.39275
-0.79329
-0.56922
-0.21588
-0.20493
-0.24688
-0.89507
0.34159
0.36971
-0.22672
0.56585
0.42252
-1.00016
-1.14958
-0.90283
-0.57410
-0.90789
-0.66982
0.59668
-0.45387
0.46481
0.56296
0.42425
-0.47312
0.38823
0.39435
-0.75880
0.48858
-1.23408
0.50091
-1.14688
0.68516
0.61049
0.51314
0.49486
0.21926
0.68793
0.59115
0.42158
-1.25080
-1.41176
0.21454
-0.86399
-0.44326
0.35476
0.19396
0.35623
0.53010
0.37098
0.43030
-0.57042
0.33322
-0.42476
-0.24468
-0.38421
0.36099
-0.33410
-0.43079
0.46144
-0.20021
0.33014
-0.17157
0.41007
-0.64548
-0.40769
-0.51061
-0.16143
-0.45050
-0.28515
-0.41577
-0.38884
0.37998
0.46983
-0.15564
0.25034
-0.48485
0.22362
0.19354
0.18018
0.63666
0.42991
0.36149
-0.66389
0.27783
-1.22520
-0.72644
-0.52197
0.34786
-0.78796
-0.45700
0.54852
-1.05489
0.32643
-1.57807
0.43571
-0.58923
-0.67750
-0.81632
-1.75013
-2.86319
-0.40641
-1.23408
-0.66423
0.45425
0.45953
-4.57889
0.24210
-0.57192
0.52508
0.38216
0.39903
0.40707
0.51386
0.29934
-1.01015
0.48764
-0.46538
-0.26530
-0.80991
0.50920
-0.23836
-0.74036
0.46583
-0.12387
0.60981
-0.84095
0.70154
-0.31023
-0.67063
-0.58098
-0.41165
-0.55176
-0.43573
-0.94034
-0.47747
0.63726
0.52210
-0.22920
0.31728
0.10903
0.34032
0.41610
0.39702
0.24132
0.30979
0.29645
0.21833
0.62129
0.25321
0.18934
0.20236
0.28892
0.23920
0.09796
0.16955
0.23802
0.31378
0.58994
0.21999
0.30359
0.14789
0.28130
0.29596
0.50740
0.33156
0.16093
0.14470
0.28223
0.19111
0.26982
0.63722
-1.41068
0.50653
0.45829
0.63038
0.44546
0.54709
0.45171
-0.61848
0.42914
-1.01150
-1.11473
-1.92051
0.72402
-1.53432
-0.49850
0.54933
-1.49355
0.56618
-1.28166
0.59517
-0.88199
-1.74301
-0.96698
-0.88858
-0.29227
-1.12398
-0.96586
-0.52345
0.40814
0.51921
-1.06685
0.62410
0.47520
-0.15886
-0.05408
-0.23955
-0.47021
-0.23445
-0.17943
0.32070
-0.35974
0.32066
0.50528
0.36175
-0.26947
0.49432
0.36913
-0.42195
0.41596
-0.21921
0.31452
-0.16726
0.41085
0.39497
0.38807
0.51546
0.31888
0.30177
0.42711
0.33019
-0.49919
-0.40992
0.32998
-0.21381
-0.45306
0.38626
0.25721
0.58637
0.48383
0.40937
0.39631
-0.52604
0.45790
-0.31081
-0.48956
-0.67717
0.48696
-0.11226
-0.33574
0.36191
-0.40567
0.33109
-0.30201
0.38412
-0.34813
-0.34631
-0.40825
-0.31650
-0.33015
-0.72947
-0.42077
-0.42955
0.59732
0.50699
-0.15210
0.21821
-2.16243
-1.41966
-0.59535
-0.73719
-0.16043
-0.00635
-1.61023
-0.37532
-1.54926
-2.22391
-0.89002
-0.72668
-1.34191
-1.57527
-0.11904
-0.35825
-1.72281
-0.60027
-1.15535
-1.06138
-0.50242
-2.08858
-1.21837
-2.10638
-0.99456
-1.33626
-2.18758
-0.09865
-0.42033
-0.66468
-1.27707
-0.58119
0.30822
-0.20299
-0.14438
-0.31503
-0.55332
-0.55832
-0.27898
0.57837
-0.15486
0.38454
0.57333
0.37940
-0.29131
0.53696
0.48211
-0.56924
0.42122
-0.38112
0.18375
-0.23753
0.54430
0.46671
0.56470
0.37201
0.32306
0.42158
0.25275
0.28373
-0.23620
-0.44672
0.19725
-0.01420
0.44871
-1.02229
-0.85858
-0.76174
-1.08586
-1.33458
-0.93973
0.37345
-0.66478
0.48837
0.47535
0.52131
-1.16788
0.38387
0.51601
-1.94909
0.52276
-0.60807
0.18140
-0.85965
0.45292
0.40422
0.33231
0.34662
0.26063
0.56892
0.54606
0.25296
-0.63165
-0.78645
0.28141
-0.96862
-0.43778
-0.01523
-0.02607
-0.02640
0.07718
0.05682
-0.06020
-0.67318
-0.00320
-0.49871
-0.56237
-0.56960
-0.12790
-0.32954
-0.32754
0.03549
-0.81008
0.11722
-0.73045
0.07143
-0.21954
-0.29080
-0.53420
-0.33045
-0.91164
-0.23886
-0.23578
-0.28773
0.03926
-0.01330
-0.09885
0.00683
0.32642
-0.79482
-2.90112
-1.31750
-0.71287
-0.72810
-1.15505
0.43848
-1.40326
0.25387
0.41859
0.20981
-0.75156
0.22576
0.49174
-0.67506
0.19795
-0.61802
0.21884
-0.82033
0.36361
0.37418
0.48973
0.40408
0.11943
0.19700
0.50189
0.32663
-1.01090
-0.87452
0.19590
-3.14110
0.15442
-0.68809
-0.67919
-0.58603
-0.88850
-0.52114
-0.28612
0.06937
-0.69212
0.06693
0.11424
0.19872
-0.31950
-0.08174
0.16523
-0.57664
0.19785
-0.46961
0.06826
-0.52519
0.24332
0.10271
0.14777
0.16987
0.05655
0.04266
0.22695
0.18180
-0.31363
-0.54156
-0.26844
-0.17034
0.40531
-0.98291
-4.14463
-1.53769
-0.72188
-0.70588
-0.95005
0.54314
-1.47173
0.36678
0.24790
0.31037
-0.61196
0.45670
0.47929
-0.42624
0.30955
-0.59527
0.27596
-0.76591
0.42460
0.20711
0.40483
0.23530
0.19111
0.36681
0.61082
0.37613
-1.15887
-0.74198
0.20290
-3.04799
0.24056
-0.62821
-0.26211
-0.83653
-0.52408
-0.68107
-0.54547
0.41009
-0.46276
0.42587
0.43502
0.44885
-0.60241
0.33719
0.46084
-0.36740
0.30642
-0.55498
0.14751
-0.76734
0.38121
0.37649
0.41867
0.43622
0.20770
0.56674
0.34994
0.42533
-0.31535
-0.54439
0.21706
-0.24373
0.33905
-0.78676
-0.43982
-0.64167
-0.58090
-0.81661
-0.46092
0.47094
-0.67096
0.39117
0.53111
0.44991
-1.09899
0.25433
0.37701
-0.85634
0.54240
-0.33316
0.13536
-0.31629
0.47281
0.20158
0.58479
0.42566
0.18219
0.55459
0.53092
0.44149
-0.52134
-0.73850
0.28272
-0.42242
-2.17135
-1.90640
-0.75178
-1.06129
-0.28351
-0.51946
-2.36182
-0.22543
-2.04352
-2.77225
-1.05471
-0.81456
-1.99281
-1.56088
-0.11440
-0.68483
-1.83906
-1.26047
-1.06905
-1.65845
-0.48835
-2.32505
-1.46730
-1.92572
-1.18168
-1.46912
-2.45201
-0.16078
-0.80617
-1.06766
-1.60102
-1.09545
-0.63203
0.46324
0.29302
0.37534
0.43458
0.33812
0.33321
-0.34182
0.38288
-0.75178
-0.67959
-0.49655
0.33174
-0.93230
-0.37419
0.46762
-1.61280
0.46983
-1.40694
0.44582
-0.73694
-0.66675
-0.76064
-1.85407
-3.99400
-0.37403
-0.55598
-0.64056
0.34434
0.48766
-4.76961
0.30091
-2.44203
-1.52735
-0.64123
-1.08623
-0.31984
-0.16429
-2.14548
-0.35114
-1.75176
-2.79355
-1.09593
-0.87267
-2.16150
-1.63709
-0.05707
-0.59702
-1.55386
-0.93011
-1.07309
-1.71228
-0.31722
-2.04372
-1.29576
-2.04556
-0.97184
-1.55131
-2.22149
-0.17803
-0.86062
-1.01761
-1.43758
-1.33578
0.18278
-1.26557
-0.59745
-0.73609
-0.78149
-0.94766
-1.04546
0.58287
-0.48030
0.47129
0.50858
0.43054
-1.02154
0.70746
0.50556
-0.72215
0.39350
-1.21714
0.11670
-1.06630
0.52474
0.17291
0.46006
0.32238
0.22099
0.33881
0.62761
0.49231
-0.83369
-0.75699
0.16608
-1.07989
0.27289
-0.90272
-1.29288
-0.82987
-0.63513
-0.70609
-0.39223
0.35228
-0.78995
0.18972
0.08975
0.33369
-0.34490
0.03246
0.27277
-0.46814
0.18479
-0.58041
0.16647
-0.52817
0.28518
0.30345
0.20289
0.07810
0.12317
0.28386
0.17996
0.45567
-0.54160
-0.61327
0.15002
-1.31457
-0.69337
0.90005
0.33935
0.53036
0.62627
0.71633
0.69994
-1.40720
0.70933
-0.83873
-0.81782
-0.75723
0.63688
-1.14060
-0.76427
0.75359
-0.42236
0.62167
-0.30902
0.65100
-0.63982
-1.05307
-0.73936
-0.31633
-0.59010
-0.69764
-0.05132
-0.38565
0.71671
0.71153
-0.70511
0.22153
-0.54997
0.27456
0.19576
0.25023
0.53581
0.38933
0.25588
-0.73513
0.19654
-0.71847
-0.80122
-0.56215
0.27101
-1.55042
-0.46945
0.49423
-0.88487
0.37271
-1.66844
0.28248
-0.48235
-0.43403
-0.62320
-1.90213
-2.47614
-0.43680
-0.48521
-0.51862
0.50195
0.46664
-3.27413
0.22163
-0.53858
0.00496
-0.03537
-0.00314
0.08742
0.07333
-0.00369
-0.41429
0.07345
-0.48776
-0.42914
-0.17369
0.22645
-0.55226
-0.20610
0.11562
-0.89536
0.10409
-0.61390
0.01574
-0.37631
-0.42455
-0.28395
-0.09002
-0.19743
-0.31379
-0.27126
-0.25086
0.04234
0.01987
-0.24680
0.04899
0.22098
-0.76956
-1.74589
-0.88829
-0.57229
-0.60142
-0.86365
0.21883
-1.16953
0.18610
0.28925
0.39902
-0.71569
0.21459
0.31629
-0.51675
0.30051
-0.51107
0.22959
-0.49840
0.29419
0.16586
0.26167
0.23839
0.12939
0.30021
0.28979
0.40844
-0.75528
-0.66628
0.15527
-1.70471
0.68994
-0.58582
-0.56139
-0.85514
-0.53446
-0.95877
-0.78824
0.74893
-0.40999
0.52492
0.66390
0.64664
-0.98967
0.58273
0.50576
-0.71641
0.75609
-0.85178
0.28782
-0.48787
0.61857
0.48527
0.88963
0.82910
0.28458
0.49801
0.59821
0.65503
-1.24396
-0.80040
0.25313
-0.40895
0.15314
0.49143
0.46666
0.68749
0.44499
0.43606
0.47646
-0.02535
0.70927
0.17087
0.07900
-0.00934
0.58327
0.19281
0.02716
0.46974
0.10773
0.54999
0.42325
0.44207
0.18690
0.02095
0.15227
0.17392
0.54980
0.06923
0.06270
0.00021
0.53448
0.50489
0.14521
0.67601
0.07630
-1.95880
-1.38780
-1.57948
-0.42309
-0.60660
-2.18481
0.07340
-2.18095
0.11700
0.04727
0.06347
-2.17344
0.08765
0.09836
-1.56068
-0.75736
-2.14481
-0.38384
-2.22357
-0.90324
0.11232
0.06856
0.05879
-0.49392
0.06103
-1.18313
0.12385
-1.99981
-1.73946
0.03687
-1.58765
0.32812
-0.48486
-0.49735
-0.56593
-0.72736
-0.74241
-0.64360
0.34870
-0.53659
0.36141
0.31920
0.43536
-0.53435
0.32283
0.57754
-0.77215
0.17935
-0.79106
0.19555
-0.43796
0.43357
0.30098
0.39640
0.29998
0.05283
0.33977
0.27953
0.32715
-0.59449
-0.65741
0.22002
-0.49087
-0.44866
-0.02791
-0.02946
-0.00598
0.33056
0.09860
0.17670
-0.09209
-0.02949
-0.46570
-0.55882
-0.37977
0.22919
-0.52868
-0.36524
0.13841
-0.65509
-0.03889
-0.95853
0.17220
-0.28875
-0.50441
-0.37069
-0.24658
-0.54938
-0.37877
-0.17525
-0.21596
0.17001
0.10933
-0.13453
0.12144
-0.65640
0.58085
0.45527
0.54581
0.51226
0.46966
0.53646
-0.19358
0.53689
-0.32879
-0.20898
-0.69100
0.55401
-0.34771
-0.43832
0.51391
-0.59053
0.64255
-0.64698
0.52348
-0.41134
-0.34628
-1.15250
-0.51063
-0.13797
-0.27467
-0.59439
-0.10583
0.64562
0.62556
0.02364
0.49750
0.55132
-0.56209
-0.30691
-0.32700
-0.73083
-0.59535
-0.55002
0.54269
-0.41659
0.67388
0.77380
0.64047
-0.19149
0.55410
0.50566
-0.48826
0.73283
-0.52895
0.52806
-0.30243
0.50925
0.68341
0.72211
0.54171
0.33276
0.48315
0.77843
0.42051
-0.95052
-0.42473
0.35492
-0.24057
-0.26474
0.09198
0.01895
0.06046
0.19630
0.10855
-0.01276
-0.41408
0.05098
-0.42976
-0.49764
-0.33864
0.17305
-0.47797
-0.24593
0.12358
-0.48617
0.07691
-0.60845
0.16175
-0.53654
-0.37227
-0.52840
-0.68855
-0.29361
-0.36529
-0.22108
-0.19574
0.13751
0.10372
-0.28364
0.12305
-0.21582
0.10455
-0.03318
-0.02426
0.16841
0.10501
-0.07364
-0.36620
-0.04702
-0.29725
-0.50215
-0.65457
0.19105
-0.82185
-0.19593
0.10293
-0.67190
0.00301
-0.48680
0.07120
-0.16440
-0.63722
-0.45191
-0.38285
-0.34296
-0.13482
-0.32785
-0.33538
0.12839
0.08299
-0.17343
-0.03400
0.46431
-0.70488
-0.52139
-0.85760
-1.07391
-0.71871
-1.00435
0.53560
-0.39884
0.56858
0.38802
0.68440
-0.81020
0.25471
0.46736
-0.44028
0.53373
-0.47652
0.31363
-0.39057
0.60932
0.42502
0.45959
0.31433
0.24638
0.46676
0.30318
0.45910
-0.69555
-0.83241
0.19192
-0.52013
-0.52191
0.14359
0.31634
0.30926
0.45871
0.30427
0.40916
-0.75255
0.28358
-0.71438
-0.82911
-0.52253
0.32959
-1.08139
-0.40308
0.55193
-1.08690
0.38409
-1.96470
0.21218
-0.46373
-0.86487
-0.72987
-0.95794
-3.95835
-0.54733
-0.59112
-0.38219
0.39727
0.40088
-4.30417
0.18121
-0.47545
0.59508
0.35703
0.75981
0.73580
0.57343
0.57197
-0.34826
0.63203
-0.12233
-0.17596
-0.37565
0.64248
-0.21278
-0.49823
0.59134
-0.26085
0.69362
-0.37124
0.55815
-0.79611
-0.27060
-0.42180
-0.10337
-0.01824
-0.21569
-0.35886
-0.54452
0.85101
0.72911
-0.08776
0.50789
-0.68414
0.29277
0.25116
0.49494
0.39542
0.13684
0.55679
-0.66290
0.43255
-0.90570
-1.05405
-1.50423
0.48167
-0.98431
-0.66688
0.52073
-0.44668
0.48205
-0.99990
0.54890
-0.68348
-1.01387
-0.95963
-0.41678
-0.19645
-1.06854
-0.49771
-0.55098
0.43019
0.56333
-0.62191
0.33396
0.40905
-0.50651
-0.33475
-0.21275
-0.55414
-0.83173
-0.64067
0.55741
-0.23371
0.33462
0.39787
0.47739
-0.55000
0.41056
0.50013
-0.87531
0.31943
-0.67899
0.18530
-0.41025
0.36818
0.38479
0.30225
0.22343
0.04472
0.30123
0.45552
0.51959
-0.30459
-0.34902
0.18265
-0.33280
0.33420
-0.54409
-2.91245
-1.31667
-0.67457
-0.59043
-1.13791
0.58508
-1.10379
0.45011
0.41353
0.43777
-0.68063
0.26052
0.47687
-0.47109
0.22196
-0.80123
0.21838
-0.86401
0.51383
0.30028
0.39811
0.12638
0.25148
0.50735
0.32190
0.29863
-1.06354
-0.47324
0.20987
-1.98923
0.48942
-0.61982
-2.97272
-1.32021
-0.79867
-0.69590
-0.88872
0.58161
-1.37601
0.32032
0.39250
0.51394
-0.83665
0.31902
0.44220
-0.51896
0.28626
-0.72385
0.23659
-0.64947
0.25908
0.28497
0.41034
0.31921
0.23772
0.11389
0.23934
0.48535
-0.89011
-0.83774
0.18043
-3.02983
0.22437
-0.38269
-0.29490
-0.27756
-0.37447
-0.53489
-0.40027
0.32302
-0.27361
0.05445
0.37208
0.24591
-0.13786
0.13739
0.20152
-0.48576
0.35906
-0.36598
0.19381
-0.20150
0.28767
0.24957
0.26678
0.11421
0.12353
0.08750
0.25091
0.16037
-0.32197
-0.42858
0.24623
-0.02128
-0.55509
0.27485
0.14657
0.24368
0.42921
0.35543
0.34624
-0.35478
0.25280
-0.26050
-0.84439
-0.58632
0.11815
-0.63508
-0.45371
0.29334
-0.63932
0.07742
-0.37153
0.41431
-0.37395
-0.38052
-0.44206
-0.38273
-0.45251
-0.48121
-0.30283
-0.46954
0.44398
0.45312
-0.83737
0.22909
0.45834
-0.54545
-0.18655
-0.43990
-0.27579
-0.48463
-0.28960
0.54148
-0.27005
0.55332
0.62319
0.44582
-0.51367
0.62099
0.28120
-0.34186
0.33139
-0.63459
0.20431
-0.31953
0.51366
0.28653
0.55268
0.51226
0.22175
0.42308
0.54779
0.39995
-0.46386
-0.21983
0.33256
-0.33886
-1.45269
-2.39379
-1.35460
-1.50699
-0.42217
-0.99532
-2.24687
-0.41780
-2.15504
-1.91016
-1.10855
-0.69210
-2.20463
-1.23479
-0.20300
-0.94040
-1.29635
-1.42781
-0.69727
-2.05476
-0.47838
-2.03051
-1.27079
-1.50140
-1.03015
-1.09045
-2.20794
-0.18477
-1.60702
-1.47721
-1.19582
-1.70679
-0.52413
0.25044
0.24029
0.26380
0.71842
0.38945
0.42731
-0.66316
0.17093
-0.61542
-0.66200
-0.44743
0.30150
-0.95467
-0.38263
0.45621
-0.73364
0.33847
-1.86743
0.21163
-0.61015
-0.81514
-0.71551
-1.85251
-4.02919
-0.45003
-0.72823
-0.55640
0.52886
0.38395
-4.94235
0.19800
-0.50444
0.31803
0.16370
0.26500
0.53336
0.51460
0.22616
-0.77090
0.22168
-0.56651
-0.55278
-0.41188
0.19002
-0.36211
-0.24321
0.31070
-0.38944
0.50898
-0.23274
0.24218
-0.33743
-0.40209
-0.57086
-0.45171
-0.27698
-0.83694
-0.48040
-0.20592
0.39775
0.44471
-0.27979
0.12487
0.35721
-1.04624
-1.28493
-1.50574
-0.97463
-0.76493
-0.87771
0.16041
-0.77679
0.26299
0.38944
0.48828
-1.18363
0.41128
0.27985
-1.66736
0.18177
-1.58489
0.35779
-1.64924
0.37621
0.58040
0.34821
0.46561
0.44794
0.09191
0.36349
0.24961
-0.97466
-1.07782
0.23080
-0.78780
-0.22151
0.53587
0.30717
0.47790
0.85414
0.60845
0.67852
-0.17004
0.48407
-0.18944
-0.49738
-0.18027
0.63447
-0.16234
-0.41189
0.82787
-0.18956
0.56478
0.06039
0.75960
-0.40444
-0.26406
-0.13283
-0.19049
-0.00110
-0.35125
-0.33370
-0.58826
0.85379
0.64767
-0.16189
0.36666
0.46788
-0.14252
-0.07628
-0.33786
-0.56139
-0.69690
-0.26589
0.76994
-0.32189
0.55548
0.70762
0.56412
-0.72569
0.26538
0.61481
-0.63839
0.55444
-0.90611
0.57305
-0.58999
0.38429
0.41491
0.68699
0.51618
0.11070
0.58988
0.68204
0.58211
-0.76098
-0.37229
0.23749
-0.12783
-2.36155
0.46966
0.56039
0.48506
0.43104
0.28496
0.29224
-0.76293
0.35746
-2.55517
-1.62344
-1.50177
0.34245
-1.43873
-0.39500
0.26886
-1.57290
0.43117
-1.68251
0.39612
-0.79364
-2.08899
-1.42803
-1.46811
-1.42145
-1.07882
-2.06664
-0.30874
0.26959
0.53275
-1.43966
0.27568
0.24728
-0.58655
-0.66738
-0.71758
-0.44491
-0.31457
-0.39898
0.35463
-0.77722
0.34882
0.37969
0.24073
-0.69962
0.41818
0.32209
-0.80630
0.41890
-0.86708
0.35955
-0.37784
0.18446
0.24803
0.38762
0.38036
0.14592
0.35735
0.39100
0.32251
-0.53348
-0.54497
0.18323
-0.63425
-0.78962
0.55012
0.25396
0.54667
0.55926
0.93675
0.59997
-0.34605
0.42801
-0.35742
-0.87395
-1.02865
0.62443
-0.23073
-0.72347
0.51600
-0.72362
0.44838
-0.75338
0.51118
-0.95424
-0.66608
-0.82274
-0.46243
-0.50679
-0.34445
-0.43602
-0.56897
0.50147
0.61475
-0.55864
0.10713
0.31006
-0.37745
-0.59938
-0.63405
-0.41191
-0.39002
-0.57214
0.33101
-0.79561
0.17579
0.27938
0.28689
-0.78116
0.06708
0.49967
-0.53036
0.22947
-0.51313
0.10244
-0.35969
0.31201
0.04294
0.17778
0.19394
0.01276
0.40910
0.27367
0.43341
-0.74313
-0.72640
-0.00892
-0.86784
0.36829
-0.20456
-0.29394
-0.38608
-0.16669
-0.48832
-0.24097
0.24121
-0.27306
0.52568
0.39311
0.33355
-0.44812
0.29557
0.46354
-0.42198
0.14564
-0.46977
0.12534
-0.31696
0.32065
0.28245
0.43286
0.25707
0.18477
0.49716
0.28144
0.39400
-0.62885
-0.38162
0.18988
-0.28196
0.39052
-0.49669
-3.91549
-1.59913
-0.59261
-0.55069
-1.08170
0.40276
-1.51617
0.57601
0.34449
0.53110
-0.56098
0.34763
0.45276
-0.52388
0.23938
-0.75787
0.21009
-0.85715
0.53545
0.29664
0.49847
0.27526
0.13574
0.32987
0.50559
0.22329
-0.81797
-0.64191
0.18058
-3.44477
-0.29558
0.41723
0.28726
0.30128
0.47959
0.47209
0.41885
-0.56734
0.35582
-0.25007
-0.40235
-0.69525
0.37016
-0.41086
-0.26377
0.41308
-0.26533
0.39876
-0.76745
0.39950
-0.37992
-0.63435
-0.52800
-0.16592
-0.79042
-0.58476
-0.34365
-0.39900
0.31803
0.44570
-0.51589
0.18381
-0.42325
0.43330
0.25268
0.34154
0.46775
0.42250
0.20455
-0.28907
0.44903
-0.42636
-0.36410
-0.44751
0.21069
-0.05999
-0.38860
0.39201
-0.39187
0.36993
-0.36932
0.44125
-0.32962
-0.39677
-0.52485
-0.39791
-0.20615
-0.55269
-0.21584
-0.36918
0.64652
0.51373
-0.39675
0.41694
-1.44336
0.51934
0.54922
0.53404
0.34360
0.39432
0.56857
-0.81011
0.47345
-1.93372
-1.09296
-1.77101
0.39377
-1.25019
-0.62564
0.53834
-1.23671
0.68823
-1.22747
0.42191
-2.02404
-1.23109
-1.71112
-1.72249
-0.86382
-1.53991
-0.46395
-1.10492
0.40308
0.49777
-0.57452
0.45264
0.43775
-0.86750
-3.86318
-1.88776
-0.67643
-0.75674
-1.22363
0.37431
-1.34992
0.45309
0.50773
0.44859
-0.70033
0.13624
0.51614
-0.71742
0.39514
-0.86790
0.17021
-0.92057
0.31144
0.36360
0.36690
0.15292
0.16046
0.37805
0.39379
0.52666
-0.54764
-0.92669
0.19366
-3.99940
0.28475
-0.72318
-2.80095
-1.53681
-0.79450
-0.71342
-0.97448
0.25495
-1.36163
0.36938
0.44029
0.20850
-0.62936
0.23057
0.43528
-0.70799
0.21608
-0.93858
0.17272
-0.51574
0.57547
0.36388
0.38328
0.19297
0.24871
0.21585
0.32387
0.35665
-0.69373
-0.73937
0.11923
-2.69628
0.37609
-0.74635
-3.24739
-1.22405
-0.82626
-0.62651
-0.97314
0.34255
-1.15743
0.32133
0.38188
0.30398
-0.58177
0.42041
0.42104
-0.57760
0.37417
-0.46037
0.21678
-0.87595
0.45915
0.25894
0.35853
0.35595
0.09542
0.49301
0.37585
0.50004
-0.93895
-1.13763
0.16578
-3.48110
